{"config": {"vocab_size": 42, "d_model": 64, "n_heads": 4, "n_layers": 2, "d_ff": 128, "max_len": 64}, "vocab": ["\n", " ", "!", ",", "-", ".", "A", "E", "F", "H", "I", "L", "P", "R", "T", "W", "a", "b", "c", "d", "e", "f", "g", "h", "i", "j", "k", "l", "m", "n", "o", "p", "q", "r", "s", "t", "u", "v", "w", "x", "y", "z"], "params": {"embed.weight": [[2.2268803119659424, -0.7195180654525757, -0.28418517112731934, 0.11168522387742996, 0.22234059870243073, 0.9359346032142639, -0.6581588983535767, 0.25378620624542236, 1.1537381410598755, 0.07235575467348099, 1.4457335472106934, 1.0934560298919678, 0.4232846796512604, 0.43770813941955566, 0.3259246051311493, -0.8454977869987488, 0.5395913124084473, 1.7291722297668457, 0.5382369756698608, 1.4499566555023193, -2.3829429149627686, -0.990805447101593, 1.0504603385925293, 0.5412836074829102, 1.840716004371643, 0.3209085464477539, -0.20118092000484467, 0.4323398768901825, -0.45853060483932495, -1.4654968976974487, 0.0783187597990036, -0.6921609044075012, -1.0350419282913208, 0.07326727360486984, -0.060557637363672256, 0.8189874887466431, 0.560950756072998, -1.3778527975082397, -0.5245089530944824, -0.08174582570791245, -0.7417688965797424, 0.212395578622818, -0.34344717860221863, -3.3746836185455322, 1.842896819114685, 0.7046253681182861, -0.2292727828025818, 0.9253931045532227, 0.3315851092338562, -0.9110585451126099, 1.3726311922073364, -0.03011203743517399, -1.1025497913360596, 0.6591854095458984, -0.3037639558315277, 0.6510103344917297, 1.9074636697769165, 1.6433417797088623, 0.8728257417678833, -2.0369248390197754, -1.0503835678100586, -0.44808053970336914, -1.2109344005584717, -0.43406251072883606], [-0.733528196811676, -1.6475497484207153, -0.61976557970047, 0.9026283621788025, 1.7135738134384155, -0.5877537131309509, 1.8169735670089722, 1.3646045923233032, 0.8935357332229614, -1.4383697509765625, 1.4446594715118408, 0.280927836894989, 1.5276918411254883, 0.6077262759208679, 1.104673981666565, -0.5022855997085571, -0.3763016164302826, -1.2384109497070312, 1.5774530172348022, 1.7656289339065552, -0.6976174116134644, 0.17451061308383942, 0.8588241934776306, 2.6950631141662598, -1.6662883758544922, -0.9517391324043274, 1.4619946479797363, 1.5484524965286255, 1.2376562356948853, 0.5126392841339111, 0.4149015247821808, 0.29860374331474304, -1.4708501100540161, 0.10018503665924072, 0.3589586615562439, 0.5739644169807434, -1.4491881132125854, 0.10185739398002625, -0.8031957745552063, 0.45519012212753296, -1.988499641418457, -0.43491098284721375, 0.6680663228034973, 0.5208849906921387, -1.6124687194824219, 0.42022958397865295, 1.005174994468689, -1.1464682817459106, 1.3339990377426147, -0.20062364637851715, -1.5013980865478516, -0.742224395275116, 0.4359496533870697, 0.020070858299732208, 0.007587822154164314, 1.1605805158615112, 1.2914010286331177, 0.5611111521720886, 1.5397754907608032, 0.17814326286315918, -1.314734935760498, 0.23928837478160858, -1.7298632860183716, -0.07500170171260834], [-1.7981648445129395, -0.8072645664215088, -1.1461000442504883, 0.39658454060554504, -1.5791549682617188, -0.6712927222251892, 0.022979427129030228, -0.8563862442970276, -2.3908097743988037, -2.0903332233428955, 0.34441912174224854, -0.24952691793441772, 2.6027426719665527, 0.6437395215034485, 0.7266807556152344, 1.000045895576477, 0.6203083395957947, 1.9637022018432617, -0.5990289449691772, 0.7927057147026062, -2.2702298164367676, -1.8833940029144287, -2.055598735809326, -1.588269591331482, 0.6541609764099121, -0.6140077114105225, -0.6867265701293945, -1.2550299167633057, 1.370702862739563, -2.130136728286743, 0.8195180296897888, -0.07489655911922455, 0.9816064834594727, -1.3707278966903687, -1.405366063117981, -0.49782994389533997, 0.8763553500175476, -0.36524704098701477, 0.5577924251556396, -0.2221357524394989, 1.4187557697296143, -0.10555557906627655, 1.9977331161499023, 0.5617742538452148, -0.8325584530830383, -1.8777955770492554, -0.6884073615074158, -0.11601024121046066, -2.0689995288848877, 0.6133401989936829, 0.7844333052635193, 0.25656384229660034, 0.011342835612595081, 1.397057056427002, -0.32719215750694275, 0.29444074630737305, -0.5186392068862915, -2.063570499420166, 1.3014605045318604, 1.1831907033920288, 1.099698781967163, -1.641628623008728, 1.537580966949463, -0.004824955482035875], [-0.6682649254798889, -1.7265211343765259, -0.7362020015716553, 1.5055111646652222, -0.5464418530464172, -0.15549659729003906, 0.7883889079093933, 1.3243863582611084, 0.6886522769927979, -0.07438891381025314, -0.8681195974349976, -0.3038084805011749, -0.38450363278388977, -1.8488417863845825, -0.7452229857444763, -0.20784991979599, -1.4338717460632324, 0.005772088188678026, -0.046614259481430054, 0.962839663028717, 1.9923948049545288, 0.12656310200691223, -0.7265440225601196, -1.7386566400527954, -2.1077094078063965, 1.677446722984314, -1.043233036994934, -0.25881460309028625, 0.0750054121017456, 0.19399477541446686, -0.6164308190345764, -0.26333796977996826, -0.8378354907035828, 0.18284375965595245, -0.8264684677124023, -1.5034195184707642, -1.4586060047149658, 1.4273601770401, 1.1422066688537598, 1.22913658618927, -1.333039402961731, 0.7674599885940552, -0.18027541041374207, -0.1665513813495636, -0.4494830071926117, 0.2480740249156952, -0.6763288974761963, 0.061433665454387665, -1.4619241952896118, 1.3516814708709717, 0.8434339761734009, 0.28731876611709595, -1.2606678009033203, 0.5916085839271545, 0.9648599028587341, 1.124768853187561, 0.6928280591964722, 1.2350804805755615, 0.5961455702781677, 0.2792271077632904, -0.09517398476600647, 0.9435327053070068, -1.0450334548950195, 1.5921207666397095], [-0.031119512394070625, 1.6621148586273193, 1.5945677757263184, 1.8767699003219604, 0.6160705089569092, 0.5818829536437988, -2.530546188354492, -0.3661647439002991, -0.3118176758289337, 1.1598825454711914, -0.3423360586166382, 0.07808997482061386, -1.0320725440979004, -1.3561965227127075, 0.7427788376808167, -1.631227970123291, -0.344780296087265, 0.10903073847293854, 1.1629154682159424, -0.5163410902023315, 0.8099437952041626, -2.00368070602417, 1.7209361791610718, 1.0163131952285767, 0.6841360926628113, 0.21409577131271362, -1.2715853452682495, -0.6747504472732544, 2.038977861404419, -2.0164380073547363, -0.8655502796173096, -1.8263156414031982, -1.2266813516616821, 0.8031230568885803, -0.47051939368247986, 0.33159172534942627, -1.1278042793273926, 0.08559085428714752, -0.13521234691143036, 0.32527175545692444, 0.03116747923195362, 0.6828986406326294, 0.847428023815155, 0.2142343372106552, -0.02287215180695057, 0.8411099314689636, 0.5708484649658203, -0.5272899866104126, 1.769482970237732, 0.8345533609390259, 1.028194785118103, 0.5394440293312073, -0.5246862173080444, 1.0984183549880981, 0.7357026934623718, 0.4523123502731323, -0.5111134052276611, 0.7854922413825989, 0.711504340171814, -0.2377435564994812, 0.2845706045627594, -0.5470784902572632, 0.09079087525606155, -1.7286771535873413], [1.667817234992981, -0.5737083554267883, 0.3768709599971771, -0.2040698230266571, 0.9317430853843689, 1.5002899169921875, 0.08447954803705215, -0.6716769337654114, -0.5841214060783386, -0.9224411249160767, -1.4130476713180542, -1.003408670425415, -0.344632089138031, 0.2709020972251892, 0.20264746248722076, -1.2160179615020752, -1.1226645708084106, -0.8634003400802612, -0.33649972081184387, -0.6444570422172546, -0.2727074921131134, -0.790869414806366, 0.4367581009864807, -0.5961419343948364, -0.5653707981109619, 0.30233266949653625, 0.796808660030365, 2.215801954269409, 0.4904463589191437, -0.3826189637184143, 2.1807096004486084, -0.04415184631943703, -2.748619556427002, -0.9862236976623535, 0.22200140357017517, 0.34811997413635254, -2.659700870513916, -0.22876353561878204, 2.2396655082702637, 1.2508546113967896, 0.10297247022390366, 0.3994322717189789, 0.5412435531616211, 2.133634090423584, -1.0204591751098633, -1.6283373832702637, -0.003188885049894452, 0.3645150661468506, -0.3492736220359802, -0.2584441900253296, -1.22210693359375, 1.1654576063156128, -1.6850794553756714, -0.19827741384506226, 0.6796167492866516, 0.26453980803489685, 0.865540623664856, -0.388191282749176, 2.3919692039489746, 1.102750539779663, 0.16473709046840668, -0.5075624585151672, 0.14427459239959717, 0.04538857936859131], [-0.661876380443573, -0.6942834854125977, 0.9609427452087402, -1.9852547645568848, 1.065244197845459, -0.5557827353477478, -2.1353981494903564, -0.5506418347358704, 2.5205469131469727, -0.23317545652389526, 0.4624486565589905, 0.4702342450618744, -0.7624005675315857, -0.29199695587158203, -0.15528176724910736, 0.8365111351013184, -1.7971431016921997, -0.721188485622406, 0.20974262058734894, -1.0804836750030518, -0.29792317748069763, -0.1746239960193634, 0.29349446296691895, -0.465911865234375, -0.09209325164556503, 1.0420256853103638, 1.6171643733978271, 0.07306022942066193, -0.5433593392372131, -0.19526124000549316, 1.2568243741989136, -0.29627105593681335, 0.407144159078598, -0.24180379509925842, -1.5922298431396484, 0.7877663969993591, -1.5851916074752808, -0.05531689152121544, 1.3578752279281616, 0.5275025367736816, -1.5110406875610352, 0.11593888700008392, -1.0020534992218018, -0.1796007752418518, -0.8593049645423889, -2.83558988571167, -0.33682167530059814, -0.9431909322738647, -0.5398067831993103, -1.7205039262771606, -0.1220201775431633, 1.4602794647216797, 1.372854471206665, -0.8758857846260071, -0.8992468118667603, -0.2337469905614853, 1.6986931562423706, -0.5338080525398254, -0.0722954273223877, -0.16356788575649261, -0.318210244178772, -0.03644680231809616, 0.0951678454875946, -0.4612838625907898], [-0.6251755356788635, 1.0976461172103882, -0.7338501214981079, -1.1668096780776978, 0.496819406747818, -1.2752431631088257, -0.8648436665534973, -1.4661147594451904, -2.2046313285827637, -0.6008057594299316, 0.9742475152015686, 0.04776237532496452, 0.966980516910553, 0.014642112888395786, 2.2295641899108887, -0.32262569665908813, 1.1347250938415527, -1.1177561283111572, -0.46433037519454956, -2.2497496604919434, 1.251980185508728, 0.5509420037269592, -0.35654571652412415, -1.025858759880066, 1.204919457435608, 1.2573201656341553, -0.3850560784339905, 0.8076345324516296, -0.08290182799100876, -0.5793808698654175, -2.9139554500579834, 0.7251868844032288, 0.270342618227005, -1.3587675094604492, 1.4543157815933228, -0.36367541551589966, 1.2781810760498047, 1.4556589126586914, -0.16578736901283264, 1.430307388305664, -0.28499600291252136, -0.6926249861717224, -0.6380934119224548, -0.6874635815620422, 1.3909003734588623, 0.8589589595794678, -2.053891658782959, -2.1494646072387695, -1.4480195045471191, -0.9702991843223572, 0.5177789926528931, -2.1740381717681885, 0.7111625671386719, 0.289767861366272, 0.6852537393569946, -0.6651803255081177, 0.7489951252937317, -0.2736693322658539, -1.020460605621338, -0.4299856126308441, -0.7641072869300842, -0.23326703906059265, -1.8026766777038574, 0.5901848077774048], [1.9584752321243286, -0.0389937199652195, 1.0461620092391968, -0.5763182640075684, 1.3516016006469727, 0.12763367593288422, -1.6019959449768066, 1.3774971961975098, -1.0618594884872437, -1.2794740200042725, -1.6351035833358765, -0.22915993630886078, 1.44008207321167, -0.5224317908287048, 0.2368653118610382, 1.7908821105957031, -0.4891048073768616, -0.745323657989502, 1.0948833227157593, -0.7911452054977417, 0.6514895558357239, -0.368097722530365, -1.7663036584854126, 0.9074382185935974, 0.10138489305973053, -1.0893629789352417, -0.7446287274360657, -0.23926907777786255, -1.8892345428466797, -2.3527092933654785, -0.7624778151512146, -0.08498646318912506, -0.5274168848991394, 0.6645946502685547, 1.6719753742218018, -0.2567846477031708, -0.5080523490905762, -1.7941327095031738, -0.6695975065231323, 1.375540852546692, -0.16489391028881073, -1.4031774997711182, -0.30636268854141235, -1.0123943090438843, 0.9600514769554138, 1.438710331916809, -0.29416200518608093, -0.6445145606994629, 0.2625592052936554, 0.008350931107997894, 0.42231395840644836, -1.5004926919937134, -0.9430690407752991, -0.6266236305236816, -0.17908936738967896, 0.7060385346412659, 0.5983027815818787, -1.0913907289505005, -0.949108362197876, -0.6032452583312988, 0.028580160811543465, -0.3383639454841614, -2.4715988636016846, -0.04843122512102127], [-0.5919572710990906, 0.3556549549102783, -0.6676903963088989, 0.3522064685821533, -0.01833154633641243, 1.6363754272460938, -0.5158498287200928, 0.6334937214851379, 0.20221921801567078, -0.8423460721969604, -0.03578553348779678, 1.4962912797927856, 0.36367183923721313, -1.177689552307129, 1.036694049835205, -0.4261862337589264, 1.1106653213500977, -1.5429631471633911, -1.0998828411102295, -1.12726628780365, -0.005947336554527283, 1.2649227380752563, -1.1014246940612793, 0.04452856257557869, -1.8772372007369995, -3.2761154174804688, -0.8203042149543762, -0.4449388384819031, 0.029726095497608185, -0.21575360000133514, -0.6714000701904297, 0.7375783920288086, 0.13645587861537933, 0.4500833749771118, 1.139053225517273, 0.13786065578460693, 2.074594497680664, 1.1519887447357178, -0.5578669309616089, -0.14392486214637756, 0.17275230586528778, -0.17621195316314697, 0.43397748470306396, -0.24691028892993927, 0.7898684740066528, -1.3840272426605225, 1.9038931131362915, -0.05056928098201752, 0.3139666020870209, -1.31035315990448, -0.4516286551952362, 1.5491126775741577, 0.1757781058549881, 0.24244767427444458, -0.10839170962572098, 0.6668726801872253, -0.5953047275543213, -0.6461207270622253, -0.9384139776229858, 1.5351299047470093, 1.4970498085021973, -0.05975264310836792, -0.41122937202453613, -0.10460442304611206], [-0.8563849925994873, 0.5653453469276428, -0.6041619777679443, 1.5492569208145142, 1.7376434803009033, 0.4629136025905609, 0.332212895154953, -0.7481840252876282, 0.2603020668029785, -0.9081451892852783, 0.5938833951950073, -1.1125922203063965, -0.9117980599403381, 0.6044618487358093, 1.7644844055175781, 1.5430964231491089, 2.8872787952423096, -0.3855177164077759, 0.3737616539001465, 1.5019333362579346, -0.11942970752716064, -0.32256370782852173, 0.3151399493217468, 0.013058735989034176, -0.8611953258514404, -0.5936681032180786, 0.8996519446372986, 1.8612030744552612, -1.5042967796325684, 1.8683720827102661, -0.2126389592885971, -0.4289492666721344, 0.05072496458888054, 0.4965643882751465, 0.7372493743896484, 0.4305873513221741, -0.91897052526474, -0.6466002464294434, 1.850542664527893, 1.051198124885559, -0.39986351132392883, -0.3931610584259033, -0.9383940696716309, -1.2476170063018799, 1.209067702293396, -1.8034611940383911, 0.018868645653128624, 0.0042459131218492985, -1.1720404624938965, -0.9108740091323853, -0.20106342434883118, 0.7272989749908447, 0.13071897625923157, 0.2646341025829315, 0.8042528629302979, -0.3591602146625519, -0.632292628288269, 0.4887733459472656, -0.6503688097000122, 0.5066050887107849, 0.7725632190704346, -2.187135934829712, 1.8157716989517212, 0.0015996666625142097], [-1.0328760147094727, 2.974032402038574, -0.146597757935524, 0.5054404735565186, 1.1915589570999146, -1.6608089208602905, -1.6686313152313232, 1.129063606262207, -0.35310038924217224, -0.8192407488822937, -0.21495383977890015, -1.1989164352416992, -0.48446568846702576, -0.22493304312229156, 1.4276899099349976, 0.9705811738967896, 0.8700406551361084, -2.3899707794189453, 1.5348262786865234, 0.47072598338127136, 0.2610064446926117, 0.6981403231620789, 0.8836527466773987, -0.40354782342910767, -0.32208654284477234, 0.20070236921310425, -1.3290315866470337, 0.24403981864452362, -0.6261544823646545, 0.9012947082519531, 0.6531678438186646, 2.5802805423736572, 1.431933045387268, -0.3712325692176819, -0.039290204644203186, -1.2016311883926392, -0.9803450703620911, 1.9790815114974976, -1.4442306756973267, -0.20629052817821503, 0.8443412780761719, -0.33318543434143066, 2.629696846008301, -0.46310535073280334, -0.7050691843032837, -1.1934548616409302, 0.7522486448287964, -1.0149248838424683, 0.9954771995544434, 1.313692569732666, -0.697084367275238, 1.3793845176696777, 0.479408860206604, -0.08145852386951447, -1.264892578125, 1.2508283853530884, 0.5989661812782288, -2.27268123626709, 0.2920161783695221, -0.2030528336763382, 1.2473536729812622, 1.2858949899673462, 1.3093611001968384, 0.2528827488422394], [-2.097842216491699, 0.4124040901660919, -1.4397315979003906, 1.2691937685012817, 1.2677932977676392, -0.5593792200088501, -1.3092647790908813, -1.3436863422393799, -0.5968620777130127, -0.43985411524772644, -0.6978923678398132, -1.0865079164505005, -1.1566082239151, 0.7631193399429321, -0.5609813928604126, 0.27690932154655457, -1.011225938796997, 0.2251427322626114, -1.6244317293167114, -0.41756299138069153, 0.27751073241233826, 1.1203067302703857, -1.360617995262146, 1.5864694118499756, -0.911257803440094, -1.3076326847076416, 1.691252589225769, 0.47001683712005615, -0.45549336075782776, -1.9750927686691284, -0.5141094326972961, 2.2793691158294678, -1.0906695127487183, 1.0321954488754272, 0.2753217816352844, 0.61781907081604, 0.05647166445851326, 1.2492355108261108, 0.45384538173675537, 1.565665364265442, -0.4416111409664154, 0.3853161036968231, 0.8186993598937988, 0.3256707787513733, -0.28110191226005554, 0.6915275454521179, -0.17919307947158813, 0.6433690190315247, 0.4005489945411682, 0.909753143787384, -0.14700692892074585, 0.8062666654586792, -0.026216039434075356, 1.0887387990951538, 1.9905399084091187, -0.9404566287994385, 0.7811388969421387, -0.21853846311569214, 1.2042219638824463, -0.8900953531265259, 0.3184443414211273, 0.968939483165741, -0.9109290838241577, -0.5326623320579529], [0.7493347525596619, -0.3572860360145569, -0.33170562982559204, -1.268682599067688, 2.132864236831665, -0.7394170761108398, 0.2068517804145813, -1.4782204627990723, 0.2668546736240387, -1.5137702226638794, 0.2430456131696701, -0.5359829068183899, -1.2567768096923828, -0.44315534830093384, -2.198904514312744, -1.4368882179260254, -0.1922285407781601, -0.046182043850421906, 0.30191361904144287, 0.3806711733341217, 0.04777102544903755, 1.4917657375335693, -0.536779522895813, -1.4122356176376343, 0.08057991415262222, -0.3541935384273529, 0.3247112035751343, -0.22060470283031464, -0.8827804327011108, 0.508258044719696, 1.4114521741867065, -0.04733996465802193, 0.4091894328594208, 0.9522722363471985, 0.6430515646934509, 1.4772017002105713, 0.34964337944984436, 0.7127741575241089, -0.4868772029876709, -1.2755783796310425, 0.7022261023521423, 1.1783782243728638, 1.8768441677093506, -0.9241283535957336, 1.400338053703308, 1.0426514148712158, -0.32914498448371887, -1.1574831008911133, -0.45835041999816895, -0.40577152371406555, 0.03437893092632294, 0.9595439434051514, 0.6418065428733826, -0.31891950964927673, -0.7184340953826904, 0.1494089961051941, -0.3612546920776367, 0.6217805743217468, -1.4784858226776123, 0.5208204984664917, 1.0892654657363892, -1.430336833000183, -1.4101117849349976, 1.0948383808135986], [0.21084408462047577, -1.1212776899337769, 0.6331785321235657, -0.4298867881298065, 0.14113877713680267, -0.2527324855327606, 0.6698240041732788, -0.9427347779273987, 1.1748483180999756, 0.31505897641181946, 0.04854832962155342, 1.1070057153701782, 1.1436066627502441, -0.5475152134895325, 0.07435040920972824, -0.5015185475349426, -0.8484293222427368, -1.6308904886245728, -0.4408561885356903, -0.8206904530525208, 0.9418671727180481, -0.6105628609657288, 0.5816636681556702, -1.117356777191162, 0.0774945318698883, -0.385111004114151, 1.2985548973083496, -0.6062774658203125, -1.075998306274414, -1.9187901020050049, 1.884598731994629, 1.404734492301941, -1.4124197959899902, -2.073147773742676, -0.9146240949630737, 0.2415270358324051, 0.4255351424217224, 1.035849690437317, -0.6505571007728577, 1.0833284854888916, 0.8779081106185913, 1.7909785509109497, 0.3426857888698578, -1.1524537801742554, -0.19897419214248657, -0.2978874742984772, -0.34452736377716064, -0.33450019359588623, -0.1430743932723999, -0.11892551183700562, -0.028744393959641457, -1.3736143112182617, -1.0900713205337524, 1.181563377380371, -0.4675917327404022, -0.6582850217819214, -0.5882534384727478, 1.7889775037765503, 1.2450916767120361, -0.8670026659965515, 1.2177696228027344, -0.9462124109268188, 0.7011730670928955, -0.285681813955307], [-3.023836612701416, 0.4987770617008209, 0.8187786340713501, -1.3514591455459595, -0.3060300648212433, -0.1584596335887909, -1.3910847902297974, 0.6872534155845642, -1.7375781536102295, 0.7649917006492615, 0.2437899261713028, 2.139181613922119, -0.4167475998401642, 1.0401420593261719, -0.7352311611175537, -0.23198699951171875, 0.5638402104377747, 1.1045125722885132, -0.9011591076850891, -1.3731871843338013, -0.44733336567878723, -0.3337918817996979, -0.2181469351053238, 1.4995793104171753, 0.9281273484230042, -0.1275571584701538, -0.6773493885993958, -0.898688018321991, -0.3241925835609436, -0.1739829033613205, 0.590712308883667, 1.7807577848434448, 0.13314935564994812, 1.2517509460449219, -0.3344231843948364, 0.46000975370407104, 1.6002808809280396, 2.253427743911743, 2.610318899154663, -1.0087965726852417, 1.2533951997756958, -0.3481554090976715, -0.631557822227478, 1.875486969947815, -0.14845728874206543, -1.031884789466858, 0.7643593549728394, 0.5396378636360168, 2.5387423038482666, -1.4832749366760254, 0.03708212822675705, 1.2789562940597534, 0.38223251700401306, -0.29448115825653076, -2.209238290786743, 0.11064652353525162, 1.0792073011398315, 0.2687326967716217, -1.8462486267089844, -0.21030429005622864, -0.9563332796096802, 0.20634149014949799, -1.3833223581314087, -0.41344860196113586], [1.1259441375732422, -0.08065424859523773, 0.19811558723449707, -1.3635333776474, 0.5642762184143066, 1.354872703552246, -0.36766573786735535, 0.21783572435379028, 0.4347016513347626, 0.10546901077032089, 1.0473206043243408, 0.409737765789032, 0.15890337526798248, -0.669742226600647, 0.4518126845359802, -1.2007355690002441, -0.32384082674980164, 1.2657408714294434, -1.3115466833114624, -0.29740917682647705, -0.31297633051872253, -0.9676142334938049, -0.4162225127220154, 1.4283318519592285, 0.6492732763290405, 1.8194252252578735, 2.5812532901763916, -0.01472692284733057, 0.006029533687978983, 0.2296934574842453, 1.511345624923706, -0.3551669418811798, -0.6967421174049377, 0.6098897457122803, 1.3327014446258545, 0.3715640902519226, 0.5519557595252991, -0.5620923042297363, -0.17282038927078247, 0.14198985695838928, -0.5687757134437561, 0.1772749125957489, 1.7670897245407104, 0.5374992489814758, -0.24042817950248718, 2.15183162689209, 2.322803258895874, 1.3309351205825806, 0.8398983478546143, -0.07875104248523712, -0.6298145651817322, -0.736245334148407, -0.8303751349449158, -1.1914730072021484, -0.09834112972021103, -0.5942071080207825, -1.940002679824829, 0.698996365070343, 0.18071144819259644, 0.28425198793411255, -1.436800241470337, -0.6180998682975769, 0.5768944025039673, 1.3242700099945068], [-1.91972815990448, -0.32978761196136475, 0.5496675372123718, 0.0034163412638008595, -0.8038114309310913, 0.4365900456905365, -0.6288589835166931, -1.2788506746292114, 1.1819523572921753, 0.5386525988578796, -1.4832260608673096, 2.3081114292144775, -0.13333351910114288, 1.2297135591506958, -0.9173793792724609, -1.8527072668075562, 1.3678631782531738, 1.6752628087997437, -1.7004879713058472, 1.4840247631072998, -1.3981130123138428, -0.6137725710868835, 0.1333772838115692, 0.5390238761901855, 0.3990422487258911, -0.737016499042511, 0.04210423305630684, -0.3941364288330078, -0.14916907250881195, -0.13087211549282074, -0.19543308019638062, 1.623026728630066, -0.7175168991088867, 0.09208200871944427, -0.023926561698317528, 0.6556909680366516, -0.34487903118133545, -0.30468666553497314, 0.46115943789482117, 1.0662283897399902, 1.3218761682510376, 1.1274394989013672, 0.7544291615486145, 0.5292659997940063, -0.21286171674728394, 2.160220146179199, -0.9671546816825867, -0.2704433798789978, 0.4406414031982422, 0.2304074764251709, -0.21768681704998016, -1.0843744277954102, 0.39804255962371826, -1.013110876083374, 0.9473736882209778, -0.7676002979278564, -0.27959537506103516, -0.43207284808158875, -0.9002385139465332, 1.0232144594192505, 0.8783395886421204, -0.13065364956855774, 1.2831377983093262, 0.5855845808982849], [-0.44841617345809937, 0.12476000189781189, -0.26688337326049805, 1.3646608591079712, -1.4151451587677002, 0.3404358923435211, -1.768019437789917, -0.2786506712436676, -0.7378238439559937, -1.5544685125350952, -1.3020873069763184, -0.5657318830490112, 0.09931444376707077, -1.3808921575546265, -2.5735154151916504, -0.9551136493682861, 0.605797529220581, -1.4453521966934204, -0.6247733235359192, -0.05736643075942993, 0.3371475338935852, -1.3274997472763062, 0.19734640419483185, 1.1055066585540771, 2.2418088912963867, 1.5488356351852417, 0.768007755279541, -0.9260640740394592, -1.073309063911438, 1.2709054946899414, 1.0706547498703003, -2.149207830429077, -1.1094610691070557, 0.03495214506983757, 0.8271613121032715, 1.3236075639724731, -1.5544757843017578, 0.45277509093284607, 0.4944556653499603, 0.3954695165157318, 2.056316614151001, -0.942783772945404, 0.5558096170425415, -0.37575414776802063, 0.12984879314899445, -2.095398187637329, 0.9568206667900085, -0.544586181640625, 1.2296496629714966, 1.3255115747451782, 0.6514372825622559, -0.10667286813259125, -1.3581695556640625, 0.8898922204971313, -0.5062785744667053, -0.45772549510002136, 0.041204601526260376, 0.883741021156311, 0.9923723936080933, -1.754861831665039, 0.28963959217071533, -0.2612707018852234, 0.7861543893814087, -1.038940668106079], [-0.7574974894523621, -0.10262367129325867, -1.0292085409164429, 1.5504775047302246, -0.4824781119823456, 0.1374494433403015, 0.49847912788391113, -0.14924019575119019, 0.36887869238853455, 1.4755905866622925, 1.428570032119751, 0.36999693512916565, -0.11588204652070999, -0.33131569623947144, -0.3714551031589508, -0.880486011505127, -1.801884412765503, -0.7416563034057617, -1.3763209581375122, 0.5633715987205505, 0.3269983232021332, 1.2751598358154297, 0.6725431084632874, -0.7187145948410034, 1.328220248222351, -0.1892840415239334, -0.04189885035157204, -1.0563772916793823, -0.6171489953994751, 0.2879975140094757, -0.11302219331264496, -0.4783104360103607, 0.7383580803871155, 0.48013147711753845, -0.05461625009775162, 1.3575093746185303, 1.460573434829712, 0.6729080677032471, -0.8648412823677063, 1.2280246019363403, -0.2982034683227539, 0.03633976727724075, 0.03757615014910698, -0.14784441888332367, -2.1508820056915283, 0.7072831988334656, 3.0574164390563965, 0.44473889470100403, -0.6462833285331726, -1.7106069326400757, -0.985032320022583, -0.8376487493515015, 0.679992139339447, 1.2323634624481201, -0.07143526524305344, -0.5419929623603821, -0.5894943475723267, -2.7110533714294434, 1.9246385097503662, 0.27284136414527893, 0.761981725692749, 0.005250500049442053, 0.7819945216178894, 0.3131721019744873], [1.033311367034912, 1.1981998682022095, 1.1590189933776855, 3.227100133895874, -0.10731544345617294, 1.1506136655807495, -0.7744374871253967, 0.5029264688491821, 0.05125509947538376, 0.16772395372390747, -0.523048996925354, 0.5574312806129456, 2.1260592937469482, 0.6019140481948853, 2.135097026824951, -1.2672466039657593, 0.6355856657028198, 0.01997711881995201, 0.8376510143280029, -1.072587490081787, -0.5637544393539429, 0.44125962257385254, 0.9993959069252014, -0.3078083395957947, -0.10916251689195633, 0.6591667532920837, 1.3448400497436523, -1.4241503477096558, -2.13411545753479, -2.171091079711914, 1.4802517890930176, -1.8214308023452759, 0.12723056972026825, -1.210347294807434, -1.2605195045471191, -1.5182610750198364, -1.1140775680541992, 0.15217961370944977, 0.19836950302124023, -0.4355202615261078, -1.7808138132095337, 0.5172163844108582, 0.008950645104050636, 1.3243662118911743, 0.984046995639801, 0.015362757258117199, 0.9086678624153137, 0.9076032042503357, 1.1388695240020752, -0.0161012914031744, -0.5481339693069458, -2.2332346439361572, -0.33980223536491394, 0.7305158972740173, 0.6762174367904663, -1.5045591592788696, 0.34523066878318787, 0.513856053352356, -0.8131986260414124, -1.4373490810394287, 0.647790253162384, -1.1937395334243774, 0.676490068435669, 1.616973876953125], [0.6046052575111389, -0.8538216352462769, -1.318994164466858, 0.165815070271492, 1.5866609811782837, -1.1795765161514282, -0.5968906879425049, -0.577815592288971, 0.5100838541984558, 1.627098798751831, 0.43248045444488525, 0.6078932285308838, -0.8653830885887146, 1.326112151145935, -0.10012834519147873, -1.126427173614502, 1.5637452602386475, 0.13390924036502838, -0.4020376205444336, 0.26298171281814575, -0.910773754119873, 0.48327019810676575, 1.7277216911315918, 0.47877633571624756, -1.3208266496658325, -0.7691338658332825, 1.1235421895980835, -0.0704062432050705, 0.23932646214962006, -0.3050491213798523, -0.07987024635076523, -1.9297243356704712, -1.417012095451355, -0.2595091462135315, -1.3750499486923218, 1.2806466817855835, 2.224823236465454, -0.0425887331366539, 1.6396247148513794, -0.36596691608428955, 0.47775793075561523, 1.2585872411727905, -0.06041983142495155, 0.4431207776069641, -1.7567877769470215, -0.17498832941055298, 0.9209527373313904, -1.43192458152771, 0.06921021640300751, -1.1346898078918457, -0.9852104783058167, -0.04897759109735489, 0.2915029525756836, -0.01781049743294716, -0.12576517462730408, -0.6342529654502869, 0.6831316351890564, 0.3412594497203827, 2.062889575958252, -0.5153307318687439, -1.5426900386810303, -1.2968246936798096, -1.8152124881744385, -1.3791590929031372], [-2.802277088165283, 0.1321355402469635, -2.1685256958007812, -1.0095411539077759, 0.049784619361162186, -0.21006183326244354, 1.3375215530395508, -0.8589677214622498, 0.489321768283844, -0.924302875995636, -0.10688112676143646, -0.24255916476249695, 1.1373172998428345, 0.07637345790863037, -2.2983946800231934, 0.6487765312194824, 0.787687361240387, -0.6025984883308411, 0.404581755399704, 0.4975435733795166, 1.4312564134597778, -1.5092729330062866, -0.8871576189994812, 1.1234192848205566, -0.8651777505874634, -0.9235923886299133, -0.3330361247062683, -1.5608588457107544, 0.9828833937644958, -0.156669482588768, 0.5623807311058044, 0.7679431438446045, 0.6751943230628967, 0.4073581099510193, 0.9861238598823547, -1.5483064651489258, 0.7824212312698364, -0.1838432252407074, 1.1110731363296509, -1.1495341062545776, -1.5641990900039673, -0.8479862213134766, -0.4636940062046051, -1.0735441446304321, 0.2822553813457489, 1.2200164794921875, 0.026334475725889206, -0.683929443359375, 0.21739999949932098, -0.7753894925117493, 1.2291086912155151, -0.23476344347000122, -0.757282018661499, -2.4965500831604004, 0.00804589968174696, -0.07025225460529327, -0.25327879190444946, 0.8399485349655151, -1.6423569917678833, 0.2438286393880844, 1.7385674715042114, -1.7134112119674683, 0.26919662952423096, 0.39760836958885193], [0.6923214793205261, 0.7724276781082153, -0.5608713626861572, -1.295393705368042, -1.049514889717102, -1.2566883563995361, -1.4083601236343384, 0.15451966226100922, -0.18667267262935638, -0.2665308713912964, -0.6265020370483398, -0.05825936794281006, 0.7853859663009644, 0.5409563183784485, -0.4345801770687103, -0.40183666348457336, -1.4597115516662598, 0.517676591873169, 0.4321697950363159, 1.4647650718688965, -0.22227533161640167, 1.6847940683364868, -2.4641199111938477, 1.9143116474151611, 0.3941866159439087, 0.6233853697776794, -0.5328659415245056, -0.7450282573699951, -0.7385541200637817, 1.2989082336425781, 1.9055018424987793, -0.758856475353241, -0.738492488861084, -0.507365882396698, 0.47666704654693604, 0.1946583390235901, -0.7808840870857239, -1.0270793437957764, -0.02581123076379299, 1.5129138231277466, 2.9900619983673096, -0.9279977679252625, 1.8622667789459229, -0.8065364956855774, -0.2723650634288788, 0.9989449977874756, -0.15424460172653198, -0.5081414580345154, -0.5004884600639343, 2.3561911582946777, -0.9444305300712585, -1.171248197555542, 0.1585579812526703, -0.935327410697937, -1.0349551439285278, 1.3368111848831177, -1.262261986732483, 0.2816997170448303, -0.8476585149765015, -0.6373471021652222, 0.139123797416687, 0.23333589732646942, -0.6285884976387024, 0.38904130458831787], [-0.5924986004829407, 1.1670582294464111, -0.9529785513877869, -0.4278278052806854, -0.560864269733429, 0.251065731048584, 1.0308306217193604, -0.3850499391555786, -0.5697644948959351, -0.4136301279067993, 0.01652967557311058, -1.1612825393676758, -2.186600923538208, 0.10899297893047333, -1.2088836431503296, -1.1923447847366333, 0.47115272283554077, 1.0358796119689941, 0.15313278138637543, 0.2521984577178955, 1.1126799583435059, 0.9380123019218445, -0.43306592106819153, -0.06747990846633911, 0.97678542137146, -1.371641993522644, 1.7398841381072998, -0.5214031338691711, -0.4343322515487671, -0.25550225377082825, -0.16287904977798462, -0.21879716217517853, -1.2081509828567505, -1.4045355319976807, 0.45646849274635315, 1.0695576667785645, 0.7328710556030273, -1.307918906211853, 0.8417441844940186, 0.8077723979949951, 0.473651647567749, -1.7303677797317505, -0.692051887512207, 1.5756913423538208, -0.39081886410713196, -0.5489171147346497, -2.213181734085083, 2.116529941558838, -2.530952215194702, 0.4227701425552368, -0.3172314465045929, 0.0689128041267395, 1.6767001152038574, -1.6521140336990356, 1.0784754753112793, 0.22875075042247772, 0.4547777771949768, 0.8065974712371826, 0.08780055493116379, -0.9595649242401123, -0.708886444568634, -0.014181680046021938, -0.9670261144638062, 1.073160171508789], [0.17827208340168, 1.3089195489883423, -0.6065676808357239, 1.3896074295043945, 0.7523218393325806, 0.6973927617073059, 0.9987981915473938, 1.0443625450134277, -0.4385838806629181, -2.660212278366089, -1.5643081665039062, 0.19647006690502167, 0.5038061738014221, -0.27311939001083374, -0.41048455238342285, 0.45496031641960144, 0.8323394060134888, 0.08002535998821259, -0.5108361840248108, 0.7657135128974915, -1.1316910982131958, -0.14324331283569336, 1.901304841041565, 1.1214410066604614, -0.6289340853691101, 1.590794563293457, -0.12017825990915298, 0.21560531854629517, -0.03821806237101555, 0.5624223351478577, 0.04111872613430023, -0.4853912889957428, -0.5489735007286072, 0.5430424809455872, -0.13257795572280884, 1.388643741607666, -0.5829163789749146, 0.6354605555534363, -0.2337730973958969, -0.9897881150245667, -1.9248148202896118, -2.8529038429260254, -0.4273553788661957, 0.19765935838222504, 0.41126325726509094, -0.8981955647468567, 0.13858963549137115, 0.16435405611991882, -1.36893892288208, -0.6724980473518372, 1.473944067955017, 0.40043342113494873, -0.5832553505897522, -0.49871158599853516, -0.0006555453292094171, 0.9038019180297852, 0.5309934616088867, -2.026721477508545, -0.48304274678230286, 1.0669846534729004, 0.21323102712631226, -0.2808022201061249, -1.6281524896621704, 2.1571598052978516], [0.09433065354824066, -0.3271021842956543, 0.7529768943786621, -2.029960870742798, -0.8768755793571472, 0.41313105821609497, -0.21276840567588806, -1.9740723371505737, 0.6669774055480957, 0.46904730796813965, 1.2288751602172852, 0.03575311228632927, -0.0404166653752327, 1.2896229028701782, -0.5486041307449341, 0.29230451583862305, -0.9663282036781311, -1.0104484558105469, 1.4680938720703125, 0.020404720678925514, 0.40962809324264526, 0.2764045000076294, -0.6071819067001343, -0.7526206374168396, -0.3775775730609894, -0.41266298294067383, -3.17622709274292, -0.14558184146881104, -2.8145551681518555, -0.7285363674163818, 0.3330751061439514, -0.4739595055580139, 0.1854986548423767, -2.0672473907470703, -0.46443796157836914, 0.28618425130844116, -1.247509241104126, 0.6372312307357788, -0.23570281267166138, -0.6932592391967773, -1.6699836254119873, 0.3980705142021179, 1.1029963493347168, -0.6527659296989441, 0.010617504827678204, 1.473950982093811, 0.21179428696632385, -0.8958661556243896, 0.12234963476657867, -0.6783381104469299, -0.015606977976858616, 0.2882622480392456, 0.3497726619243622, 1.0835555791854858, 0.020751800388097763, 1.4338829517364502, 0.5356611609458923, -0.4077187180519104, 0.13715094327926636, -1.7389812469482422, -0.4601338505744934, -0.2004712074995041, 0.3236887454986572, -0.36427041888237], [-0.006651995237916708, 0.5531135201454163, 0.19300800561904907, -0.23047761619091034, 0.34127920866012573, -0.684205174446106, 0.30054688453674316, -0.007246349938213825, -0.9804630279541016, -0.7236424684524536, 0.7967895269393921, -0.1422155499458313, -0.2952372431755066, 0.040415503084659576, 0.6188803315162659, -1.3946120738983154, 0.14548112452030182, -0.713937520980835, 0.19309532642364502, 0.643872082233429, -1.5678857564926147, -0.3524573743343353, -0.18939292430877686, 0.6824558973312378, 0.5226293802261353, -0.34388846158981323, -1.1919677257537842, -0.7831360697746277, -1.9665279388427734, 0.1477266550064087, -1.5615748167037964, 2.315922737121582, -0.006870391312986612, 0.9354918003082275, -1.4218162298202515, 0.10157845914363861, -0.8150261044502258, -0.4678533971309662, 0.15892930328845978, -1.2442868947982788, 0.8692951798439026, -0.2117553949356079, 1.405129313468933, -1.1899346113204956, -1.046468734741211, 0.25675874948501587, -0.6541374325752258, 0.2663399875164032, 0.6904083490371704, -0.31885528564453125, 1.855170488357544, -1.3956944942474365, -0.6158275604248047, -0.724568247795105, 1.737344741821289, -0.8503994941711426, 0.16564308106899261, -0.39711493253707886, 1.8936538696289062, -0.17405083775520325, -1.6808990240097046, -0.3303387463092804, -1.609902024269104, -1.15822434425354], [0.13911443948745728, 1.7715435028076172, -0.8128234148025513, 0.9484713673591614, 0.6579123735427856, 0.15243959426879883, -0.7841228246688843, -0.018595853820443153, -0.25427505373954773, -1.159085750579834, -0.055440306663513184, -0.45678451657295227, -1.3889293670654297, 1.4310861825942993, 0.16805320978164673, -0.5587701201438904, -0.06155288219451904, 1.759873867034912, -0.15432554483413696, 1.005342960357666, -1.2526177167892456, -0.6888231039047241, -0.17631980776786804, 0.13253004848957062, -0.37910357117652893, -0.6437343955039978, -1.2347004413604736, 0.8623934984207153, -0.8930678367614746, 1.6078808307647705, 0.40356576442718506, 0.018131140619516373, 0.8673622608184814, -0.7155632972717285, 0.19574712216854095, -0.476970911026001, -2.9445486068725586, 0.19414277374744415, -0.5302499532699585, 1.6889032125473022, 1.6536155939102173, 0.7351124882698059, -0.8274990320205688, 0.2039707601070404, -0.8414932489395142, -0.8207250833511353, 1.3796278238296509, -0.9721368551254272, -0.18382100760936737, 0.4525512456893921, -1.581578254699707, 1.2478761672973633, 1.520035743713379, 0.9850876927375793, -0.512673556804657, -0.6881006360054016, -1.2010159492492676, -0.7335923314094543, -0.8913333415985107, 0.8085512518882751, 1.5949095487594604, 1.1586072444915771, -2.163811206817627, 0.17941372096538544], [2.8791582584381104, 0.16151432693004608, -2.7296743392944336, -1.750425100326538, 0.47133204340934753, 1.7580697536468506, -2.5636699199676514, -1.4960691928863525, 0.19313281774520874, 0.02676737681031227, 0.0633033886551857, 0.5049277544021606, -1.529026985168457, 0.3349839746952057, 0.3356933295726776, 0.7767992615699768, -0.9819715619087219, 1.834390640258789, 0.5138272047042847, 1.360122799873352, 0.661651074886322, 0.3039103150367737, 0.281968355178833, 1.3066550493240356, 0.5683716535568237, -0.7855616211891174, -0.9243664145469666, -1.0693682432174683, -0.7835818529129028, -0.9350642561912537, 0.933612585067749, -1.4224165678024292, 0.461013525724411, 1.6873162984848022, -0.16758911311626434, -0.7865697145462036, 0.6992571353912354, -0.24599824845790863, 0.7650182843208313, 0.021577151492238045, -0.3879081606864929, -0.1801687330007553, -0.27941590547561646, -0.9652665853500366, 0.05143830552697182, 0.305804580450058, 0.6515903472900391, 0.3643329441547394, -1.0060441493988037, 0.8699885010719299, 0.8356464505195618, -0.24614016711711884, 1.4698078632354736, 1.3421686887741089, -0.6892405152320862, -0.4138438105583191, -0.10476423054933548, 2.1292030811309814, 1.2422431707382202, 0.9878871440887451, -0.6211784482002258, -0.5871486663818359, -1.0000042915344238, -1.1921368837356567], [-1.1486390829086304, -0.93748539686203, 1.514904499053955, 0.23499251902103424, -0.30095767974853516, -1.4136457443237305, 1.0702502727508545, -1.4876360893249512, 1.7069923877716064, 0.32744860649108887, 0.9941096305847168, -0.5322813987731934, 0.01748756319284439, -0.8164591193199158, -0.34102964401245117, -0.23870967328548431, 0.4147995114326477, -0.03720737248659134, 0.32812273502349854, -0.47279444336891174, -0.005689957179129124, 0.4183507263660431, 1.2750890254974365, -0.49685436487197876, -1.7773436307907104, -2.2517640590667725, 0.17823506891727448, -0.03065321408212185, 1.4711827039718628, 2.3998935222625732, 0.6652570962905884, -0.9735698699951172, -1.1516526937484741, -0.8252992630004883, -0.8080042600631714, 0.5185170769691467, 1.1007663011550903, 0.9256287217140198, -2.6391053199768066, -2.022226095199585, 0.5591750144958496, 1.3985471725463867, -1.076642394065857, 2.012449264526367, 1.2175426483154297, 0.615081250667572, -0.4450620412826538, 0.8709506392478943, 0.003470298135653138, 0.16575536131858826, -2.0935518741607666, 1.4077084064483643, -1.1221654415130615, -1.9746649265289307, -0.03141791373491287, 1.4093984365463257, 2.336693525314331, 0.7374210953712463, -0.6714917421340942, 0.2958812415599823, 0.523159384727478, 1.662803053855896, -0.6811438202857971, 0.24637265503406525], [-1.3469797372817993, 0.0035961128305643797, -0.3956373631954193, 0.5323672294616699, 1.5733165740966797, -0.36239463090896606, -1.7729870080947876, -0.714024543762207, 0.36380839347839355, 0.9007961750030518, -0.5044228434562683, 0.6469115018844604, -0.5736659169197083, -0.704214334487915, -1.5907443761825562, 0.8090136647224426, 0.4767133593559265, 1.4967730045318604, -0.8287922739982605, 0.6107145547866821, -0.8695617318153381, -0.43095099925994873, 0.20906075835227966, -1.120933175086975, -0.4034535884857178, 0.9116986989974976, 0.5022518038749695, 0.0306857842952013, -1.4328997135162354, -2.0320892333984375, -0.4145956039428711, 0.6871037483215332, -1.769901156425476, 2.1960842609405518, 1.4828968048095703, 0.07093267142772675, 0.9814401865005493, 1.2612338066101074, 0.10708548873662949, -1.5870375633239746, 0.47135502099990845, 0.31028810143470764, -1.2862956523895264, -1.8663958311080933, -1.1805500984191895, 0.4098186790943146, 0.730925977230072, -0.42276665568351746, -1.9657235145568848, -0.7698575258255005, -0.06856100261211395, 0.44800883531570435, 0.001993585145100951, 0.6536280512809753, 0.6569945812225342, -1.7010767459869385, 0.6022582054138184, -0.7615295052528381, 0.8678399920463562, -0.8934812545776367, 0.3492477834224701, 0.8962636590003967, 1.1089837551116943, -0.24336928129196167], [1.5189322233200073, -1.94184410572052, -0.6947809457778931, 1.6485614776611328, -0.08475778996944427, 0.5161128640174866, -1.5711911916732788, 1.7842119932174683, 0.6622630953788757, -0.4025627672672272, 0.7886292338371277, 0.3948444724082947, 0.4463465213775635, -0.899010181427002, -0.016513220965862274, -0.6711648106575012, 0.21876873075962067, 0.43817487359046936, -0.24237622320652008, 2.2582385540008545, 0.2263869345188141, -0.11038868874311447, 1.2994896173477173, -1.340661883354187, -1.1840664148330688, -0.22983478009700775, -0.23084278404712677, 2.3657660484313965, 0.593957245349884, -1.0255221128463745, 0.8286616206169128, -0.8233493566513062, 0.33353573083877563, 0.4606131613254547, -0.6369956731796265, -0.5620580911636353, -0.25503814220428467, 0.3341318964958191, -1.6673940420150757, -0.056747835129499435, 0.3346734941005707, -0.3564627766609192, -0.19249050319194794, -0.9617040753364563, 2.1528000831604004, 0.946723997592926, 2.53383207321167, 0.922799825668335, -0.40191131830215454, 1.4573156833648682, 0.6998681426048279, 0.1825886368751526, -0.08952992409467697, -0.6896054744720459, 0.5501523017883301, 0.5420694947242737, 0.324878990650177, -0.034895893186330795, -0.8096206784248352, 2.2288320064544678, -1.1684404611587524, -0.5887720584869385, -0.631765604019165, -0.010037112049758434], [0.07128269970417023, -0.0861661434173584, -1.436933994293213, 0.4500996172428131, 2.030057191848755, -1.5789676904678345, 0.3933717608451843, 0.4614352583885193, 0.6622640490531921, -1.916368007659912, 1.5642375946044922, -0.6298192143440247, 0.858097493648529, -0.060010671615600586, 0.24454548954963684, -1.7061792612075806, 0.22873151302337646, 0.5237682461738586, -0.9808071851730347, -0.4761863648891449, 0.4802134931087494, -0.7355440258979797, 0.5269489884376526, -2.422679901123047, -0.7189795970916748, -0.4035124182701111, 0.2995954751968384, -0.24636799097061157, 0.4737664759159088, 1.377631664276123, 1.722270131111145, -0.07533785700798035, -0.32837024331092834, -0.3115285336971283, -0.9365342855453491, -0.815686047077179, -1.6386725902557373, 1.1169674396514893, 1.0855268239974976, 1.070737600326538, 0.10153788328170776, 0.8840281367301941, -0.5184434652328491, 2.1952457427978516, -0.9240115284919739, -0.7007606029510498, -0.31520652770996094, 2.18212890625, 0.19471395015716553, -0.30926603078842163, 0.8864208459854126, -0.8039813041687012, -2.807136297225952, -0.030889181420207024, -1.118581771850586, -1.7442444562911987, 0.6888412833213806, -0.5334503650665283, 1.3895999193191528, -0.9904556274414062, -0.5627222061157227, 0.18752947449684143, -1.7139657735824585, -0.44760662317276], [1.2021480798721313, -1.165745735168457, 0.48060208559036255, 0.2302248626947403, -0.9775134921073914, -1.2808325290679932, 0.233721062541008, 0.9765531420707703, 0.0191847775131464, 1.9601166248321533, -0.4887246787548065, -0.1407691240310669, -1.3206939697265625, 0.1466093808412552, -1.2636109590530396, 1.6899172067642212, -0.8064455986022949, -0.2878592610359192, -0.21462900936603546, -1.0280570983886719, -1.3438918590545654, -0.010990655049681664, -0.0033729688730090857, -0.26564106345176697, 1.4462542533874512, -0.4354548454284668, -0.4789963662624359, 2.3294882774353027, -0.6144989132881165, 0.8471343517303467, 1.3555082082748413, 0.15849149227142334, 0.648621678352356, 1.7028275728225708, 0.45630165934562683, -1.153760552406311, 0.15640559792518616, -0.6108866333961487, -0.9337049126625061, -1.9854965209960938, -0.5682764053344727, -0.7282894849777222, -0.9893487691879272, -0.49462273716926575, -1.1043121814727783, -0.051914725452661514, -0.5243574976921082, 0.120578832924366, -0.5504777431488037, -0.12397131323814392, -0.6820151805877686, 0.26987355947494507, -1.2043999433517456, 1.8471537828445435, -1.3746434450149536, -0.6992318034172058, 1.467769980430603, 0.8414632678031921, -0.16689680516719818, -1.6313058137893677, 1.3943485021591187, 0.13850635290145874, 0.8882802724838257, 1.4600706100463867], [0.20971465110778809, -1.0764973163604736, 1.1774910688400269, -0.4814416766166687, 1.3480653762817383, 1.233744502067566, 1.6051232814788818, -1.0284826755523682, 1.6593213081359863, 0.7385185956954956, 0.19663314521312714, 0.29877522587776184, -0.8468182682991028, 0.6438215970993042, -0.5537249445915222, -2.266829252243042, 0.42568016052246094, -1.636160969734192, 2.1413519382476807, -1.349379539489746, -0.0855613425374031, -0.16077858209609985, -0.2896184027194977, -0.9951933026313782, 0.35668060183525085, -0.1455247700214386, -0.5231425166130066, -0.29467612504959106, -1.9764113426208496, -0.09980479627847672, -0.8615404367446899, 0.5220045447349548, -0.0501026026904583, 0.8419227600097656, 0.040988191962242126, -0.7460141777992249, 0.32377052307128906, 0.22170013189315796, -0.7634280920028687, -0.15622006356716156, 0.4375492334365845, -0.620058536529541, -0.028076067566871643, -1.2154920101165771, 0.620579719543457, 0.04426689073443413, -1.1033095121383667, 0.27609968185424805, -0.356993705034256, 0.0845073014497757, -1.293005108833313, -0.7667498588562012, 0.5112680196762085, -0.4828917980194092, 0.8788766264915466, 0.6613519787788391, 0.3160102963447571, -1.8797483444213867, -1.642422080039978, 0.03628087043762207, 0.08805536478757858, 0.7856242656707764, -1.4889801740646362, -0.7111380100250244], [-0.7807561159133911, -1.412424087524414, 0.315733402967453, -1.4569240808486938, 1.6561938524246216, -1.0254311561584473, 0.1862071007490158, 0.43680259585380554, 0.8441281914710999, -1.4003690481185913, 1.3830422163009644, -0.2740238904953003, 0.03472038358449936, 0.7350801825523376, 0.20361019670963287, -0.6298302412033081, -0.4859602153301239, -0.207227885723114, 0.7888206839561462, -1.1782194375991821, 2.2162418365478516, 1.9895597696304321, 0.8635272979736328, 0.8814874887466431, 0.04660250246524811, 3.2637784481048584, 1.5274602174758911, -0.5356240272521973, 0.5814979672431946, 1.7321528196334839, -0.5479433536529541, -0.16515392065048218, -0.7393798232078552, -1.0077235698699951, -0.49026185274124146, 0.8655283451080322, -0.07187221199274063, 1.0802236795425415, -0.3544788062572479, 1.9605767726898193, -0.5679986476898193, 0.4574701189994812, -0.9317365288734436, -1.0626003742218018, 0.6796847581863403, -0.0564664751291275, 1.0193978548049927, 0.22118182480335236, -0.9932956695556641, -0.06607048958539963, 0.8378897309303284, 0.8448128700256348, 0.5671437382698059, -1.1491361856460571, 0.666178822517395, -0.9595290422439575, -1.6398775577545166, 0.7672159671783447, -0.09651374816894531, -0.1737465113401413, 1.5076379776000977, 0.22927650809288025, -0.8449435234069824, 0.27648961544036865], [1.2255949974060059, -1.697447657585144, 3.419520854949951, -1.8130162954330444, -0.9472484588623047, -0.29530900716781616, -0.2609156668186188, -1.0361207723617554, 0.316584974527359, -0.6653128862380981, -1.114633560180664, 0.625129759311676, 0.8361902236938477, -0.04634031280875206, -0.7149912118911743, -1.3371636867523193, -1.0190887451171875, -0.26526498794555664, -0.9624390006065369, -0.151377335190773, 0.009217791259288788, 2.844623327255249, 0.09720481932163239, -0.8474545478820801, -0.4659199118614197, -0.666017472743988, 0.043245598673820496, -0.50333571434021, 0.4167296290397644, -0.023184064775705338, 0.43749088048934937, -0.6448053121566772, 0.45207878947257996, 1.389086127281189, 1.342513084411621, 1.132544755935669, -2.2243998050689697, 1.423263669013977, -0.5437644124031067, -0.14028678834438324, 0.8122008442878723, 2.06577205657959, 0.3292848765850067, 0.2144802063703537, 0.04176785796880722, 0.3671444356441498, -0.5056394934654236, -0.8460714817047119, -0.23323187232017517, -0.25148090720176697, -0.4059903621673584, -1.5965559482574463, -0.4784603714942932, -1.1232891082763672, -1.6300681829452515, -0.7068849205970764, -1.536643624305725, 0.08139630407094955, -1.4734008312225342, 1.3000826835632324, 0.9040758609771729, -1.2889596223831177, -1.5550249814987183, 0.8223439455032349], [-1.2349956035614014, 1.2521733045578003, -0.12666627764701843, 0.8230156302452087, 0.33368346095085144, -1.5522780418395996, -1.3902490139007568, 0.7111184000968933, -1.1869497299194336, 0.5394651293754578, 0.03832527622580528, -0.02545006573200226, 1.8608901500701904, -0.9622650146484375, -0.08472761511802673, 0.06530804187059402, 0.59333735704422, 0.5529343485832214, 0.00016335923282895237, -0.8202099204063416, 0.03122633695602417, -1.208694338798523, -1.5454734563827515, -1.6406762599945068, -1.2711358070373535, 0.7425470352172852, 1.7771695852279663, -0.9545708298683167, 0.3585047423839569, -0.8633526563644409, -1.5313087701797485, -0.47343966364860535, -0.4323590099811554, 1.373708724975586, 0.9272803664207458, -0.8282521367073059, 0.7621539235115051, 1.6410716772079468, -0.09348814934492111, 1.0597788095474243, 1.4064953327178955, -0.9129441976547241, 0.07914964109659195, 0.4143567383289337, 0.9313574433326721, 0.4416695237159729, -1.4624743461608887, -0.4452742338180542, -0.006231403909623623, 0.9685769081115723, -0.8776387572288513, 0.8429911136627197, -1.321529746055603, 0.38648658990859985, 0.172185018658638, 0.08489018678665161, -0.6753372550010681, 1.1879727840423584, -0.06860126554965973, 1.625872254371643, -0.31060853600502014, -1.8705012798309326, -2.0371716022491455, 0.4111557900905609], [0.6375013589859009, 1.1239100694656372, 1.1017833948135376, -2.969367265701294, -1.0660980939865112, 1.0100491046905518, -1.2390085458755493, -1.422133207321167, 1.7279659509658813, 0.6009852886199951, 1.627984642982483, -0.3026999533176422, -0.6931031942367554, 0.32305726408958435, -0.3297045826911926, 1.7501177787780762, -2.0498597621917725, 0.37644821405410767, 0.5228107571601868, -0.4780978560447693, 0.23087742924690247, 0.939010500907898, 1.1462246179580688, -0.30776798725128174, -3.6835761070251465, -0.15897373855113983, -0.21828509867191315, -0.15955528616905212, 1.417431116104126, 0.0453990176320076, -0.4997708201408386, 1.3769859075546265, -1.8797482252120972, -0.6076791882514954, -1.2073659896850586, 0.2675042450428009, 0.3261311948299408, 1.054572343826294, 0.13467957079410553, 1.0309922695159912, 0.97343909740448, -0.1607998162508011, 1.732528567314148, 0.7745262384414673, 0.6540699005126953, 0.6316400170326233, 0.8074979186058044, 0.5221230387687683, 0.2797684967517853, -0.019120896235108376, 0.06196465715765953, -0.9162604212760925, -0.43947651982307434, -1.1769423484802246, 1.0689191818237305, 0.34783047437667847, -0.6013026833534241, 0.5015053749084473, -0.33026617765426636, 0.7274664044380188, -0.3144984245300293, 0.9862993359565735, -1.0512558221817017, -0.47548162937164307], [-0.16043417155742645, -0.4333631098270416, -0.7849172949790955, -0.08455400168895721, -0.13212335109710693, 0.21186287701129913, -0.03289041668176651, -0.8552597165107727, 2.453340530395508, 0.839211106300354, 0.17479534447193146, 0.01156560704112053, -0.8540738821029663, 1.7473499774932861, 0.28020766377449036, -0.48246029019355774, -1.2122780084609985, 1.0756787061691284, 1.4556957483291626, -1.4326668977737427, -0.5181369185447693, -0.6008313298225403, -1.6079188585281372, -0.8367083072662354, -0.8424718976020813, 0.006403068546205759, -1.3875312805175781, 1.6436066627502441, 0.8495488166809082, 0.9053471088409424, -1.1505749225616455, -0.6990166902542114, -1.4096260070800781, 0.30687281489372253, -0.539486825466156, -0.021999478340148926, 2.195624351501465, -1.5794153213500977, -1.7748668193817139, 0.18411992490291595, 1.1064401865005493, 1.8887131214141846, 2.414788007736206, -0.6593450903892517, 3.0467939376831055, 0.39951613545417786, -0.574630081653595, -0.9014887809753418, -1.1393762826919556, -0.9222841262817383, 0.6341507434844971, -0.5314712524414062, 1.6321848630905151, -2.0811362266540527, 1.1166703701019287, -1.2868369817733765, -0.3619939386844635, -1.1464776992797852, 0.1392751932144165, -1.2991989850997925, -0.5449162125587463, 1.5738403797149658, -1.3277525901794434, -0.12300492078065872], [-0.9026144742965698, 0.6768538951873779, -0.4597194790840149, -0.42411360144615173, -0.4637554883956909, -0.850473940372467, -1.4745471477508545, 0.7731316089630127, -0.050077490508556366, 0.5215147733688354, -0.20685185492038727, -0.6832011342048645, 0.4371579587459564, -0.6813361048698425, -1.9165974855422974, 1.2785202264785767, 1.620425820350647, 0.6435757279396057, -1.2172527313232422, -0.6500228643417358, -2.34651780128479, -1.2652076482772827, -1.8945060968399048, 0.2808944284915924, -0.14739583432674408, -2.762371301651001, 2.241037607192993, 1.4270470142364502, 1.3121986389160156, 1.9208875894546509, 0.9240378141403198, 2.181199312210083, -0.775704026222229, -0.22340339422225952, 0.5171032547950745, 1.3395843505859375, 0.6128391027450562, 0.01961923949420452, 1.1675053834915161, 0.6210875511169434, 0.12617731094360352, 1.0257798433303833, 2.1610283851623535, 0.8180060982704163, 0.34979477524757385, -0.00749123003333807, 0.4005014896392822, -1.4134654998779297, -0.8951202034950256, -1.2767117023468018, 1.556650161743164, -1.7269498109817505, -0.3517366647720337, 0.04988252371549606, 0.21189190447330475, 1.651081919670105, 0.8958374857902527, -0.16102980077266693, -0.24738271534442902, -0.532397449016571, -0.42740094661712646, -1.5237059593200684, -0.19460970163345337, 1.4317222833633423]], "pos_embed.weight": [[0.20175513625144958, 1.0192872285842896, 0.134807750582695, -1.2719701528549194, 0.7679612040519714, 0.6895766258239746, 0.2544255256652832, -0.7033753991127014, 1.641151785850525, -2.4351470470428467, 0.2279108166694641, 0.7033640742301941, -0.4116674065589905, -0.9501248598098755, -1.4211417436599731, -0.8035522103309631, 1.1197736263275146, 1.2357382774353027, -0.38241907954216003, 0.21145261824131012, 1.5878331661224365, -0.7953280806541443, 1.0965197086334229, 0.028408236801624298, 0.8065263628959656, -1.1019443273544312, -1.3812342882156372, -0.8461133241653442, 1.5008114576339722, -0.11661527305841446, -1.670085072517395, 0.8387489318847656, -1.616327166557312, 1.3143380880355835, 2.727308750152588, -1.5869262218475342, 1.1471110582351685, -1.3323967456817627, 0.2986914813518524, 1.5569829940795898, 0.5654913187026978, 0.10627243667840958, 0.7747928500175476, -0.32373759150505066, -0.275846928358078, -0.9806324243545532, 1.8563859462738037, 0.06846827268600464, -2.5473501682281494, 0.3006739318370819, -0.10168929398059845, -0.6608286499977112, -0.11822624504566193, 1.0766043663024902, 2.24088454246521, 0.5252380967140198, 2.2600128650665283, 2.0719656944274902, -0.5651808381080627, 0.8858324885368347, 1.5073667764663696, -0.9744106531143188, -0.6897427439689636, 1.8687256574630737], [0.4616105556488037, 1.5187854766845703, -0.37435734272003174, -0.7260968685150146, -1.0737770795822144, 0.46093225479125977, 0.03428705036640167, 0.15339109301567078, -2.1401922702789307, -1.5007989406585693, -0.4349980354309082, 0.4632963538169861, 0.5732342004776001, -2.5430660247802734, 0.2265140861272812, -1.081721305847168, 0.3993161618709564, -0.6258435845375061, 0.41334468126296997, -0.3199569582939148, -1.9553760290145874, 0.40519028902053833, 0.7088993787765503, 0.4357262849807739, 0.03532560542225838, 0.04601488262414932, -1.2950234413146973, -1.4200233221054077, 1.4033489227294922, 0.41853439807891846, -0.10977508872747421, 2.8249270915985107, 0.14510351419448853, 1.1128771305084229, 1.0277519226074219, -0.4461897611618042, 0.537183940410614, -2.5896167755126953, -1.19796884059906, 1.177209496498108, -0.044531214982271194, 0.4556156098842621, 0.15106883645057678, 0.44017454981803894, 0.09921310096979141, -0.13333876430988312, 0.5567790865898132, 1.1633164882659912, -1.7664680480957031, 0.9044260382652283, -1.5419707298278809, 1.3456227779388428, 0.13741549849510193, -0.5364120006561279, -0.12194555997848511, 1.2243125438690186, -0.49308767914772034, 0.8119836449623108, 0.5233113169670105, -0.1201951652765274, -0.047221437096595764, 0.23580391705036163, 0.2751239538192749, -1.499245285987854], [-1.4820146560668945, -0.25702422857284546, -0.12732326984405518, -0.5047825574874878, 0.3309088945388794, 2.211850166320801, -0.18241813778877258, -0.5539315342903137, 0.9470117092132568, 0.25485360622406006, -0.34742406010627747, -0.4782666563987732, 0.40562647581100464, 0.37074822187423706, -0.34060007333755493, -0.09855743497610092, -0.60531085729599, -0.032948050647974014, 0.8403658866882324, -0.24983850121498108, -1.1851005554199219, -0.8474981784820557, 0.4911786615848541, 0.3656271994113922, 0.40518224239349365, -1.0421024560928345, 0.4401625394821167, -1.164377212524414, 1.3000898361206055, 0.8971849679946899, -0.9422701597213745, 1.1214358806610107, -0.49042585492134094, 1.3657926321029663, -1.4263190031051636, 1.5201072692871094, -0.6233237385749817, -0.7881227135658264, 1.329640507698059, 1.6007601022720337, 0.15827688574790955, 0.5254923701286316, -0.5020650625228882, -0.1129019483923912, 0.1541900783777237, 0.9387983679771423, -1.0984994173049927, 0.03196307271718979, -1.856610655784607, 1.4410651922225952, 0.6205644607543945, 1.4518941640853882, -0.7618110179901123, 1.58748459815979, -0.21191632747650146, -1.1209462881088257, 0.21961909532546997, -0.19337931275367737, 0.634685754776001, 2.273939847946167, -0.9283410906791687, -0.14588475227355957, 0.5724762678146362, 1.5784692764282227], [-0.43238314986228943, 0.8831400275230408, 0.1719694286584854, 0.4966026544570923, -1.0479865074157715, 0.7707043290138245, 0.5817134380340576, 0.7469170689582825, 1.0122190713882446, -1.3090977668762207, -1.3848598003387451, -0.20301370322704315, 0.004932253155857325, 1.4943095445632935, -0.41590529680252075, -0.8866785168647766, 1.1530117988586426, -1.0131304264068604, -0.6887725591659546, -0.8355327248573303, -1.1861324310302734, 0.5838717222213745, -0.7505403161048889, -0.7837108969688416, 0.8024409413337708, 0.26378685235977173, 0.2361520677804947, -0.09032857418060303, 1.3976328372955322, 0.5967026948928833, 1.3641949892044067, 1.007317304611206, -0.5287719368934631, -1.2122055292129517, 1.370638370513916, -2.252984046936035, 0.4224586486816406, 0.5563367009162903, -0.6793683767318726, -0.37643274664878845, -0.8379973769187927, 1.111662745475769, -0.9464442729949951, -0.33944764733314514, -1.0667040348052979, -0.5911086797714233, -0.884148120880127, 1.3395391702651978, -0.17803622782230377, -0.5343578457832336, -1.4950093030929565, 0.41634100675582886, -0.036634042859077454, -2.0713367462158203, -1.0687730312347412, -0.09022030234336853, 0.1309649795293808, -0.12728556990623474, 1.579506278038025, -0.7380001544952393, -0.5108668804168701, 0.5607876181602478, 0.6160870790481567, 0.14762064814567566], [-0.12173290550708771, 0.2779563069343567, -0.12591353058815002, 0.10161465406417847, -0.00035096725332550704, 0.8697890639305115, 0.05031824856996536, 0.09886594116687775, 0.8186827301979065, 0.10961588472127914, -2.0975327491760254, -0.22856566309928894, 0.1238173097372055, -0.23342713713645935, 0.8299508094787598, -0.27459293603897095, -0.12245570123195648, 0.3550998866558075, -1.67404305934906, -1.5933418273925781, 0.585981547832489, 0.5839873552322388, -0.4920186996459961, -0.06954163312911987, 0.8946260213851929, -1.896377444267273, 0.5121727585792542, 1.7648049592971802, 1.8634833097457886, 0.3076377511024475, 0.47338253259658813, -1.0259863138198853, -1.1051499843597412, -0.08356087654829025, -2.65645432472229, -1.9458909034729004, -0.08677814155817032, -0.4239814281463623, 1.3780860900878906, 0.03078458085656166, 0.059034135192632675, -0.40360239148139954, -1.97605562210083, 0.1703990250825882, -0.5824999213218689, -0.06699129194021225, -0.31652647256851196, 0.5838949680328369, 0.48472508788108826, -0.9999327063560486, -0.48223650455474854, -1.2314423322677612, -1.7080051898956299, 0.33515432476997375, 0.03394200652837753, -0.9793005585670471, 1.1311973333358765, 1.1052839756011963, 0.8829023838043213, -0.6716094017028809, -1.740675687789917, -1.0788098573684692, -0.10119466483592987, 0.0154977822676301], [-0.17713114619255066, -1.0571082830429077, -1.8024628162384033, -0.31908461451530457, 0.9052162766456604, -0.39165642857551575, -0.5542930364608765, 1.4237133264541626, 1.4935988187789917, 0.43723365664482117, -0.45067018270492554, -0.1103353202342987, 0.2519815266132355, -0.3747437298297882, 0.6670023798942566, -0.9128960967063904, 0.243289977312088, 0.7721971869468689, -1.8376870155334473, 0.06223142519593239, 0.7974467873573303, 0.13728803396224976, 0.5514469146728516, -0.0015011420473456383, 0.9652060866355896, -0.6784870624542236, -1.5428622961044312, -0.9116740822792053, -0.51812344789505, 0.1311766356229782, -0.23403508961200714, -0.0033435386139899492, -0.3372904360294342, -0.6240400075912476, -0.06474251300096512, 0.563041090965271, -1.3214340209960938, 0.27594372630119324, 0.7806573510169983, -0.2563026547431946, -0.31129902601242065, 0.7416141033172607, -0.07874971628189087, 1.2863227128982544, -0.6342902183532715, 0.6801522374153137, 0.9135226607322693, -0.5282021760940552, -0.5044234991073608, 0.36420804262161255, -1.0136501789093018, -0.03386002779006958, 0.6201388835906982, 0.628445565700531, 0.5020542740821838, 0.2716296911239624, 0.42445293068885803, 2.414198160171509, -0.32557782530784607, 0.1794629991054535, -1.0367233753204346, -0.8786118626594543, -0.1330888867378235, 0.5148999691009521], [-1.0349596738815308, 0.14787425100803375, 1.089647650718689, -0.4468965530395508, 2.5759801864624023, 0.876209020614624, 0.44928720593452454, 0.6115988492965698, -1.0841339826583862, 0.9562403559684753, 0.14993923902511597, 0.19615691900253296, 1.3410390615463257, -0.05313985049724579, -0.8593827486038208, 0.001588796847499907, -0.15911193192005157, 1.006576657295227, -0.6498591303825378, 0.2931261658668518, -0.022722940891981125, -0.052192892879247665, 1.0036717653274536, -0.428079217672348, 0.35752686858177185, -0.6169508695602417, -1.6533482074737549, 1.096022129058838, -0.6653662323951721, -1.2853018045425415, -0.4085391163825989, 0.3998507857322693, -1.6489869356155396, 0.11759146302938461, 0.14482064545154572, -0.3976355791091919, 0.44883421063423157, -0.9915959239006042, 1.0193852186203003, 0.731290876865387, 0.06642279028892517, 0.3476226329803467, 0.7623685598373413, -0.7737209796905518, -0.0771726593375206, -0.5177950263023376, 0.009717294946312904, 1.0935715436935425, -0.14898216724395752, 1.3574542999267578, 0.09263066202402115, -0.6404901146888733, 0.4086351990699768, 1.326718807220459, 0.08700373768806458, -0.01803349144756794, -0.035929709672927856, -0.6799721121788025, -0.915284276008606, 0.22641275823116302, -1.0738996267318726, -1.5303728580474854, 0.17183023691177368, 0.822456419467926], [-0.31544050574302673, 0.6141166687011719, -0.6013977527618408, 1.765305519104004, 0.39437946677207947, -1.1486220359802246, -0.7457139492034912, 0.20917674899101257, -1.3463501930236816, -0.5426464080810547, 0.08265598118305206, -0.1472422331571579, -0.9020529389381409, 0.36237069964408875, -1.0800164937973022, -1.1587260961532593, -0.1272420734167099, -0.5158690214157104, -1.1033697128295898, 0.1541234850883484, -1.05152428150177, 0.389064222574234, 0.023795533925294876, -0.9382423758506775, 0.9390671253204346, 0.644170343875885, 0.48445364832878113, 0.11465699225664139, 0.1528518944978714, -1.7593955993652344, 1.9098304510116577, 0.047585755586624146, 0.02227824553847313, -1.1289596557617188, 1.1517877578735352, -0.4516432583332062, -0.2935837209224701, -1.051945447921753, -0.6192752122879028, -0.1535854935646057, 2.5570156574249268, -0.519744336605072, -0.43248558044433594, 0.7627110481262207, -0.03884453326463699, -0.40118756890296936, 0.618009626865387, 0.6359676718711853, 1.1633589267730713, -0.48615896701812744, 0.6779611706733704, 1.5596705675125122, -0.44491612911224365, 0.16338051855564117, 1.3117722272872925, 0.24976038932800293, -0.48009151220321655, -0.12941493093967438, 0.3640674650669098, 0.130196213722229, -2.756094217300415, 0.4672255516052246, 0.3812776803970337, -0.08981004357337952], [-0.00020074065832886845, 0.4726795554161072, 0.5486472249031067, 0.0673445388674736, 0.0796075239777565, -0.2504526972770691, -0.5301968455314636, -1.0068448781967163, 0.017110461369156837, -2.1874501705169678, -1.0122170448303223, 1.8656302690505981, -1.3313894271850586, 0.9646773338317871, -0.7619512677192688, -0.37666481733322144, -0.11490277200937271, -0.9765644073486328, -0.023896606639027596, -1.7282929420471191, -0.6272496581077576, 1.2621771097183228, 0.1623445451259613, 0.39210474491119385, -0.5390111804008484, 0.5314868092536926, -0.24612542986869812, -0.30758804082870483, 0.23914875090122223, 0.2508634328842163, 0.18368664383888245, -0.06913222372531891, -0.6063081622123718, 0.2662895619869232, -0.10175687819719315, -1.6440908908843994, 0.31423550844192505, -1.3022210597991943, -0.04641903191804886, -0.329008013010025, 0.9400753974914551, -0.49766114354133606, 0.5610122680664062, 1.8463923931121826, -0.39211779832839966, 1.232300043106079, 0.37994953989982605, -0.15310612320899963, -0.4270818531513214, -0.016880691051483154, 0.2108052372932434, -0.04106048122048378, -0.5757300853729248, -1.9956817626953125, -0.07837794721126556, -0.5722559690475464, 0.6779436469078064, 0.10282041132450104, 0.2835875451564789, 0.7263942360877991, -0.3095910847187042, 0.07560856640338898, 0.5425896644592285, 1.3562331199645996], [0.4062531888484955, 1.1127667427062988, 0.6416244506835938, -0.5080202221870422, 0.6100393533706665, -0.02089933678507805, -1.5171772241592407, 1.5919677019119263, -0.16200709342956543, -0.17339058220386505, -0.559255838394165, -1.204898476600647, -0.6910408735275269, 0.3529953956604004, 0.5916635990142822, 0.05322585254907608, 0.3491417169570923, 0.4122019112110138, 0.10635614395141602, 0.7414253950119019, -0.4977041780948639, -0.5556665062904358, 0.07930932193994522, 0.29245203733444214, -1.5399096012115479, 0.3453443944454193, -0.2980315685272217, -0.26413780450820923, 0.19483010470867157, -0.4598613381385803, -1.2788772583007812, -0.6926589012145996, -1.1747071743011475, -0.49002695083618164, -2.4791460037231445, 0.4650997221469879, -2.2070157527923584, 1.8834024667739868, -0.7580333948135376, 0.4391874372959137, 0.19199752807617188, 1.064199686050415, -2.057844400405884, -0.3599589467048645, -0.5165227055549622, 0.31966909766197205, -2.2919750213623047, 0.1346302032470703, 0.31349891424179077, -1.429547667503357, -1.0828312635421753, 0.23532186448574066, -0.004406563006341457, -0.10842052102088928, 0.14504994451999664, 0.2523886561393738, -1.3333430290222168, -0.6840152740478516, 0.026292167603969574, 0.668018639087677, -1.651201844215393, -0.5243716835975647, 1.847012996673584, 1.4844483137130737], [-1.0898528099060059, 0.24479779601097107, 1.5894192457199097, 0.37265968322753906, 0.9123108386993408, -0.2513149678707123, 1.1956206560134888, 0.6626690030097961, -0.34611597657203674, -0.3271728456020355, -0.5463765263557434, 0.6496496796607971, -0.10022023320198059, 1.6312278509140015, -1.0769208669662476, 1.4646220207214355, 0.07836221158504486, -1.0954586267471313, -0.5321820378303528, -0.11406762152910233, 0.9947195053100586, 1.5309067964553833, 1.020440936088562, 0.05220932886004448, -0.12003808468580246, -0.09304098784923553, 0.6891746520996094, 0.3459043502807617, 0.513265073299408, 0.5511447787284851, -0.5680245757102966, -0.2719562351703644, -1.3754312992095947, 0.11248226463794708, -1.662662386894226, -0.008998608216643333, -0.17727692425251007, -0.27119743824005127, -0.5182405710220337, -1.4438297748565674, -0.49036267399787903, 0.5885656476020813, 1.0213398933410645, -0.6782982349395752, 0.39297306537628174, -0.7489097714424133, -0.06721632927656174, 0.974529504776001, -0.7397444248199463, 0.1324882209300995, -0.3579922318458557, 0.5208607316017151, -0.2871841788291931, -0.760315477848053, -0.047158244997262955, 0.30803999304771423, -0.5533334612846375, -0.2956659197807312, -1.5261123180389404, -0.37889301776885986, -0.612586259841919, 0.06590024381875992, -0.2353954017162323, -0.02820795215666294], [0.3962637782096863, 0.8125228881835938, -0.47896015644073486, -0.3779466152191162, 0.6214277744293213, -0.3633657395839691, -0.3988633453845978, 0.5065638422966003, -0.2891959249973297, -0.863548755645752, 0.03478175774216652, 0.20689424872398376, -1.6803256273269653, 0.84913170337677, 0.6529428362846375, 2.114182233810425, -0.8746336698532104, -0.3338035047054291, 0.710263729095459, -0.651997983455658, 0.46258509159088135, 0.20941445231437683, 0.86857670545578, 0.047452155500650406, -0.7220350503921509, 0.27609196305274963, 0.5413713455200195, -0.880346953868866, 1.1464807987213135, 0.4638080298900604, -1.0096299648284912, -0.11083707958459854, 0.32852137088775635, -0.6685899496078491, -1.9887185096740723, 0.43830063939094543, -1.4101876020431519, 0.1864159256219864, 0.11332707852125168, -0.020154228433966637, 1.2905514240264893, 1.859026551246643, -0.8274198174476624, 0.9730010032653809, 0.8642102479934692, -0.37449318170547485, 0.15887469053268433, -0.20070041716098785, -0.6104975342750549, -0.2527250051498413, -1.5781266689300537, -2.011939287185669, -1.1438862085342407, -0.7572828531265259, 0.8244656324386597, -0.3303174674510956, 2.5099713802337646, 1.1219000816345215, -2.0882015228271484, 0.22163577377796173, -0.5886197686195374, 1.0265302658081055, 0.8464537858963013, 1.3419582843780518], [-0.4241916835308075, 0.3276364803314209, -0.05289214104413986, -0.1473378688097, -1.3377829790115356, 0.5481212139129639, -0.6835106015205383, 0.9078010320663452, 1.8048440217971802, 0.045623984187841415, -0.8605988025665283, 0.335721492767334, 0.31350159645080566, 1.3579819202423096, -0.07544433325529099, -0.3548051714897156, 0.38557130098342896, 0.15048891305923462, 0.24386611580848694, -0.23108142614364624, 0.1952930986881256, -0.054632507264614105, 1.9727898836135864, 0.8970958590507507, 0.3065326511859894, -0.49283716082572937, -0.9682804942131042, 0.19152891635894775, 0.24768362939357758, -0.3096136450767517, 0.6692770719528198, 0.5000485777854919, 1.6377416849136353, -0.18198809027671814, -0.65996915102005, 0.007204856723546982, -0.3530508875846863, 0.3321820795536041, -1.0349688529968262, 0.4878253638744354, -0.9030193090438843, -0.2864008843898773, 1.6120076179504395, 0.9110161662101746, 0.7117874026298523, 1.2723184823989868, -0.0470895953476429, 0.01293540932238102, -0.18396790325641632, 0.9188793301582336, -0.023007426410913467, 1.1603608131408691, -1.0668892860412598, 0.4111781716346741, -0.933704137802124, 0.32469531893730164, -0.023633945733308792, 1.7380653619766235, 1.0300219058990479, -0.7087820768356323, -0.13197697699069977, 0.16448991000652313, 0.6192782521247864, 0.5273226499557495], [-0.04049641638994217, 0.6003056764602661, 1.0715402364730835, -0.5137822031974792, -0.9825989007949829, 1.5290528535842896, 0.4363803565502167, -0.3285232186317444, -2.162792205810547, -0.41740235686302185, -0.4610716700553894, -0.28370583057403564, 0.28412237763404846, -0.45753026008605957, -0.821174144744873, -1.2701187133789062, 0.7090426087379456, 0.21791936457157135, 0.0830281600356102, -0.7604011297225952, -0.47183457016944885, 1.0298765897750854, 2.5297157764434814, -0.6069871187210083, -0.34201690554618835, -0.08921998739242554, 0.262553870677948, -0.36177027225494385, 0.1556846797466278, -0.1155189573764801, 0.9770171046257019, 0.3228413462638855, -0.5195451974868774, -0.09206388890743256, 0.22686469554901123, -1.7449703216552734, -0.6620228886604309, 1.3786718845367432, -0.5306572318077087, 1.0722991228103638, 0.20107971131801605, -0.44673362374305725, 1.5848325490951538, 1.0951251983642578, -1.3097747564315796, -0.4736403822898865, -0.5070049166679382, 0.1595926135778427, -1.7408345937728882, -0.6217765808105469, 0.3868325352668762, 0.5438715219497681, 0.04748629033565521, -0.7589181065559387, -0.5760984420776367, -0.847956657409668, -0.1736333817243576, -0.015203799121081829, -1.8296945095062256, 0.23499421775341034, 1.2507821321487427, -0.11857865750789642, -0.08945637196302414, -0.05110466107726097], [-0.6698710918426514, 0.34933140873908997, -0.20865868031978607, 0.18197603523731232, -1.8633707761764526, -0.03368367627263069, -0.5532875061035156, 1.738057017326355, 1.1137936115264893, -0.31747254729270935, 0.6571826338768005, 1.5342799425125122, 0.13313916325569153, 0.41245123744010925, -0.8077623248100281, 1.186278223991394, 0.9514237642288208, -1.2178980112075806, -1.620107650756836, -0.4439927637577057, 0.8982146978378296, -0.5063981413841248, -0.8835516571998596, 0.2750557065010071, -1.4832229614257812, 5.4950187404756434e-06, -0.03839961811900139, -1.1522928476333618, 0.5826875567436218, -0.15362322330474854, -0.5559784770011902, 1.6070835590362549, -0.18617042899131775, -0.10008512437343597, -0.9777381420135498, -0.41461482644081116, -0.8601858615875244, -1.4626036882400513, -0.7346200942993164, 0.40314871072769165, -0.4894360303878784, 1.9693220853805542, -0.7382304668426514, -1.1156957149505615, -0.4744752049446106, -0.3967805504798889, 0.4311221241950989, 0.13990022242069244, -1.057039737701416, 0.8001707792282104, -0.13381719589233398, 0.09797492623329163, 0.07443102449178696, 1.0869148969650269, -0.9904250502586365, 0.08126575499773026, -1.6782782077789307, 0.7414356470108032, 0.9231398105621338, -0.8920038342475891, -0.9630969166755676, -1.1407790184020996, -0.15188175439834595, 1.3227365016937256], [-1.9355239868164062, -1.6963682174682617, 0.6649413704872131, -0.9122025370597839, 0.07784494757652283, -0.24966366589069366, -1.1869498491287231, 0.263724684715271, 0.8310959935188293, -0.7695067524909973, 0.747056245803833, 0.9609286785125732, -0.5108669996261597, 0.3531274199485779, 0.2595656216144562, -0.31773871183395386, 1.705841064453125, -1.2732439041137695, 0.5055741667747498, 1.6113009452819824, 1.6429897546768188, -0.029678743332624435, -0.06749460846185684, 0.8964325189590454, 0.14988550543785095, 2.1380679607391357, -0.6134583950042725, -0.2244589626789093, 0.6355442404747009, -0.5743299126625061, 0.02173393964767456, 1.509818434715271, -1.227491021156311, -1.0793135166168213, 0.4298851788043976, -0.6379265189170837, -0.08877740055322647, 0.5918167233467102, -0.13731688261032104, 0.49173787236213684, -0.021731656044721603, 0.9230737686157227, -0.09291388094425201, 1.1695733070373535, 0.13292117416858673, -1.655874490737915, 0.13669487833976746, 1.0837037563323975, -0.34179574251174927, 0.7339879870414734, -0.8434337377548218, -1.7085498571395874, 0.1363549530506134, 2.0656325817108154, 0.5571060180664062, -0.4675462245941162, 0.6338759660720825, 0.438789039850235, -0.02169077657163143, -0.16037118434906006, 0.7337061166763306, -0.45039233565330505, -0.43730229139328003, 1.0620591640472412], [-0.3059423863887787, -0.11643178761005402, -0.8025707006454468, 0.19498710334300995, 1.6537413597106934, 1.1112914085388184, 0.9359297752380371, -1.33018159866333, 1.0560712814331055, -0.8918850421905518, 0.5349023938179016, -0.47449207305908203, -0.4905107617378235, 1.871424913406372, 0.9527003169059753, -0.24125857651233673, -0.7660056352615356, -0.6688635349273682, -1.149719476699829, -0.9210052490234375, 0.00867320504039526, -1.5067003965377808, 0.5241540670394897, 0.29097527265548706, -1.5171358585357666, 1.3015938997268677, -0.162057027220726, 0.5740882754325867, 1.022904872894287, 0.6214033365249634, 0.5160217881202698, 1.8587161302566528, -0.6388573050498962, 0.4839693307876587, -0.04245613142848015, -0.5349054336547852, 0.4042074680328369, -0.16608579456806183, -0.16863620281219482, 0.4174613952636719, 0.8789631724357605, -0.2585415542125702, -1.2364416122436523, -0.5638333559036255, -0.05910830199718475, -0.09959869086742401, -1.3500462770462036, 1.1076855659484863, 0.05231335759162903, 0.9869494438171387, 0.47945529222488403, 0.2258933037519455, -0.21279741823673248, 1.3069911003112793, 0.03805726766586304, -0.49541914463043213, 0.1516466587781906, -0.1732926368713379, -0.5335106253623962, -0.7348659634590149, 2.2162537574768066, -0.3316281735897064, 1.375284194946289, 1.5049540996551514], [0.31302040815353394, -0.3370516002178192, -0.1431993544101715, 1.0339452028274536, 1.6784675121307373, -1.8192274570465088, 1.8484957218170166, 0.6800731420516968, -0.32528045773506165, -0.41451025009155273, 1.3836021423339844, -0.008611759170889854, -0.4348273277282715, 1.0790743827819824, -0.1501966267824173, -0.7898504734039307, 0.07069631665945053, 1.0045686960220337, -0.7735652327537537, 0.8541206121444702, -0.08522877842187881, -0.21348927915096283, 0.4907127022743225, -0.18879050016403198, -0.7975561618804932, 2.0814592838287354, -0.3004007041454315, -0.13800600171089172, 0.33632951974868774, -0.6280303001403809, 2.024475336074829, 0.6557798385620117, -0.32481902837753296, 0.6639602184295654, 2.538358688354492, 1.4288105964660645, -0.5752602815628052, 1.2369325160980225, -0.8172092437744141, -0.773350179195404, 0.723405122756958, -1.0148268938064575, 0.5746268033981323, -0.14624351263046265, 1.7898865938186646, 0.46171605587005615, -1.0024255514144897, 0.8561655879020691, 0.1837751567363739, -1.2049064636230469, 1.301414966583252, -0.4004647433757782, 1.0487895011901855, 1.1294431686401367, -0.8277815580368042, -0.24265149235725403, -0.0745081976056099, -0.13556638360023499, -0.13745756447315216, 0.12097723037004471, -0.22722633183002472, -0.6265267133712769, 0.24179117381572723, -0.0443599671125412], [0.4720775783061981, -0.31630560755729675, 0.2902326285839081, -1.934027075767517, 0.5969424247741699, -0.8257055282592773, 0.3966768980026245, 0.8587524890899658, -0.1594228297472, 0.714915931224823, 0.40257030725479126, -0.15305694937705994, 1.2983306646347046, -0.7726207375526428, -1.3622965812683105, 0.14224837720394135, 1.5526962280273438, 0.8613547682762146, -0.5109388828277588, 1.5375797748565674, 1.6829869747161865, -0.15115730464458466, 0.4788977801799774, -0.025767749175429344, 0.4000256061553955, -0.23276591300964355, -0.7220165133476257, 0.9901862740516663, -0.46102410554885864, -1.5076963901519775, 0.3805120587348938, 0.8787418603897095, -1.0574634075164795, 0.2081649899482727, -0.3990141749382019, -1.142904281616211, -0.2709595859050751, -0.827935516834259, -1.3803112506866455, -0.8950144648551941, -0.8285365700721741, -1.5817867517471313, 0.8960025310516357, 1.0782668590545654, 1.1553778648376465, 0.500674843788147, -0.11295640468597412, 1.0674638748168945, 0.1298968493938446, 0.5518444180488586, -0.9807788133621216, -0.6671649813652039, -0.490323007106781, -0.9191281795501709, -0.498666375875473, -1.8094364404678345, 2.273804187774658, 0.1343703269958496, 0.33259326219558716, -0.38837260007858276, -0.6939685940742493, 1.2973674535751343, -0.44470641016960144, -0.7185494899749756], [-0.8479499816894531, 0.8303282856941223, -0.46740227937698364, -0.5420256853103638, -0.8702295422554016, -0.37222129106521606, 1.2306047677993774, -0.09800603240728378, 0.6048197150230408, -0.8140638470649719, 0.07714612036943436, 0.9213471412658691, 0.48555466532707214, 1.6746028661727905, -0.11613066494464874, 0.3663526475429535, -0.6480897068977356, 1.0750186443328857, -0.8084722757339478, 0.479704886674881, -0.2646649181842804, -1.4810395240783691, -0.3067938983440399, 0.3479869067668915, 0.4089006185531616, -1.0982640981674194, 0.1448182314634323, -0.9335845708847046, -0.6319807171821594, 1.0851079225540161, -0.15098460018634796, -1.3974632024765015, -1.4988425970077515, -0.4673047959804535, 0.17437361180782318, 0.8528974652290344, -0.7161306738853455, -0.7778428792953491, 0.3153937757015228, -1.4108277559280396, 0.042863719165325165, -0.34680113196372986, -0.32653921842575073, -0.6473449468612671, -0.3115759491920471, -0.5476303696632385, 0.04104343056678772, 0.5038139820098877, -1.0713673830032349, 0.781274676322937, -1.717618465423584, 1.4994463920593262, -0.0550418384373188, 0.08300185948610306, 0.06829670071601868, -0.5060011744499207, -0.447788804769516, -1.0709037780761719, 0.888119101524353, 0.049362994730472565, 0.023660030215978622, 0.3502576947212219, 0.21154849231243134, 0.2584720551967621], [-0.9444993734359741, 0.43192920088768005, -0.1601947695016861, -0.7262900471687317, -0.3705996572971344, 0.7883395552635193, 0.9534645676612854, -0.38190361857414246, 1.4494801759719849, 0.661273181438446, -0.5910160541534424, -0.1501084715127945, -0.15533903241157532, -0.606640636920929, -0.7183356881141663, -0.017459476366639137, -0.6548678278923035, -1.2986278533935547, -1.5784156322479248, 1.8111064434051514, -0.6795474290847778, -1.0982065200805664, 1.0419137477874756, -1.751757025718689, 0.06849732249975204, 1.6301082372665405, 0.6565393805503845, 0.406386137008667, 0.8155112266540527, -0.851386308670044, 0.13566391170024872, 0.9570599794387817, 0.5730535984039307, 0.03302222117781639, -0.37421131134033203, -0.7509996891021729, -0.20318534970283508, 0.6743254661560059, -0.8170545697212219, -0.8890843987464905, -0.7342453002929688, -0.15526103973388672, -0.24461431801319122, 0.46049538254737854, 1.2713806629180908, 0.2235613912343979, -0.6140502691268921, 1.029573917388916, 1.10065758228302, -0.6767051815986633, 0.9524285793304443, 0.6576693058013916, -0.018719572573900223, -2.2505576610565186, -1.307149052619934, -1.0890692472457886, -0.28226765990257263, 1.9919891357421875, 0.1263783574104309, 0.004729639273136854, -0.5400820374488831, 0.6624494194984436, -0.17581236362457275, 0.5169174671173096], [0.6075162291526794, 1.1815359592437744, -0.15446527302265167, 0.5933451056480408, -1.0944814682006836, -0.8003578186035156, 1.1136795282363892, 0.35005924105644226, -1.435865879058838, 0.18868550658226013, 0.6768980026245117, 1.6807920932769775, 0.15187883377075195, -0.7362330555915833, 0.46440327167510986, 0.7219319939613342, 0.02115621604025364, 1.2634902000427246, -0.09145618975162506, 1.1275182962417603, 0.09808896481990814, 0.3894255459308624, 0.03883688896894455, 0.6421255469322205, 0.39782387018203735, -0.44071629643440247, -0.04342358186841011, -0.5177292227745056, -0.08430144190788269, -0.9002718329429626, 1.0266928672790527, 0.18680721521377563, -0.6591892242431641, 0.29620832204818726, 1.070440411567688, -0.24106813967227936, 0.1883363425731659, -0.09851033985614777, 1.124093770980835, 0.04954792931675911, 0.2338215410709381, 0.318042129278183, 1.075477957725525, 0.05265675112605095, 0.8612124919891357, -0.16789816319942474, 0.39464399218559265, 0.9557611346244812, -0.5492396354675293, 0.08020693063735962, -1.025248408317566, -1.6058592796325684, 0.3315460979938507, 1.5332664251327515, 0.12483751028776169, 0.5515496134757996, 0.6338518857955933, -0.7745962142944336, -0.6728548407554626, -0.40486764907836914, 0.07900456339120865, 0.023775039240717888, -1.1620007753372192, -0.6629176735877991], [-1.8545091152191162, -0.5684118270874023, -0.47906801104545593, 0.5795767903327942, 0.017682809382677078, 0.7229365110397339, -0.10758399963378906, -0.2760569751262665, -2.1823320388793945, 0.38966289162635803, -0.013930999673902988, -0.3857383131980896, -1.1889913082122803, -0.43008384108543396, 0.5152227878570557, 0.46439728140830994, 0.43658915162086487, -0.2174469232559204, 0.9216026067733765, -0.20649658143520355, -0.32661959528923035, 1.1734787225723267, 1.5655922889709473, -1.0177656412124634, 1.0126097202301025, 0.1703845113515854, 0.3235301971435547, 0.6983622312545776, -0.1352744847536087, -0.41881605982780457, 0.37325167655944824, -1.008668303489685, -2.0041370391845703, -1.121683120727539, -0.1689101904630661, 0.613876223564148, 0.512589693069458, 0.9745354056358337, 0.46051183342933655, 1.6656056642532349, 1.2535760402679443, 0.747700572013855, 1.4632999897003174, 0.05373939871788025, -0.07312703877687454, -0.5844559669494629, -0.2809678614139557, 0.17680640518665314, 1.6366792917251587, 0.7822898030281067, 0.6759316325187683, -1.4311758279800415, -0.5063917636871338, 0.4167451858520508, -0.6205006241798401, 1.3509539365768433, -0.518129825592041, 0.30920228362083435, -0.8873316645622253, 0.3332597613334656, 0.5457729697227478, -0.308034747838974, 1.5568667650222778, -0.07280396670103073], [-0.2223798930644989, -0.1831330507993698, -0.920901358127594, 0.2598767876625061, 0.03393479809165001, 0.5826338529586792, 0.5949079394340515, -0.06679769605398178, -1.4027358293533325, -1.2128701210021973, 0.8694775700569153, 0.06936526298522949, 1.1848570108413696, 1.9409235715866089, 0.5503673553466797, 1.8003673553466797, -0.0961172804236412, 2.0273547172546387, 0.5224409103393555, -0.893047034740448, -0.1665213406085968, -0.2662767767906189, -0.008015118539333344, 1.54653799533844, 0.4105062484741211, -0.3958657681941986, -1.1635572910308838, -1.9208124876022339, 0.5916358232498169, -1.7035815715789795, 0.48492586612701416, -1.560741662979126, 0.2260412871837616, 0.9446401596069336, -1.3822487592697144, -0.4380446672439575, 0.3882572054862976, -0.052478522062301636, -1.4423582553863525, 0.38306188583374023, -0.7432395219802856, 0.3218885064125061, 1.4216376543045044, -0.236243337392807, 0.5162314772605896, 1.1339396238327026, 1.3217389583587646, -1.3418217897415161, -1.0118306875228882, -0.08948762714862823, -1.2996032238006592, -2.3551318645477295, 0.27025264501571655, -0.8206585049629211, -1.205532193183899, 0.599881649017334, -1.1840546131134033, -0.1937599927186966, 0.8743126392364502, -2.2509164810180664, 1.7976833581924438, -0.10612714290618896, 0.1519763171672821, -0.5818275213241577], [-0.6253052949905396, -1.7578959465026855, 0.2403174787759781, 0.2734620273113251, 0.6937080025672913, 0.9689927697181702, 1.1070013046264648, -0.7614706754684448, 0.6837385892868042, 1.7060306072235107, -0.5876162052154541, 1.551438808441162, -1.5342460870742798, -1.0709877014160156, -0.0890059545636177, -0.7795760631561279, -0.251300185918808, -0.307116836309433, 1.008175253868103, 1.2613790035247803, -0.3885941803455353, -1.6344525814056396, 0.4835008680820465, -0.833339273929596, -0.7582079768180847, 0.7618607878684998, -1.6865605115890503, 0.4824923574924469, 1.36359441280365, -1.4628124237060547, 0.59611576795578, -0.33146849274635315, -0.10172151774168015, 0.7585485577583313, -1.5710232257843018, 0.5947366952896118, -0.3914487659931183, -1.04953932762146, 0.02593596838414669, 0.6895726919174194, -0.48957937955856323, 0.10360533744096756, 1.0950584411621094, -0.23521901667118073, -1.8702653646469116, -1.662184476852417, -0.6794175505638123, 2.4199514389038086, 0.7719308137893677, 0.47017544507980347, 0.4981856048107147, 0.033792804926633835, 0.33168482780456543, 0.6132345199584961, 0.18058457970619202, 1.327374815940857, 1.1052669286727905, -0.19639211893081665, -0.6584295630455017, -0.9475512504577637, 1.8056888580322266, -0.6313344836235046, -0.26989609003067017, 0.04576455429196358], [-1.6238157749176025, -1.3766199350357056, -0.6274083852767944, -0.40992090106010437, 0.1993255913257599, -0.662253201007843, -0.6099041700363159, 0.2748722732067108, -0.8753575682640076, -0.11343539506196976, -1.3419768810272217, -2.6112420558929443, -0.04941404610872269, 0.23274311423301697, 0.3008754849433899, -0.701185405254364, -0.5587142109870911, 0.05523357912898064, 0.4824497699737549, 0.5348353981971741, -0.5222715735435486, -0.3338823616504669, 1.0837194919586182, 0.3207334280014038, 0.03218945860862732, 0.6571004986763, 0.8698439598083496, -0.7071366310119629, 0.2480633407831192, -0.8387313485145569, 0.5603539943695068, 0.3724862039089203, -1.4324610233306885, 0.8933083415031433, 0.5883959531784058, -0.7689928412437439, -1.2159991264343262, 0.6671009659767151, -0.39780980348587036, 0.66026371717453, 0.4439932107925415, 0.8758369088172913, -0.804064929485321, -1.6832424402236938, -0.5760712623596191, -1.3290055990219116, -0.4196244478225708, -0.3851314187049866, 0.0053972783498466015, 0.2833906412124634, -0.35479485988616943, 1.169887661933899, 0.8418412804603577, -0.6572020649909973, -0.25652074813842773, 1.132278323173523, -1.307166337966919, -1.1587272882461548, 0.10626108944416046, -0.39860987663269043, 1.042565107345581, 0.48735511302948, 0.7318198084831238, 1.0387654304504395], [0.12821397185325623, -0.8114781975746155, 0.622039794921875, 1.2614367008209229, 0.27547040581703186, -0.3099598288536072, 0.6878261566162109, -0.3473771810531616, -1.071740984916687, 0.8318040370941162, -2.228034019470215, 0.4496837854385376, -1.1670464277267456, -0.5698992013931274, 0.5129242539405823, 0.7988264560699463, -0.6664905548095703, -0.9755694270133972, 0.5857310891151428, 0.6227446794509888, -0.8555550575256348, -1.6943066120147705, 0.06180398166179657, -1.341417908668518, 1.4049874544143677, 0.08750453591346741, -0.07891310006380081, 0.08943580090999603, 0.6829947233200073, 0.44128772616386414, 0.8309597969055176, -0.8188009262084961, -0.15261997282505035, -1.603987216949463, -0.6485822796821594, -0.09760987758636475, 0.5068744421005249, -0.46104592084884644, 0.47028279304504395, 0.45272648334503174, 0.7479015588760376, -0.2886142432689667, -0.5398392677307129, 1.061055064201355, -1.7922817468643188, -1.2791879177093506, 0.2473323941230774, 1.3052706718444824, 0.16269035637378693, -1.225264072418213, 0.03971773758530617, -2.237617015838623, -0.09805238991975784, -1.6057384014129639, -0.31346559524536133, 0.4913059175014496, 0.9657970666885376, 0.9982835650444031, -0.45662766695022583, 0.49776697158813477, -1.1166129112243652, 0.27035197615623474, -1.0008457899093628, 0.44646206498146057], [-0.37563374638557434, 0.7185585498809814, -0.3416973650455475, 0.10051365196704865, -1.2891911268234253, 0.7274332642555237, 1.6810688972473145, 0.9711745381355286, -0.06273043155670166, -1.7597001791000366, 1.2038171291351318, 0.17402902245521545, 0.6588606238365173, 1.173138976097107, 0.7431747913360596, 0.965600311756134, -0.3340773284435272, 1.26261568069458, -0.34045445919036865, 0.4147037863731384, 0.3535098433494568, -0.47852444648742676, -0.3935883641242981, -0.8942492008209229, -0.21506869792938232, 0.5260817408561707, 1.9514495134353638, -0.21766771376132965, -1.483830213546753, 0.09957855194807053, -1.9747872352600098, 0.35408174991607666, -1.2349530458450317, 0.36061567068099976, 1.317696452140808, -0.05440807715058327, -0.03308703005313873, -0.9074985384941101, 0.12169361114501953, -1.1809840202331543, 1.201144814491272, 0.29381850361824036, -0.025568099692463875, 0.09120949357748032, 1.477846384048462, -1.1496152877807617, -0.5904821753501892, 0.06932491064071655, -0.8226383328437805, -0.33324968814849854, 0.8031020164489746, -0.4036426246166229, -0.7745320796966553, -1.1328672170639038, -0.0017757945461198688, 0.10045304149389267, 0.3334014415740967, -0.8730524778366089, -0.46976885199546814, 0.43472161889076233, -1.1729364395141602, 0.6732351779937744, 0.643990695476532, 0.5014446973800659], [-0.8966636657714844, -0.8588372468948364, 0.7702286243438721, -0.3505917489528656, -0.41887369751930237, -0.7209612727165222, 0.05134059116244316, -0.4214017987251282, 0.4774671494960785, -0.8775162100791931, -0.9845826625823975, -0.32096660137176514, -1.276054859161377, -1.853648066520691, -0.6577288508415222, -0.03874600678682327, -0.25076350569725037, -1.0324654579162598, -0.5128117203712463, 0.7207764387130737, 1.0482730865478516, 0.8446981906890869, -0.056787874549627304, -0.2782851457595825, -0.44170594215393066, -0.3311268389225006, 0.5207877159118652, 0.16035397350788116, -0.8353105783462524, -0.4858689308166504, -0.7836424708366394, -1.2431217432022095, -0.6765745282173157, -0.7814487218856812, -0.32081228494644165, -1.807265043258667, -0.8828091621398926, 0.11522267013788223, 0.6049946546554565, 0.17897260189056396, 0.9769048094749451, -0.2160264551639557, 0.7167802453041077, 0.11637301743030548, -0.07600382715463638, -0.8619647026062012, 0.8014423251152039, -1.2184231281280518, -1.010982632637024, 0.23728413879871368, 1.7622573375701904, 0.8163051009178162, -0.9726121425628662, -0.9198037981987, -0.9451115131378174, -0.8204954862594604, 0.06026393920183182, 0.3619498908519745, -1.4523422718048096, -0.6035743355751038, -2.118598222732544, -1.0624724626541138, -0.304019570350647, -0.06229729950428009], [-0.849306046962738, -0.9126855731010437, -0.7468820810317993, -0.8110594749450684, -0.11908254772424698, -1.0180314779281616, 0.08611954748630524, 0.6104205846786499, 0.9206601977348328, -0.050474394112825394, 0.44774505496025085, -0.5648354291915894, -0.5796076059341431, 0.6513495445251465, 0.7082276940345764, 1.1848024129867554, -0.5274204015731812, 1.0301567316055298, -0.7543339729309082, -0.2535621225833893, -0.40112483501434326, 0.34072500467300415, 2.125880241394043, 0.18685905635356903, 1.3231990337371826, -0.3639930188655853, -0.7477380037307739, -0.6592356562614441, -0.5583643317222595, 1.2893480062484741, 0.7753942012786865, 0.8119434714317322, -0.49387893080711365, -1.101155400276184, 0.5039569735527039, 0.6698932647705078, -0.06693422049283981, 0.7665724158287048, 0.6288635730743408, 0.40264958143234253, -0.41791075468063354, -0.4001085162162781, 0.13748864829540253, 0.293300062417984, -0.12915991246700287, 0.6189229488372803, 0.2979324460029602, -0.48039382696151733, 0.6854521036148071, 0.08297865092754364, -0.5881315469741821, 0.3103216886520386, 0.16443447768688202, 0.39759695529937744, 0.44070005416870117, -0.3487492501735687, -0.09842568635940552, -0.716265857219696, 1.1677898168563843, -0.22816267609596252, 0.6112717986106873, 1.4449143409729004, -0.060229599475860596, 0.9187034368515015], [0.16273292899131775, -1.2503461837768555, -0.4942072629928589, 0.37235674262046814, -1.198474645614624, 0.3220527172088623, -1.5162259340286255, -0.1686609983444214, 0.8103346228599548, 0.7826514840126038, 0.389730304479599, -0.8000160455703735, 0.21423131227493286, -0.36668872833251953, 0.700682520866394, -1.0206217765808105, -1.005872368812561, 0.271908164024353, 0.281923770904541, -1.174063801765442, 0.3173096776008606, -0.3661043643951416, 0.6406558156013489, 0.6163896918296814, -0.6767043471336365, 0.07838671654462814, -1.1311450004577637, -0.026732319965958595, 1.4726136922836304, 0.9653975963592529, 0.4106534719467163, -0.92779141664505, -0.20142339169979095, 1.3908042907714844, -0.5184676647186279, -0.8526539206504822, -1.5055313110351562, -0.4142776429653168, -0.4416120648384094, 0.5230998396873474, -0.027364905923604965, -1.635436773300171, -0.6511290073394775, 1.6393415927886963, 0.2043243646621704, 0.5585814714431763, -0.2618579864501953, 0.6766667366027832, -0.21011319756507874, -0.22071734070777893, 0.5781126618385315, 2.44162917137146, -1.0099672079086304, 0.022878438234329224, -0.20957402884960175, -0.3899885416030884, -0.19621990621089935, -0.4621181786060333, 0.6605437397956848, -0.7624616026878357, 0.4791756570339203, 0.42146211862564087, -0.16927237808704376, 1.020129680633545], [0.7025119066238403, 1.0886964797973633, -1.1148375272750854, 0.035174738615751266, -1.302172303199768, -0.11055698990821838, -0.47692593932151794, -0.6451635360717773, 0.5497652292251587, -0.3066025376319885, 0.18108625710010529, 0.03727426007390022, -1.263805866241455, -1.3779282569885254, 0.18624922633171082, -0.6743527054786682, -1.0285062789916992, 0.27233606576919556, -0.2536761462688446, 0.10529118031263351, -1.6357955932617188, -0.177363321185112, -0.9586526155471802, -0.4104936718940735, 0.22706586122512817, 1.56038236618042, 0.896075963973999, -0.8871343731880188, -0.8582149147987366, -0.6954761743545532, 0.3060612976551056, 0.2615577280521393, 0.5204491019248962, -1.8038791418075562, 0.2230575531721115, 0.39570486545562744, -1.101321816444397, -0.7911538481712341, -1.2441297769546509, -0.2027759552001953, 1.9014981985092163, -0.36042314767837524, -1.2142634391784668, 1.0792535543441772, -1.2076501846313477, 0.19820579886436462, 0.852654755115509, -0.29513630270957947, -0.00710083544254303, 0.6856189370155334, 1.2214540243148804, -0.9921631217002869, -0.449192076921463, -0.2824303209781647, -0.24787521362304688, -0.48590201139450073, 0.7460429668426514, 1.1525202989578247, -0.7988712191581726, -0.7131949663162231, -1.045628309249878, -0.5866180062294006, -0.3149825632572174, -1.2277913093566895], [0.959139883518219, 1.3584188222885132, 1.3557318449020386, -1.39187490940094, -0.2560849189758301, 2.425982713699341, -0.4798903465270996, 0.5015481114387512, 0.714763343334198, 1.0261244773864746, -0.9535371661186218, 1.9080625772476196, -0.4875244200229645, -0.01037559937685728, 0.11386530101299286, 0.2777453660964966, 0.6340078115463257, 0.5509172081947327, 0.8376695513725281, 0.9170061945915222, 0.16548658907413483, 0.6190314292907715, 0.9361263513565063, -0.0030492949299514294, -0.27182725071907043, -0.4511180520057678, 1.0723990201950073, 0.7200551629066467, 1.2227115631103516, 0.9584072828292847, -0.14855819940567017, -0.12684696912765503, 0.254059761762619, -0.306469589471817, -2.775869369506836, 1.0854769945144653, -0.1277698129415512, -0.238749161362648, -1.0062178373336792, 0.1986648142337799, 0.0722099021077156, -0.31008416414260864, -0.04983491450548172, 0.9938973784446716, -0.5385697484016418, -1.084381103515625, -0.8103024959564209, -0.41801971197128296, 0.11107412725687027, -0.21862104535102844, 1.4142320156097412, -1.4639334678649902, -1.2316980361938477, 0.2765987813472748, 0.7742568850517273, -2.678370952606201, 1.2211860418319702, 2.833277463912964, 0.32560476660728455, -0.3609573245048523, 1.290958285331726, -0.36947351694107056, 1.352840542793274, 0.8014169931411743], [-0.33278200030326843, -0.0951240211725235, -0.2749928832054138, 0.5105938911437988, -0.5257720947265625, -0.38103869557380676, 0.7284202575683594, -0.2150759994983673, -0.4203275740146637, 0.3807758390903473, -0.3149336576461792, -0.9626876711845398, 0.2203073352575302, -1.2003475427627563, -0.6960495710372925, -1.1256511211395264, 