{"config":{"vocab_size":42,"d_model":64,"n_heads":4,"n_layers":2,"d_ff":128,"max_len":64},"vocab":["\n"," ","!",",","-",".","A","E","F","H","I","L","P","R","T","W","a","b","c","d","e","f","g","h","i","j","k","l","m","n","o","p","q","r","s","t","u","v","w","x","y","z"],"params":{"embed.weight":[[-0.019792328930376708,-0.023750136050296227,-0.015290409521368316,0.09642488036238132,-0.017525598613662745,-0.20567730942436896,0.04564743515163585,-0.03672162681099155,-0.029801567207749485,0.015917999654302992,0.031908548145511376,0.1598270773786542,0.09019596088316234,0.015179328214062603,-0.10141627167358429,-0.13937459501562477,0.03383770285856874,0.18009080180706177,0.0057220103181025985,-0.014604627593237064,0.07304508152876575,-0.19965980185943727,-0.04289458839136035,0.06735647401635397,0.11997131893097894,-0.033053027538697835,0.05172996897236794,0.03409473937940036,0.10746085163571045,-0.15291283114933732,0.07805523491095889,-0.20803537511915463,-0.3598771807107677,-0.08336285268071424,-0.12579618443596088,0.12032953573218402,0.0912439385827105,-0.1674527939599789,0.11639404297944517,-0.13766314512889805,-0.011846503369856074,-0.040370239244503746,0.015716776147760753,0.11244834542252652,0.08769287833587042,0.048060414909999016,0.08927723725205088,0.06572593613657761,-0.08612307709019539,-0.09853849800713299,-0.06455510717331496,0.06858775596395966,-0.03435601588454906,0.32084051724545976,-0.11253848563369184,-0.1509420347514505,0.10555795546454912,0.19530611528777142,0.0694622331984108,0.11480834200021614,0.19592355048683557,-0.012915667132271337,-0.19545844153179479,-0.07308633474093026],[0.13089029860931808,-0.19830448001945816,0.0046058811332826185,0.03478482649210243,-0.043349917736593406,0.0993984977388318,0.079776232826063,0.3188699830367742,0.08515912221132776,-0.08370800275149261,-0.07716883410801814,-0.11422644903567389,0.13080483320972677,-0.07786047785464406,-0.009651059498985311,0.10292463035385961,-0.09937528439188237,-0.04033702349055343,-0.2529201198343295,-0.14868987357355576,-0.07798459375287786,0.05710916385051443,0.16393890897177765,-0.002536611870502504,0.03590114478692754,0.023072367189752994,0.1490006510823159,0.12271177390517322,0.03759466815336643,-0.13886387964196265,0.12408951624133724,0.05234084838703039,0.16853338320082378,-0.004107986436475217,0.268279044435807,-0.0492954564944472,0.2188236769075038,0.015812806998523186,-0.0709150022591932,-0.15500423619346193,-0.020745641732856136,0.19550817883435118,0.1121376612483262,0.09462547609073033,-0.32635119651002986,0.09765844408707164,0.07635220063618789,-0.07553818455612289,-0.08617787035113005,-0.0003173649640897663,0.23692997624781714,-0.14492922709530673,-0.05876354083146459,0.18705552128488093,-0.061283525415554256,-0.05003378814340103,0.013430614204415502,-0.1705042087981958,0.03021182832334276,-0.16615375528255652,0.1215913391172214,0.00043691960785826966,0.3136534340243892,0.038576411318262366],[0.1875918785846401,-0.17901707412910542,-0.016777129106486096,0.044387469272945144,0.23979320984447058,-0.23089156119689924,0.13607207787720962,0.08122872083107513,0.2106487702879562,0.09785367651217204,0.007152527351354914,-0.07165409016507486,-0.17145066995219158,0.02684338119548409,-0.02633157629633749,0.2775050608857364,-0.08393071495864934,0.04400920454193536,-0.21551891984295193,-0.0543209627794865,0.03587142008331799,0.1131796119908481,0.1989120643577558,-0.006064218397894596,-0.1534653866565882,0.06289058907829048,0.07101363939231504,0.06753446724234263,-0.09619191328497123,0.1556823200231801,0.0120734318906279,0.09612830470408576,0.17500741877130682,0.08368998955125177,0.03935600318391437,0.2957091675594586,0.033475187143945005,-0.04065381392221417,0.01537985542606905,0.20367394050197157,0.01630641414652223,0.0713420076122699,0.16424634497520416,-0.07044654792669819,-0.23716259720143865,0.04112893304774449,0.03155650093444858,-0.08351662101365659,0.119652916548009,0.08345579753942627,-0.13667272015556758,0.07118277771936456,-0.02693708774799223,-0.20370918746582906,0.06221749945463158,-0.006210706619410577,-0.10237247933403416,0.0718321007306155,0.06704476712790618,-0.07933083328792655,0.054992602669936295,0.13942989207993414,-0.09789229098520293,0.05231926896631438],[0.00037853144021421343,0.3112604541845495,-0.25580698630941073,0.09550459292245332,-0.042065988623625206,-0.013763191813542117,0.2612033341946162,-0.001177612892000092,0.3078172909278759,-0.060733693877970236,0.048146531670382534,-0.0674230896428682,-0.09487329492579179,0.00858271748665966,-0.03881418407779398,0.027814358171239024,-0.2891478150382975,0.2750600909964424,-0.022938789567884237,0.23940648324557662,-0.1383374896015491,0.0401828693760527,0.434738231923814,-0.11946649107411252,-0.2053952201064981,-0.07506885797717695,0.06490127683626229,0.0952375789110263,0.17724549596722522,-0.03530336798511091,-0.2200860679121768,-0.05975593927718569,0.17035768877993224,0.06396368464945137,-0.268806215172173,-0.004814695412739215,0.19205315751906993,0.2921038513555458,0.07715359346592063,0.042485940116773424,-0.17035534996688032,-0.11582831671388984,0.006444388645183269,0.0691195254558526,0.07969442768632488,-0.06568699681831268,-0.15823143413256366,-0.10683655232253371,-0.1589226552697137,0.08837904819422723,-0.3176162367343303,-0.04577925754942567,0.061795541405717976,0.20906452619705695,0.009793763574359765,0.13753692660442318,-0.054807424317674026,-0.1022517513957003,-0.09263500808284024,0.2097957043410476,0.13656677701550507,0.06694925404632651,0.4574476091996047,-0.0044424291690665215],[0.08521157791068859,0.042250949125289934,-0.030478343527598668,0.31815060253169075,0.20694808539298148,-0.19223331184618464,-0.054923116321906454,0.05883654847009722,0.10757848809332306,-0.18522344996452308,-0.30982521161431487,-0.26185964192227124,-0.009767910707766376,-0.014176046874187614,0.04741952818910428,-0.10572296154654942,-0.16816197756968915,-0.27788661000270753,0.04521736124232733,0.05083082042932575,0.1363981705575391,0.10862414166901892,-0.026196799751300254,0.18533524675776986,-0.018731435871227813,-0.09077285870246415,-0.07150694855170875,-0.08033005732049323,-0.2974868171549507,0.02147303479799756,0.03432442580710299,-0.04976103608209414,-0.09805366690103116,0.05107118299172007,0.2358303121324679,0.0052547493220273375,-0.06972883856563257,-0.08124152127068819,-0.009581783682671326,-0.17372891210113825,-0.017205878771489113,0.008404030332957967,0.2533861048556915,0.12959608830940558,0.14203483894829935,-0.0979310136717867,0.0920208009803064,-0.1565062192574294,0.04285109722728382,0.0575179862374635,-0.10527442960589424,0.27463593758460225,0.07793476628506438,-0.26135983272672175,0.07594114580740853,-0.05596231720209267,0.00018903778064233726,0.06397771434741542,0.05364378742229918,-0.28009897845596143,-0.15910745321566283,0.10612809014218727,0.17873414948656588,0.2614181537925366],[0.24768420615575482,-0.2823496672292161,0.10569649808026421,-0.26322270271451736,0.22164510606054397,0.03480021684770017,-0.15675158827716804,0.2760811275734432,0.0884562019096822,-0.25976927789731097,0.04031094611535096,-0.10042979004230908,0.015287609893652129,-0.06389939460121774,0.18866389479793894,-0.19550342094138853,0.043598952912616694,0.24919793357394923,-0.11359173302973297,0.028934820938401624,0.027747059319463186,-0.09473788162100809,0.0889950334017943,0.013330881440786558,-0.12963643669345692,0.24203152585557858,0.10873668236181482,-0.022953904208037515,-0.08745400510793455,-0.10774049212711043,0.16908274617846525,-0.020120332902698122,0.06310869078243561,-0.025337076458768214,0.0846703523974247,-0.01593095872036973,0.10492339869784023,-0.025165953894637626,0.1139525789768688,0.09235906045040324,-0.016017587980763987,-0.11809948661524362,-0.12913541208053333,-0.10174802735209484,-0.13522977788211726,0.11892628468821323,-0.0064013199277419735,0.2156699557357507,0.3130900305586462,0.003327212286713155,-0.21263651591615754,-0.05239667221259211,-0.010349901040283617,-0.204453279935298,-0.034407897835702514,0.03941510684672409,-0.06310726804740312,-0.10555141812410176,-0.10422325639342729,0.24541988480011634,-0.02192907562188841,-0.11399966859093456,-0.05122153324144103,0.13108918993799504],[-0.09404913585861055,0.06618681814697841,0.0999826870706256,0.10289924789514536,0.19226284939154675,-0.07561451516644774,0.15559282475253178,-0.10890681759883791,-0.05446894113275738,0.164295208623365,0.1129619491488817,0.00028812073310811534,-0.16365327503972932,0.07714991059686221,-0.08658834949887405,-0.12690534102655135,-0.0890280867027753,0.03385856033071559,-0.29134616615534764,0.04955463017710614,0.023888323439459798,-0.08029087628164551,0.14243291780212866,0.08398780141946253,-0.08327953213424225,-0.09203386102144956,0.09548639869921376,-0.20824871910908824,-0.04568920453300789,-0.08668090689178333,0.009598410699384117,0.029000458180120998,0.005053208745989986,0.15588337174558364,0.031326867052901955,-0.043267513266664205,-0.16632371296214707,0.09915369518262449,0.07254650738574007,0.1992840172691589,-0.10267081744911381,0.0036287968845889283,-0.008062062041173218,-0.012034277034549588,0.0014272052874383875,-0.2355101112973596,0.11332047820327393,0.08972472686075386,0.15528246387095937,0.3090028036261788,-0.043813513598939806,-0.004964647097501914,0.0013438760227706696,0.26677968880225233,-0.23780131743396332,0.0667253623358982,-0.20203422610613894,-0.3546060185058992,-0.2775827318847866,-0.1898005080586676,0.14684193723432262,-0.11927847603569457,-0.031243712353344427,-0.159820768899806],[0.08392050223367226,-0.1513660564551889,0.1809934459842867,-0.13641351976425026,-0.10505712820417491,0.016859779216129637,0.0033943472287758978,0.19569623404320413,0.01653921299601019,-0.16590879900581323,-0.07696796925021314,-0.07867792548175961,0.0995922083811974,0.05271802413000933,-0.016399618251358057,0.11944973815351673,-0.07259456590846868,-0.01871314449699384,0.024829351078813365,0.20991184281640102,-0.013534573216906461,-0.04818593594737672,-0.14365676529858667,0.09423651479857838,-0.0807193000084119,0.04720876787504997,-0.2612062069543356,0.14329274896674782,-0.18295572295547274,-0.10677618544192607,0.1454073016688018,-0.18330365286646375,-0.010913988467430516,0.010199857173835675,-0.13716232701420517,0.18446603443820997,0.20587303284134073,-0.270822492184909,-0.19903412440683732,0.11101923113593047,-0.17898413007280722,-0.05338344605749216,0.01779534791426563,0.09503291747451015,-0.0306661022713455,0.013079599243720864,-0.10669247156477245,0.17751951798650872,-0.06803659071562924,0.046665901029356374,-0.07027889611070123,0.014604654648275074,-0.023098978855741522,-0.022316170227639223,-0.13925351040417977,0.10939571055248795,0.19423366381053472,0.033398959834033876,0.10059398620150375,0.11511747672278672,0.12746865021324433,0.041669254444330506,0.029155779680597252,0.1186805261405441],[0.009454847062698042,-0.13377797980755537,0.0032758234173149974,-0.25939380315124216,-0.0008104601228317866,0.05678105723461164,0.169775016464223,0.020779532135886847,0.12748980926073306,-7.383325246228346e-05,-0.14058528808113344,-0.1938679139716638,-0.13320326106136793,-0.18765482107053993,0.0870464622316143,-0.028518070311548,0.07833877492083839,0.010086582613211183,0.14341123425340438,0.14562867965082515,-0.08864399268579305,-0.03768019509554556,-0.07318963516734449,-0.22270434106059528,0.0927482078800877,0.1632935225255362,-0.0008830074507065741,-0.06774516126125989,0.14984732998273026,-0.32210534245757655,0.02437809300058715,0.019681567487225538,-0.07841324694370647,0.19114746232174004,0.13334076460629218,-0.03587270682307882,-0.011908610085609932,-0.053299190458655867,-0.07034507946210598,-0.17969507971165427,0.18955049781985694,0.14120668038326803,0.10963657737017146,-0.15031859908974923,0.28582606530393734,0.27199661758855154,0.025831638788610535,-0.12420425871199853,-0.11901332489773671,0.05749207600626654,-0.1254121372016548,-0.004699226354686664,0.1495368512760667,-0.20697815920359008,0.275508024755097,0.21520395060287775,-0.16992680995914455,-0.19417856539892825,-0.0389309856403109,-0.14163841150511422,-0.036224841509443946,-0.354553159864942,-0.03141464327876812,0.24764138165461005],[-0.15337607779543833,-0.03750888942369747,-0.20461355990439525,0.08766866640045275,-0.030949970903450596,0.266580187548657,0.02841158259766896,-0.05112285032766876,0.07558574034246704,-0.06953575796067066,-0.18396812660634354,0.041475715941211994,-0.024020076738949587,0.02284512910770068,0.05157303093912099,-0.07009779788432416,0.05790796827300599,0.23869098125865595,-0.15216796814514127,0.23865374749251508,-0.033351591484508496,-0.10530426841195861,0.33340438648126913,0.021293858950330816,0.18823932954762293,0.11230520601367847,-0.23084745293670503,0.016595848206964227,-0.07215821844175208,-0.18430938755081225,-0.24336327243198652,0.014050645564361723,0.081077486435772,0.05366240224085483,-0.042008782808548965,-0.10968474264158158,-0.13555580844599086,-0.07625717233703959,-0.1419010452907913,-0.027921920739023064,-0.003143782761086799,-0.12307343962805342,-0.03187453732967579,-0.1044379892682557,-0.0006143321076287823,0.06965385353610977,0.024467382588693895,0.06485491038895401,-0.22692165403167255,-0.05201796461013727,0.03801307685455016,0.08807043703219399,-0.21950264309788267,0.02186481471280884,0.16571462064164805,-0.02453406590402904,-0.013016027631157065,0.061875011349661224,0.03394429311037178,0.09266856689236318,0.009946809208406645,0.020946946223608563,-0.10747700914420687,-0.023411440754906743],[0.17212954973575206,-0.028044872778628018,-0.023154084491155285,-0.06751318034954623,0.10812829674450311,-0.11739920010290511,0.12506709498886884,-0.12870319384053483,-0.14529741188396092,0.028287960652536605,0.0178815253590458,0.04087263894904118,0.14595069814178432,-0.05666067840647387,0.060849849745568736,-0.12497301265861904,0.17296016802616146,0.08687487909368898,0.07369652017797505,0.025807095520141043,-0.10791038268471854,-0.044967942331395616,0.06892470985415378,-0.002635141478343816,0.016997636622738017,-0.18678557432271078,0.024875171203513798,-0.09504353652129885,-0.1488077199696416,-0.021247672339027676,-0.25501047111200875,0.0959559678398116,0.1170329721184261,-0.0073400127277467335,-0.13650647993860407,-0.1298563943115604,-0.02075834785004498,-0.33292543217491,0.024790392702738945,0.09126675751947214,-0.042842052284829936,-0.0679113882796705,0.02499512525718823,0.048164666793861895,0.15029330168174596,0.0025269782315011893,-0.0947455000026123,-0.06335962684458,0.024992169709963895,0.21376056112673972,-0.04399292176334824,-0.1445756555063965,-0.11951833603691543,-0.2879537037359654,0.0453006895083605,-0.18699227209285105,-0.1694355643489448,-0.27142648177114126,-0.1535675143076054,0.07807773310877775,-0.18012834099607852,-0.24033185808256313,0.024486324613361723,-0.04686348065135192],[0.05936586399013711,0.10172371243987172,-0.0011674178909892622,-0.17826115898232459,-0.017005232490975384,0.06871592431407912,-0.08007969191778452,-0.19745048764022935,0.1514554144984829,-0.05703865044618696,-0.05621206529002305,0.0021925825260829448,0.14154626416100585,0.03621095779677534,-0.045772109408362786,0.09369822099390841,0.29491649514369467,0.190627103053614,0.09242599780928375,-0.15415707962177164,0.5153849049160631,-0.1646482178018857,-0.05107105650514638,-0.09613717442083,0.22347078358234004,0.057724413761195977,-0.1960306897228203,0.03675592557403971,0.07512327096246466,-0.04374700772410849,-0.16760595758467645,-0.0995909991728393,-0.060005827627359454,0.0031224156346199784,-0.07141512389287887,0.10099028935360085,-0.13048532405418503,-0.2378242766717702,-0.1015635004298421,0.18528437989206775,-0.07872907358096637,0.321534828923106,0.06751055160699408,-0.159946220861153,-0.11459802248474157,0.0334297799202404,-0.16176183329578353,0.326173462920939,-0.13610931647504965,0.09353477712655506,0.20056426516447065,-0.014999829489588267,-0.13679204579698012,-0.037508546770247085,0.04975424862758554,0.12029380135470338,0.00779067031388653,-0.19233534208633168,0.00581363568042081,-0.09249285818390895,-0.2998905058617425,-0.09581726083433059,-0.19676223251754937,0.08061065233817653],[0.26705156702424687,0.25531945053429606,-0.07873627639780609,-0.06420155428031085,0.09461148386482764,0.1457787901849581,-0.05751816839691552,-0.019592552920334138,0.30314505999455454,-0.014759601231491682,-0.06666402700950294,0.01647145245039801,0.07962824338454424,-0.1403333016611304,-0.034120749473298295,-0.1602119523547133,-0.03822243863520515,0.2578154117623623,0.10188337675507168,-0.012711793108359948,-0.12817279406184734,-0.04277517293216832,0.14432932245876426,-0.07715361702544021,0.19923059947979324,-0.18868346441918693,-0.039840922416882814,0.23938709164958166,-0.27579786563525505,0.16324110149761342,-0.2543061990542838,-0.012373418593396,-0.023699468968885574,0.11322541874340004,-0.4333098255521169,-0.2634314374395839,-0.07774831729768295,0.005067923539219184,-0.12269277085697795,-0.030338412456986107,-0.16293341513389817,-0.05511908108181668,-0.11631227571674285,0.033518903522739674,0.07986415852029762,0.19682808152620715,-0.090166021557284,-0.043679536173011374,0.0065583388394555705,-0.040510276846924625,-0.007141450869909288,-0.2145817512079623,0.051064452216245095,-0.12571122884405866,-0.13144878065723484,-0.2181459109896901,0.15947583873299762,-0.019314145450502435,0.15789486695421331,0.03740351258283809,-0.23397461744416828,-0.14885715289690019,0.10410996337522525,-0.10517460942704421],[-0.14977027345156452,-0.02463961822010597,-0.024308309276599077,-0.13899067658074835,-0.04479949624025453,-0.06572602345479057,-0.35576243722261985,0.06904614553871034,-0.11145092295215499,0.17917853502174172,-0.157981713566293,-0.21697452425096123,0.16313269470497654,-0.21772406459553953,-0.08738525641156751,0.08205050851847964,-0.045280374207015466,-0.22739656325061908,0.025828625868478144,-0.026692304666633047,0.1763510556287213,0.08085700806207283,0.41698742797570204,-0.22608093298192466,-0.002977256336021252,-0.14651626242680246,0.1586171800143161,0.11288812809866883,0.1035750610936981,-0.10677475593190659,-0.10235444062194021,-0.27879797400477035,0.2348179035629649,0.06980928887414796,-0.035831869914997816,0.12822819404327118,0.10314618158992808,0.1339628397881033,-0.22301001898021594,-0.09805290769687644,0.02684602073868706,0.048820848945344074,0.13148632067474922,-0.13854674800165914,0.017473518629860744,0.3029286405722778,0.0950427930531101,0.1195810087137984,-0.0026355742645063165,0.10544167941060188,0.24779705445847666,0.014648403511237968,0.1681263639481005,-0.1202096385413112,0.08105629936983683,0.12420371243686358,-0.10329560826622562,0.15083895919837842,-0.0927522532355369,-0.11060811852929361,-0.00016378202022532623,0.26537920063834464,0.0424654239804829,0.12853992539760237],[-0.100520147695521,0.010645094225419397,-0.16161244649884862,-0.07844749351655192,0.11478407352375668,-0.005274275594057698,0.1993508840135735,-0.027804036517185722,-0.02718859062332171,0.1753656973795644,-0.08909432899745431,-0.20875572332746412,0.17874413169292777,0.0568930802202241,-0.2974123990581962,0.006116572695523888,-0.05546440992296928,0.23967215971402273,-0.10013467163342787,-0.07977462765757022,-0.12505317053167503,-0.14478573849715745,-0.09622051470945625,-0.19723939560313994,-0.1416458538339483,-0.220681454137574,-0.2056670492462478,-0.21423784187158454,-0.07158668511693901,-0.09391184418719141,-0.16846866548644296,0.06569555711291682,-0.006603730204730507,-0.05933646044887923,-0.06373163126881876,0.2187988348831454,0.03294100110090543,0.06529823508497183,-0.35521990508469653,-0.08979733813731433,-0.2982107161874767,-0.05854366673916142,0.0512780922294316,-0.09262192155784532,0.07123640139086058,-0.14048551335211323,0.07909264507056171,-0.21340465381180196,-0.03594564577845337,0.05766495347027405,0.07361438170137248,-0.017480967296716752,0.26644024597577176,-0.05692494251939966,-0.06194902952404422,-0.3790475017038544,0.24298174771436887,-0.05068581337195139,-0.16153815170407548,0.18144017976987326,0.1697098178826759,0.014879668880488178,-0.19710163588897975,0.05755078663652847],[-0.08535475396572557,-0.1608178740664535,0.1433182167593123,-0.2929340516585214,0.07790586488291457,0.06309727511758198,0.2817280005817844,0.04466606092151498,-0.2827473104759916,-0.11485005038204998,0.008882684779361966,0.04884042260589079,0.1347254493765135,-0.26918216783575644,-0.045322075108493884,0.1332206465084529,0.21208056183545462,0.25563128189216805,-0.053600726266378976,0.1507676770405034,0.23512177267120338,0.1645675053829737,0.09940581571407373,0.11370665283883928,-0.10849895449582031,-0.1987950447211561,0.1350045457537938,-0.04767329252733274,-0.0038644445133757623,-0.07949331269937317,-0.05396990537577042,0.03197058811276946,-0.14036317991521785,0.009409200267380074,0.033798236423790394,-0.010625584224028536,-0.10214540974846424,0.10805054669251618,0.2572264694452805,-0.0825870720291894,0.1695665133359647,0.12214981268192199,-0.3644521522892684,-0.10455805084305499,-0.08733938281914053,0.10738458109434028,0.025890801636802796,0.06516358910571217,0.08739962411943,-0.12347570689364575,-0.10254652235404699,-0.1679767175649274,-0.02338846555842229,-0.01636008363517407,0.02351686026769094,-0.09990338568415201,0.12452073003428944,0.1259748588812176,0.212430695715905,0.09770565365288969,0.025481928334964963,0.09236453612365814,0.08375584964054134,-0.08953366224118353],[0.17711069768469018,0.23605662253742396,0.2715554037612511,0.004838623260107437,0.04454197096331893,0.05719129200708271,-0.00034965999680038805,0.08506585417421396,-0.016645332646100987,-0.02661819762274144,0.24161478270769168,0.022625405715979416,0.009204559010300487,0.12115466530679302,0.02064982050211493,0.04005739771025409,-0.008731211128090123,-0.16763709761473253,-0.004254292345626782,-0.1561631320413079,0.028866490875402915,-0.16228301923560245,0.12591968328661088,0.1029153099326201,0.03851978287670223,-0.013754445909786079,0.05718337852948715,-0.26991327976401613,-0.15065979956062617,-0.020430084899260997,0.04742503050001153,-0.010905848044924997,-0.13799381515703557,0.018330222572269544,-0.06232054589408342,-0.1467830925149309,0.045260582614152355,-0.028842724844057876,0.1643496037687829,0.091417860042784,0.10091486873408653,0.04418430880826311,-0.116094123589003,-0.1285182718884502,-0.20207910595652964,0.3954627802806601,-0.14827314498948843,-0.028822619115191777,-0.049503259005385415,-0.038611727803995216,-0.08022550692626246,-0.2566369021464465,-0.1371124547121146,-0.19102315093827416,-0.01741451611606185,-0.09398201617248071,-0.09439146789603066,0.029653294927081207,-0.08005168709285117,0.1280329762665068,-0.053045873232980795,0.030927655165691414,-0.18204350459655727,0.09022844859376933],[-0.05565621932656261,0.056147240839338135,0.04532969595239776,-0.023824249686302014,0.029867559638775656,-0.05292453572989481,0.18490239444370363,0.1283344439704177,0.06627568376532182,-0.16210475295036728,-0.15100124480256114,-0.09118839955413165,-0.03365368755148163,0.06153968495022477,-0.1231489444912636,0.1616835582491323,0.0004937873322699665,-0.27647683967862813,-0.06528982670428207,-0.35510250858826864,-0.10325787911527644,-0.07542851108079539,-0.08384628032451469,-0.04467700999077716,-0.05413404754541917,-0.08155568564638654,0.20638382316991685,0.16687965787732176,-0.15684387655619375,0.1722363971950055,-0.22271195167918,-0.11189558703180284,0.20950133570754556,-0.30762630951238185,0.07895288281009154,-0.17218065875700872,-0.019779938351609298,-0.024752814647513683,0.2331289276558605,-0.11134494586093273,-0.009479964491789564,0.08612779547578699,-0.0345842982169765,-0.11291963160829216,-0.008131715146111758,0.012844790433075614,0.12143435296364927,-0.1295382020252277,-0.06169282061928302,0.044359589956157866,-0.022962213466518687,-0.025450197016154107,-0.0023355558614825077,-0.09558090452198678,-0.10984592455262104,0.060538945883002106,-0.150423566326122,0.1600777830185675,0.02984912542550452,-0.17534640424154116,0.03887674774415138,0.022977482706950325,0.10469091749647853,0.15918023072032667],[-0.05033153636927613,-0.0972186846724149,-0.08323796661089736,-0.1347628598636271,-0.1025316345746673,0.03907941527507062,0.0020969206579298173,-0.06749307561365397,-0.10140723450746891,0.04778585417010293,-0.06889992326358003,-0.14287651678234184,-0.020834143977617105,-0.03633098979514147,-0.14698147546814513,0.11362141078108894,0.1162087444724405,0.005617179566304871,0.017999778973390907,0.07243133795590162,-0.004247528228814118,0.12242840536720893,0.22747025936213522,0.011056569715335657,0.06047345859781672,0.11997781369309571,-0.046433750580665116,-0.15498454478733045,0.12444878293392451,-0.21548635674526886,0.2457156165535377,0.11956322660235756,0.0257813648921273,0.007018566297155624,0.24056751542881225,-0.1299741310453243,-0.1593648279996342,-0.08216028793643065,-0.035960650052233395,-0.13824918245773854,0.02113444383545738,0.01867347463297489,-0.1117918768212787,0.22019621637908962,-0.19121606143991593,-0.17537137187107596,0.05166405966787158,-0.028499965989544775,0.057379196368429496,-0.08502215355968085,-0.14194013465909824,-0.08867221560861392,-0.09389903688714271,0.0721137477756473,-0.0659273501737282,0.10459050605985162,0.08077836114408682,0.14293689904772944,0.12372327375874635,0.10773914623351401,0.10574743798076774,-0.07097314152977574,-0.03597255339866426,-0.2513872954794512],[0.04007502171391415,-0.09254886584639498,0.055156511434228526,0.07245551050778709,-0.18572435377468655,-0.13926154706625554,-0.047986409692138174,-0.07109791795781498,0.022941986683667193,-0.15870966018159746,0.0064804423110069965,-0.23193132624277749,-0.29602717435191606,0.0984413216963684,-0.1792985969948137,-0.07691061208083756,-0.1946897723257614,-0.19352328625468923,-0.05478716197447091,-0.05633546464543964,0.134968722640407,0.06174522332084621,-0.03586738954523777,0.10407583706617664,0.1533705170647378,0.05649612274153172,-0.055811813833173074,0.13991593425236684,0.24292512791738585,0.09073136652570572,0.24322113502818793,0.1272781497471749,0.11659969369122294,-0.1497486303775348,-0.15295776614737414,-0.006797079359731712,-0.22931765032307852,-0.08144847014789709,0.11913795360126858,-0.09136612333272302,0.0732394190149336,-0.18560858518763587,-0.06780680850888879,0.14058035455265186,0.028641385920879885,0.03987337163759978,0.23416182688460815,0.17812966043237952,-0.12044555872554064,0.1810272971901366,-0.08451027965288925,-0.002416149342163522,0.0020896778620356684,0.14739341345018633,-0.1551167023035618,0.06206786585837411,0.07197897937656814,0.11146992080885967,-0.02889871176760761,0.1378292702488649,-0.09773808318476764,0.1575606363383711,0.048383908123266296,-0.19231617661078204],[0.05603216772072982,0.024629380119940078,-0.048853156045941024,-0.10113221053374577,-0.032993040005715756,-0.19809550063492587,0.23223817906562058,-0.15498101295549876,-0.0908342200961005,0.1572639789056427,0.08036016687976172,0.09893331038625863,0.2083359282025833,-0.04287610220462183,-0.1437471329354111,0.1159691243787294,0.1093772350068755,-0.044901715264771,-0.17384077199152095,0.17021041858220945,0.07909872198679381,-0.1886611524513023,0.10713489609197328,-0.1979334689994341,-0.06629438959857528,-0.15429841963574858,-0.08761276711332656,-0.11446406958812823,-0.08424471912751427,0.09948530627449007,0.04046518136914918,0.08636292742921774,0.15004473011476696,-0.05119462621456034,0.010974378748297186,0.07392099927365567,0.2344385728451579,0.12349789591855893,0.18977064583251146,0.13996556919547137,0.1452265739875914,-0.2451433004530272,0.12099531567792204,0.02924747702398207,0.00744691704107173,-0.07242406314382967,-0.05841588722538831,0.05716682098986317,0.11537954458837404,-0.20573667536784784,0.02995886380513794,-0.07701625211356634,-0.13060280418588652,0.05393081715103358,-0.04515286676911133,-0.09052565012028527,-0.10565294317159929,0.03863936848971359,-0.0013788630122526754,-0.14994833780821273,-0.11551990870278993,-0.02506919296816501,0.05565133168206197,-0.14418937654236227],[0.06704659687186039,-0.11318547894808044,0.37468453638531746,-0.12925668382041752,-0.10853208980417124,0.026648412977846203,-0.1239515585459969,0.11368389257734263,0.24744356529689837,-0.05324367489017386,0.02373192765521773,-0.07111975975058553,-3.9684815149814756e-06,0.19666384715032753,0.12283416202596273,-0.12420484680255914,0.21234629541676947,0.15962139949437765,0.06680782654809078,-0.0905504760704147,0.009025624713757969,-0.10926565024004715,0.06423059222779966,-0.04347064853921141,-0.30699564467719154,0.12722377414125863,0.026298097225824428,0.14814104258537228,-0.01870572494335069,0.025887881059599212,0.15320182819341038,0.05326802442910163,0.03956008008091821,0.44153055665302704,-0.023213961518601806,0.023239450001644735,0.23818716029643652,-0.11057631186499228,-0.1429919764010745,-0.19670936597964364,0.07330417637392,0.08593699192207614,0.10185116129177006,-0.18592577593364784,0.1381653813993864,0.16445711666472373,-0.013366738433573562,0.004473348129537478,0.09280021710344978,0.05043103822973807,0.08818131522830035,-0.14918539341888423,-0.023986229381445116,-0.16654602446647346,0.08671255814225565,0.07283083227320795,-0.01357328286397736,0.04076850953133984,-0.21380396474822952,0.11784509814204586,-0.06418461768137543,0.017726519980933973,0.15320781361018898,-0.10391335018016042],[0.1644526712356524,0.017043054486672066,0.0038722156597370398,0.07637873285152295,-0.1712921372660797,0.08160675959519088,0.008448973935931858,0.14234358799044833,-0.02978073608676494,-0.04990548938237367,0.05077370510587998,-0.00815479346150845,-0.16125699919582845,-0.026642143143568137,0.1741223744054595,-0.012788780290772935,-0.11956687110580917,0.09834151078833953,-0.25459006779603066,-0.2912411052678505,-0.0005700870229017073,0.024851991744068838,0.03027416000284091,-0.12263316141781547,-0.02067271269583271,-0.19213078828696228,0.030159202817012152,-0.22188110882202913,-0.02050006716230405,0.03593068169453439,-0.2412910967196222,-0.07177129651302198,0.10826021288161689,0.2127671020284173,-0.2065848333506756,0.04669139114672682,-0.16977070312294354,-0.1847853977986207,0.21923760153874444,0.09178188873681563,-0.11046458220541076,0.030085764110842312,0.08817811077399369,0.024902461521738823,0.3086874755844564,0.08321016445512106,-0.41111764327016725,-0.03986200304399177,-0.10117652468088117,-0.028041716527795284,0.0018496831097225583,-0.08944135952221348,-0.14902489419747295,0.18727814712662968,0.08205123315900957,-0.09213313541465719,0.09335705968323069,0.09274318338262805,0.17407806755944433,-0.14495843368093556,0.10712498042138759,-0.08348614976292844,0.15865757370776512,-0.02643492442049715],[-0.3120528765623645,0.004856241763409857,-0.24507357020032464,-0.029827767608813078,-0.00799323514207257,-0.05512348328711257,-0.2042441539911295,-0.15325715190941225,-0.11601344103007159,-0.03408033873057032,0.17698905641664314,0.09740037460400565,-0.064861003566014,0.1749805600153169,-0.18791783474529344,0.09409491442878315,-0.02407033724309111,0.03246170651800081,0.08769952710271728,-0.09334680752771583,0.1100475330827844,-0.001278824959266661,0.3312860573214765,-0.04179347425212266,0.17433457129543145,0.0888847058405656,-0.16127866671072388,0.1868958381023989,-0.14565862600348795,-0.30658811533442343,0.11721192385686445,0.14683203983803925,0.0071462700225469605,-0.03585375988747338,0.2175354250933629,0.09778260007226244,-0.09009011315797005,0.1004837826298616,-0.17077923941105166,-0.07678015115141254,-0.14438381400652214,-0.3021956280189866,-0.16171356825107272,0.16789965009729602,-0.150797432395686,-0.07555270983108206,-0.15947199987055316,0.1189002954335383,0.00016448215555441438,0.06740905027968822,-0.01451719577572652,-0.16085292461671893,-0.1337813316565167,0.11500732173480899,-0.007885416070660305,0.10637225268586059,-0.434415952314732,0.15248516197854334,-0.06785161170055097,0.2984648967449005,-0.07015760626913496,0.0038830281560883026,0.09070984353819425,-0.12029971712373091],[0.11987977437661874,-0.08862722110903187,0.17707192718673517,0.10895525875273128,0.06808092929418968,-0.09947572079775832,-0.028924174468682957,0.04119602765904519,-0.2793011055420711,-0.07578859452088822,0.1288543055198504,-0.17419802608799742,0.17568118160433474,-0.08630572856624992,0.044402810940596706,-0.15764375361944552,0.06653447156637776,0.06356058326909568,0.15609296767467998,0.1859958330168311,0.17218472121536502,0.02869722943131645,-0.16842659479197447,0.1818331184437451,-0.17913668277538003,-0.0602614297047516,0.10124965422930804,0.060927334694240595,0.21882435950183118,-0.0005567809657304647,-0.2321488272570736,-0.03780964969313356,0.02390904698695884,-0.048159853734003645,0.1940154164114735,-0.034012207953661194,-0.19722879486449496,0.0641184642426473,-0.15764668862881365,0.23349817042788415,0.03710029228606864,-0.19275593651633016,0.14826587005483963,0.3254410419885028,-0.27527826963002205,0.12404668647937168,0.0664863014021556,0.024131544663517746,0.04715978540825981,0.06756569232099059,-0.09519153500245216,0.19381435988972737,-0.18537139981982015,0.26902936907088004,0.20984397755644732,-0.16292817892162795,-0.0007417650396223453,0.19503263120175818,-0.06744327228189209,-0.022308529295199372,-0.055270786305752495,0.1603647233024171,-0.08347164567103879,-0.0013496492037061662],[0.07420429225438692,-0.028516288240793723,-0.11901352299022203,-0.18427587257402916,-0.2085485606256104,-0.16205857716732386,-0.23633565703733547,-0.09984420551021939,0.041237674956062134,0.007430570367536533,-0.1135467862075058,-0.13983565782185275,-0.13645241322264595,-0.19064245510010652,-0.16976084105124467,0.09812510863663723,-0.19293822871319233,0.0023785147356437043,-0.084896225407285,0.33350382393991085,-0.24682704802580857,0.0265519144443604,-0.04584416980974017,-0.10592290174291998,0.043297829165501525,0.021371190770568836,-0.14682541614517808,0.05855369840917889,0.05345641543708559,0.1798694996585922,-0.08378598984962646,0.2019810772788858,-0.027034943330615735,-0.27142617090604076,0.07185273418671209,-0.01120727681370386,-0.12120022490808358,0.12819041993102495,-0.06478312710055277,0.13967998054501152,-0.011359873528183012,0.10306461677364004,0.09333344846225083,0.06499461171750129,-0.1417620674506669,0.1263322932136704,0.0029892028223027934,0.27503166904032544,0.06575036511466317,0.103175123102263,-0.10506612773063614,-0.05578783724069927,0.013285238245062874,-0.16077724919745368,-0.16074995950780924,-0.014914988860265386,-0.01069643180030359,0.02775712041464621,0.15344605383621487,-0.054990565834343766,0.09352547137493233,-0.01986719138139951,-0.026649585993644507,0.03531101262171984],[-0.28402432146995155,0.009114816330595096,-0.0876714066474114,-0.12772314612934044,-0.2591982052565819,-0.06083577002308561,-0.2578856776100967,0.11952060787472633,-0.03287138833376821,-0.2310503277705888,-0.0925157566264759,0.10370087312905277,-0.0817135284854914,-0.038628236448967845,-0.050711214498869076,-0.01762007807044918,-0.23348095966969054,-0.006244366999150238,-0.0766599274872865,0.4057327855022047,-0.029258951196300793,-0.06258485093905784,0.1357777591323343,-0.021432666797367318,0.034799226193108004,-0.12006906212018453,0.2136270048253354,-0.08621774739189042,0.05155832649889652,0.15554126903353016,-0.04182696810658366,-2.0473573497887582e-05,0.080563806883834,0.09377357263076602,-0.1497364739773734,0.024928638809225474,-0.12985642386727247,-0.10238447185832651,-0.08906337767494035,0.1670274032350433,0.21930676300255555,0.35788643763688505,-0.007767797360232714,-0.11557612379931141,-0.13316856280118336,0.22080446771159057,-0.21131249700232047,-0.043538979947256196,-0.07775473921091412,0.2403803377450222,-0.1391935169069396,0.1513250972875961,0.1804029189491612,-0.022907624895697278,0.06394069620431111,-0.21135866831807054,-0.012116274777116586,-0.02953623759923037,-0.3543329268491042,0.057056414642455526,0.048785859309504784,-0.23260308923288509,-0.19399100436504327,-0.10292277956859462],[-0.0726887080470541,-0.042082592236143114,-0.13160848472318074,-0.13843982385911363,0.042102832026220026,-0.06528033866119475,-0.014670191109980682,-0.03154895632613746,0.06280129243366689,-0.021191284792317844,0.11834154734614429,0.014147935900826759,0.12211825260762055,0.17129991771708922,-0.2006117323190431,0.12664576983563805,0.244889455724521,-0.13358714947281117,-0.004377778355732287,-0.04906575581399548,0.060553197516800224,0.07142637692141132,-0.09193482137213459,0.18029350412712217,-0.11767415941743078,-0.018999569484883107,0.14060121332418338,0.26832533047966517,-0.07041861321835949,0.10745642907389202,0.030225052651958153,-0.21736535353356531,-0.13120519795320223,-0.16548799205759857,-0.06913591454783684,-0.05725025727532828,0.0038390620719431267,0.17550475896765247,0.0580315664045992,0.3644261826277284,-0.03343739934679757,0.10841222637643497,0.056923824090146916,0.20694285051891026,-0.0520206509044399,0.1161050944715597,0.22377035263548145,-0.09901125906696369,-0.010284413663714504,0.06927179861830628,-0.05972155052053781,-0.12022401854730218,0.2517452378793233,-0.03154486785271314,0.23819600499775992,-0.06983758816368625,-0.028445850501649994,0.10949548268233307,-0.028298906149171615,-0.12346903509793741,-0.09888740614545899,0.03745442891516259,-0.09149779719191657,0.012097036295444273],[-0.31006205749619487,-0.07666399054795939,-0.024767724599487246,-0.0704167537658062,-0.13647961820325288,-0.12135868732818982,0.009686789323085702,0.20426333506262734,-0.19208863077626798,-0.037947258234022924,0.13420808443075716,0.045941319568492074,-0.01287856683163701,-0.06191013738819613,0.0018216600416061696,-0.013882224075933623,-0.30033362061851915,-0.09832038831463914,-0.2677966334636143,0.17734025263375192,0.11299946278987646,-0.10827227939595727,0.11055846364912203,0.3363476004266212,-0.08558613407417813,0.17846916140922367,0.04979390726985186,-0.03251313832770665,-0.15190849682119958,-0.07636217871163367,-0.05424540594771019,-0.31809624666749853,0.0728645417885936,-0.044193192098366745,0.06308204463320809,-0.05758528822975504,0.4118444349135739,-0.22764555219837265,-0.1281655728934955,0.09686741737102515,0.3239604589517028,-0.13631919227495887,0.25126198956100837,-0.12596367682937085,0.17765763753775912,0.01035623775626059,0.306313857130688,0.24477450127582964,-0.0889715513670855,0.40324960882525646,-0.15441509518241822,-0.04307911519916792,0.24833459452989612,-0.10093022177976829,-0.08809638384796603,0.01794346504268996,0.0621538243764642,0.053183580479750824,-0.10242940883166454,0.027045404364821408,0.0875571136130284,0.20658899644882933,0.045076309726426476,-0.1721099622539956],[0.0039034434462799435,-0.08524508310813797,0.18118282945876357,-0.23013697898922492,0.07688525959228266,-0.1463434369199614,0.17473048388716875,0.10592726421233242,0.030127449347071476,0.069358666214349,-0.046274037604349186,0.09282514999808687,-0.0068167490624172974,0.10043859474172685,0.008046070257001306,-0.3408178616862266,-0.07055630915847497,0.20844361884662999,0.1995217431778823,0.014360926155245358,-0.017312043365157015,-0.04604987339430905,0.08661420140498191,0.07953694836409796,-0.13448860715867392,0.09088463698926054,0.16935137377758677,-0.1311607703603788,-0.02566463101298032,0.06367552788054022,0.09927775520397986,-0.057764938497871864,-0.07261945177086643,-0.0637195530071648,0.05291576982930321,0.05894404366372603,-0.002667204777330187,-0.18739057186959104,-0.1497212031818445,0.08747450838196412,-0.16772936558371096,0.031092530393038935,-0.049559364788212316,-0.0827224472264455,0.0036673157097131437,0.23026466862261755,0.03967200859043754,-0.040612810949603055,-0.20238315291165382,0.07036135664456074,0.15613821370694894,0.08342951630544003,0.16015611370876945,0.06546579448467857,-0.17901856275576042,-0.006174324499662903,0.07209616220336044,0.09903854975183601,-0.06772925791331172,-0.008703899618936016,0.05025606039559382,0.17462552573123125,0.13808016871691559,0.0887786490042716],[0.054425354659563975,-0.14083322674859836,-0.1512284611615361,-0.012617207155336449,0.14307248089887564,0.054305969208482525,0.0770724541044057,-0.206254566879786,-0.20077358429143488,0.153827873969861,-0.00475795405853171,-0.18044890790709867,0.12117501516232346,0.03544399264094542,0.40541479722079204,0.17170076638158335,0.047622540030744905,-0.020756494432320208,0.03190824200043146,-0.014100360073105748,-0.19763392815540917,0.12740496143969865,0.037754583608515246,-0.3783880775188728,-0.08729582860703879,-0.11383644638769706,0.13473562866319166,-0.006051445757221286,0.20431104436439881,-0.21861202892580897,-0.14777058764925233,0.14657670597743133,-0.09000157432818133,-0.14541434232736158,-0.07234388088516394,-0.10436989052835315,0.07408237725724398,0.1535921336576622,-0.21798012052922175,-0.039941223225437146,0.001956547354276122,0.011290163998068637,0.11445645496205115,0.016462266088046826,-0.07964211609504133,-0.15273032108728915,-0.2506430945564579,-0.05097614295423987,0.0019793485515159533,0.12660864947192052,-0.05189057820361685,0.3191853295617687,-0.010505279071754291,-0.06639237137330217,0.05227877980825849,-0.13331652535477861,0.028695726372008235,-0.28352550804544724,0.09286866354952082,0.009159017781364971,0.028924121441518364,0.02126461830307546,-0.17496385198374334,-0.12343514143131841],[0.21516500944515057,0.06793820258223923,-0.08204042099708528,0.057839862443266374,0.05600339924849989,0.26846908811549425,0.1525184238636137,0.056478363682812095,-0.06170033817179688,0.24500865265275829,-0.013948780122246911,-0.1195740085714276,-0.16761374546241603,-0.11845927481368314,-0.05001095446418147,0.10513597936802035,0.12543566479725132,0.15811159463132246,0.021012965094172685,0.11421428284567951,0.3103408616350108,0.1250378681592454,0.22017285438183037,-0.20750216330058308,-0.10189392219735252,-0.10317357390225425,-0.36771893333916605,0.010120489086304947,0.19126757892241406,-0.07353142837375062,0.026846055053608067,-0.11731336611102951,-0.06754398660761572,0.03919032086842103,-0.16425243438159334,0.161265839245504,-0.2635618448551742,0.04426225606302603,-0.06751021346900302,0.20454976198071134,0.10464747146896387,-0.286281275010801,-0.33274176404246536,-0.13754688127187245,-0.06898609845920894,-0.02596209995916424,0.004154526349774228,0.09252552892175406,-0.18763325469698844,-0.24732410357613988,0.034678248933679254,-0.04958455527573292,-0.014199419225091452,-0.08816210966645646,-0.023792053532013833,0.20418742659482,-0.2229733231806459,-0.16833955352845736,0.08813075795233101,0.21530001475766736,-0.028248049885465087,-0.17344736229289945,-0.27487496420269525,0.03578825741729523],[-0.17161200041655308,0.2988387481405075,0.32164398223619217,0.031084873258159344,0.06668329310686591,-0.01619656079983562,0.1568376959427008,-0.0004217625523284391,0.00870271926768598,0.1868657593077616,0.08601278404921896,0.29271279092295094,-0.22483583088730474,-0.07631511426731648,-0.12416103999183,0.11562726141885649,-0.06779984920690119,0.08273666152700175,-0.16057284462760102,-0.012958745834328706,0.31551658899205837,0.22504718285525474,-0.25803620583897546,0.05007980233701542,0.11350830323741055,-0.06777471950715618,-0.15142358033496559,0.09093101815083723,0.01384943793458356,0.0758973253150079,-0.021710034266140273,0.3202101641239413,-0.12552572624424024,-0.06813066628051531,0.0707249567018519,0.10051246132088795,-0.18938088184639273,0.1781996059812754,-0.2002879718843299,0.0008790526713858351,-0.0421733511225483,-0.09719974309504968,0.15566391810777797,-0.322392494065086,-0.10038073922231688,-0.12400415167810112,0.12017640119712493,0.2129667463256936,0.10651882805871335,0.1916571375152777,-0.30556602187941756,0.02247220433647762,-0.18997424725750128,-0.05150545710519885,0.0336082356392896,0.012997688601123084,0.18897431737950074,-0.2717864661964148,-0.11479723005252687,-0.20338016978952492,-0.22510522808036862,0.13815443083030476,0.025057154469030313,0.21381734728147128],[0.1628006109369913,0.009361156352273595,-0.1331870529207643,0.13623308002005455,-0.09499898711870022,-0.16475353170043905,-0.15802098143529061,0.0167383616896815,0.17383389340244043,0.007226376768809306,0.16818819371033736,0.012546797906223222,-0.05857724311100789,0.37378195939756087,0.25013970360489995,0.027047253786842442,-0.11431073722795801,-0.22101719289457594,0.05513071053575312,-0.03509723501363354,0.06414749487858877,0.04437312430058326,0.05992714232029658,0.15689702927416405,0.04316141928741164,-0.09937268033702837,-0.10584298474941205,0.08009863503489274,-0.14722675490788562,0.09867188909181011,0.09810200966475331,-0.006027860818536034,-0.10733674196132678,-0.24399888978749662,-0.1543884610818908,-0.2233386605831392,0.00366355628452991,-0.0607528655316184,-0.12646258793234236,0.11986157958867183,0.017764551280192505,0.0065365673443450656,0.07666323571627258,0.14236769250781947,-0.2201648068355149,0.09706994225430308,-0.24847657890000893,-0.10911697118845146,0.13902888747001302,0.09494671234199085,0.09130918435326121,0.02501128532123932,0.19408725661497606,-0.21164526469576564,-0.04191630592887383,0.006503892430458347,0.2795679171182607,0.1410074740337086,0.14263900936589968,-0.10457884931628511,0.30901477975752617,0.06480786231402264,-0.13817434687379204,0.32215987571017096],[-0.19600091625314495,-0.11932508784878829,-0.03214251972948477,-0.13467100808820034,0.07241802724161593,0.03801627862442418,0.01559156640883408,0.2601343744108785,-0.2244429263047433,0.187687519700617,-0.11327464037175695,0.20084365829954773,0.2617012685470166,0.3161426233615215,-0.026169149383431657,-0.1597859767075226,0.045044113766300756,-0.007330736642729372,-0.242145985734411,0.10103487442505579,-0.12673956621984847,0.1980751453167835,0.13257541589598323,-0.038644662830928364,0.004967557154972394,-0.03331917277993159,-0.06282780186894615,0.4255856991325687,-0.12859653157522621,0.007601202364295378,0.13618909406253543,-0.052793030647853185,-0.08633699180702138,-0.18256606941704662,0.1637386455534234,0.09780113291752378,0.06455034622288354,-0.20724905231391352,0.06917242271580219,0.03918957427175705,-0.04643663090756754,-0.18910989214615279,-0.007785955036671897,-0.11961935803506714,0.010993621906656684,0.008700426819521424,-0.04644960982100127,0.12115524032605661,-0.009072741643074185,0.07267568266690988,0.05747198024954602,0.13848323196442505,-0.1324237834847776,-0.04743126844460419,0.12664568552680863,0.021089356892985463,0.1546412444239257,0.10236697071894399,-0.06108150620433316,0.12094747931943517,-0.03536838615161624,0.13139973294158064,0.25463412750732645,0.14994203707264833],[0.3144871371839765,-0.21312616961918032,-0.07532507733157111,-0.0365852427609024,-0.05498413451454843,0.05115967275103138,-0.05056359704435404,0.1519355396535572,0.13526725556154745,0.056794940927800804,-0.13903818802012047,0.0751875709914398,0.09262085681588407,0.048609902274902916,0.004121791053339241,0.19235078787700946,-0.07532589329532884,-0.05036977153637909,0.09162716927438624,0.07290979204264851,0.11711327689669077,-0.03901188056705567,-0.1805887681498707,-0.16999498034459823,-0.059432168150085604,0.108847967672734,0.10882585499490995,-0.24943458991568693,0.07333622430898845,-0.011981490901235927,-0.14314425005386844,0.3009260937965256,0.036257404128475584,0.11365422201576147,0.3526767418329867,-0.07982288903854877,-0.054503324719716896,0.2045320306663898,-0.17962242254141822,0.010159969755437318,0.006348130380855486,0.1332646144681088,0.05568472165621488,-0.12543490161062143,0.1335483036931596,0.11609019991306621,-0.14436651536812187,-0.094477034639989,-0.0722252142899684,-0.15787400129286078,0.14624323244800153,-0.04448322843596582,-0.03816291073557532,-0.14254671245537182,-0.05419407976788966,0.20397379330225737,0.10278529698270006,-0.22216659261051377,-0.13594675094255182,0.08730651390703788,-0.06842233291194166,-0.07599329784928806,-0.11819768745324412,-0.18283640621391894],[0.013089001995182013,-0.05223436380465673,0.15664294737439205,-0.009163040276772725,-0.13257645182625405,0.09530151490128759,0.18490755449998594,-0.10106123746590145,-0.23386678639084366,-0.0657910464640719,-0.18542437326081254,0.2254935431001084,-0.19062137545903649,-0.04501235051304482,0.20240376489658216,0.11967024414068829,-0.07055681142498742,-0.10756211885340045,-0.024930471104661657,-0.03298785405733287,0.20554614925255782,-0.021244920292574535,-0.18543261758494686,0.1354063333663085,0.142378742621321,-0.03115283033566348,0.10605953017657276,0.007039256984582362,-0.1657664992887721,-0.011136458069997433,-0.15723360963926736,-0.08710789877820642,-0.1289675241496736,0.04571975948653574,0.025615506320261765,-0.1812719008323756,-0.126351804625334,-0.00036978126531501693,0.0637858399157081,0.009923086126052555,-0.303126540249035,0.17676998986052622,0.24344573314011386,0.2175506565890111,0.07473842540739374,0.09230436031345589,-0.08986022859278081,0.025903272234489152,-0.15530384410342143,0.01672506989111712,-0.19638342565385114,0.08038364496945982,-0.04870200810012341,0.10536500951440522,0.02507843455986195,-0.06312533096460023,0.11583973134240495,-0.16117953142478197,-0.036380274821649204,-0.07383738255738452,0.10219247132699974,-0.010372819482596017,0.0370899272527724,0.07217899645417696],[-0.3222637450253269,-0.12723958385293968,0.0159242047277103,0.13907426054950764,0.07865097783462298,0.1800475800495663,-0.030442380043881143,0.013829523800722807,-0.06865267244659849,-0.059844186455402806,-0.11406927428498527,-0.07462532869619204,-0.026162822327516624,-0.08949783306967012,0.003650342816063534,-0.24980860741163843,0.05878122808531704,0.024375571785230497,0.06129423756539341,-0.06366620017402967,-0.06980934573830151,0.13493765242428693,-0.021222719304871338,0.27287354363528266,-0.1931451188419685,-0.03397817196341316,-0.15485666984546048,-0.10806767953723981,-0.10851369368891,-0.06603365678551869,0.10753163383433231,-0.15712593153782403,0.08379155684964856,-0.19792115462045765,-0.05570323497052349,0.18128975918258958,0.06346645808790088,0.03740058043534259,0.0865517056343782,0.07911625285850034,0.08626320932698762,0.19280794621904832,-0.14264267685700416,-0.009716781178607931,0.08753561189189073,0.1029712870683244,0.07665514932387106,0.17946660136881226,-0.06881698945197322,-0.18539832714284746,0.17477578465211563,-0.0001103062310966144,-0.07536787339065264,0.004911958657061656,-0.05937770384389889,0.13821329500367768,0.12227378050404072,0.0428197996407301,0.07429415169455329,0.0044790017920395995,0.1410018489908478,-0.32462691157749046,-0.1604639406539688,-0.005484880293596023],[-0.05679548725467507,-0.13056335187716708,0.08515923091153621,-0.13439133440147163,0.02985686659937343,0.01707250464439256,0.007925287789890137,-0.113897291420232,-0.026533333436718994,0.1685327501376425,0.07465867315246749,0.1322560687438316,-0.01100010618956384,-0.2338265667963051,-0.0640743316346106,-0.020697206844151567,0.17877589513416398,0.15603526464146542,0.05835697000476469,-0.11765312119279538,0.017643581867971634,-0.0359515854625675,-0.03344843151804475,-0.16943729138551372,0.06372220472611002,-0.0040992185046012306,0.11049034030320719,-0.2007698221760431,-0.15480284773847516,0.500854027557947,-0.12088418199599947,0.03950253300250719,0.0601302895558371,-0.13491355940495622,0.2373050864758691,-0.009013616003085492,0.02053266268564514,0.2497745724494456,-0.10865508011733209,-0.0669826397142279,-0.047459832857754604,-0.18854748616871925,0.0378894649502698,0.0649789529004317,0.02518093296413492,0.0900852269782266,0.11890673225256744,0.04652440865068662,-0.033164483837781256,0.16763711858532387,-0.09569414222455831,0.19180445958763548,-0.02650459613552213,0.1050537393866753,0.25089620964552534,-0.3110938796512237,-0.026408994069820845,-0.05548657474431731,0.2345275758433051,-0.05588135477327715,0.3748596578020445,-0.20987360449819253,0.048008279169514924,-0.0530626426612726],[0.06937949304173156,-0.07762845677667007,-0.06195399519488839,-0.2503846872009813,0.014858796509752902,-0.20575541304543196,-0.17989686568954366,0.01193252280782441,-0.01666858900188927,0.14108165245399554,-0.18586664506182893,0.05783044967533534,0.04429880160381496,-0.04153387606110537,-0.11038781914459375,-0.01086417810525417,0.12142480254785547,-0.051339299607001,0.11638492121895624,-0.03761044441767411,0.2369188918922044,0.003681743982095436,-0.024112600167248133,-0.22126423608304702,-0.1960343747686349,0.05237424559146943,-0.031242637698544847,0.03863631353833688,-0.09404279721566457,-0.02066427361775823,-0.08567106953089702,0.04054864787761592,-0.029967141500391085,0.2561295950219905,-0.09451466633694675,0.15368033960427352,-0.14484574752973428,-0.06391829030707048,-0.11559494061320671,0.17302448053944625,0.06002511404814567,0.018842183591349013,0.0322048657937863,-0.14894944831278673,0.19270492128538672,0.19086647090826303,-0.004711436472837481,0.001821493948380262,0.08916562534741802,-0.02407302901264813,-0.02749635776555439,-0.06769189990774206,-0.04751174560491583,-0.06539188778384464,0.10025301530034451,-0.045095031214032515,-0.05884039204660039,-0.0861006791669807,-0.20597171352644944,0.21430744326949558,0.06986103888262078,0.11902303300141909,-0.07278701952197392,0.20016189300199258],[0.019945139241928377,0.19953496725493675,-0.0018369881377483612,-0.00613517302625108,-0.07252013122437606,0.010643647310561168,0.03090394246546,0.2050376291891374,0.21149583454989185,0.012355148948878741,0.167447806085595,-0.37329812317575956,-0.06459963177393417,0.03430049913566347,0.12185552858695983,0.058117380336637776,-0.007699494912198544,-0.06339157610248246,-0.10985626733083384,0.2612543562864941,0.15414956603746693,0.17963700645708527,0.0014568219691770098,-0.073415010057577,0.07619310536950784,-0.003382016113448395,-0.017592815085524037,-0.0034142735133966744,-0.08694254298164653,-0.119698110031948,-0.03329682713626071,-0.1903023036187881,0.08217592532270405,0.11518380458002711,-0.10570430890184795,-0.25101680665290177,0.054062305829293486,0.0327512170164777,0.0028168582033889253,-0.18329779508948313,-0.2634219112912237,0.23510075946863354,-0.029725919500947003,0.06928455180904124,-0.009718230051789262,0.05680410206955356,-0.17558333543573668,-0.06122289821338683,-0.18617343822098995,-0.14933193580051046,-0.09739137885920336,-0.24814865696930052,-0.06335059860719978,-0.09764809919717406,-0.16293914753870065,-0.018246854128657557,-0.0015577626791569577,-0.11496715418692496,0.27636553842666983,0.0986533753756159,0.15407137955033925,-0.04510691816808348,0.12274532069582021,0.10515983288845449],[-0.13990269876274905,-0.09370874095703058,0.4004365813424501,-0.05648509261640197,0.06687552903997769,-0.029477799559534713,0.11420118570259173,-0.1366167993728251,-0.13808753049543787,0.15581366593237786,0.02727052653835551,-0.3403274008387415,0.0032162084015649175,-0.024995186798413126,0.09761778938605552,0.04410017312397223,0.04700433392767214,0.012014171879980702,0.03989895174338363,-0.15832502026188075,-0.1119350852791263,-0.11707384178908911,-0.18422243091298354,0.10827499860525457,0.14801753609675813,0.0843387560498526,-0.0825855540770074,-0.07378021911141346,-0.060421421792330156,0.15286833168029026,0.07233789608518593,0.23885769352853142,-0.1331817337749602,-0.030993492930662392,-0.1731677013103423,-0.19467313030023484,-0.021326579024839552,-0.04611276393168409,-0.07044083036421404,-0.2108105242235469,0.027028409552584162,-0.03899249411225267,0.12566644227656706,0.07561733675664917,-0.18018158004054627,0.0543524592244585,-0.08226087805480055,0.21050584809503453,-0.004064280119349279,-0.06916288899076135,-0.0558427235891261,-0.20616408418471624,0.1750600916379371,0.29111577864411625,-0.23760587622925552,-0.03458642345851475,-0.015165247368173417,-0.08163022233538071,0.16724151189426403,0.17134893896494324,-0.0337005320029271,0.28451249090283165,0.004501415967308757,-0.03322808897156406]],"pos_embed.weight":[[0.03497545244006297,-0.09325411237612038,0.18164161890415048,0.07707953112741031,-0.0443682480327415,-0.023189838181104296,-0.11347151753911429,0.03281366843507648,-0.1617047442482126,0.0003962430799268845,-0.06465067682251933,0.07088198064884774,0.13032103594893288,0.09836726151200956,-0.015321322056495373,-0.08870297298153458,-0.03745776502259567,-0.0020791038471002603,0.060989839958664374,-0.07102184130476787,-0.12090990747022834,0.02167833424457913,0.16985027593679702,0.23404057533582137,0.09914997274983423,-0.12378298757813604,0.1760741338490694,-0.10570752551445983,-0.09632149290079373,0.05345133878939993,-0.1725406596540839,0.10021002323212602,-0.006703652550109905,0.049890358699965,-0.1029286438108197,0.105803419778261,0.06414045197439995,-0.0454160498990609,0.11816015992351579,-0.3325357593933287,0.04528893895810517,-0.013442208333872076,-0.09937485946162923,0.022151179091880448,0.062475096762230044,-0.09212029792038297,-0.014940813127743629,-0.0051774886401819474,0.04911144798130761,0.15334682713143646,-0.057993737805848544,0.1646147341724608,-0.1630277438007007,0.03759713714732083,-0.2149510884501757,0.008972127078538403,0.09028178452853503,0.2528711566841835,0.006169587297969156,-0.09353935461020041,0.12831199616780997,0.0051446546027859716,0.012292232516651206,0.11462722543874258],[0.13659376774768237,-0.21651613265068012,0.006443748614051921,-0.002049463964099016,-0.1336962478777915,-0.20298746288466538,-0.008355773886196731,-0.05796652130462697,-0.0905872615431241,-0.01717103782333228,-0.043878022975140596,0.0021994281583087205,0.19709887770475737,-0.003766124820288433,0.23504628392426444,0.1555123336686577,0.12094787134709652,-0.0910630396420774,-0.03667939223114319,-0.1149655828492176,0.05198436407886227,-0.00838264649480118,0.055212267837853296,0.03781555956767699,0.02098087095659289,-0.04461361752620401,-0.12162395050533688,-0.05521065167586571,0.0895770253661234,-0.020485309669546592,-0.007503104280042832,0.1084763749680298,0.060947041141425996,-0.18435098008367953,-0.01005161876166629,-0.10891182439877464,-0.006772894780420569,0.048783893342324906,0.06367685483152552,0.20797307453459837,-0.06260211067721443,-0.0368679454632499,0.07175349907677452,0.12024825674490279,-0.12892802138667972,0.08583964335785867,0.08318486936758333,-0.018794581820854608,-0.03513773446305693,0.09158098064062394,0.05339625690661023,0.05008787407928815,-0.09147413545964607,-0.21528790597285588,-0.011750400758514273,-0.03388736042241802,0.05726852540169096,-0.09556412152089637,0.07933712514295244,0.0512011349870284,-0.09251615415144596,0.11812861802223819,-0.04286456138700271,-0.08705864650943244],[0.0313583908642874,-0.001839095103998172,-0.11313167314728874,0.0775174056798535,-0.0011443389847434829,-0.09477666044363696,-0.21924573112735418,0.05330217236996946,0.012377975298393977,0.014922848917599069,0.17210305948722224,-0.3113268540279551,0.15865091441809917,0.17047487014691934,-0.12250948708166819,0.1268343408606447,-0.10149501375652313,-0.13031322613979546,-0.012674443391661776,0.22845640969016603,0.045208427145274954,0.006231425925703251,0.11070978602503828,-0.07781221254627116,0.1871893207347673,0.19632757445377513,0.05365129735942197,-0.0985334242464594,0.13400193442309458,0.036836504159697796,0.0804580355670618,0.14207087608596566,0.054554346011035544,-0.11281719163752212,0.18629015680816252,0.03490911042099801,0.040519682215742855,0.07688687904831079,0.038966623752766494,0.09349354103616343,0.024682334484327308,-0.022198682763820955,-0.06877288553041785,-0.06391566707963338,-0.03602096265396363,0.1236798746457474,-0.04211162592927379,-0.013884636278702461,-0.012632767419801018,0.06673345576959804,0.08112262917034394,0.24680571290966816,-0.174132916644925,-0.02849370452728548,0.07162784123115179,-0.21064024638559822,0.21766755902993373,-0.014513549785214104,-0.09924974186781169,0.12134433107421529,-0.27475095102552616,0.026529970504261872,-0.12393736143442237,-0.00186381981170087],[0.04675722775794849,0.09906651462070092,0.05141597156114347,0.2607986501960915,0.007747144953728824,-0.04274095309373759,0.15326479694125414,-0.008162965813885231,0.05227679758886032,-0.49215932411855834,0.05665539492279305,-0.009345971236793899,-0.05436259912581706,-0.08204327049387944,0.11289392142298607,-0.25520853387911063,0.39364553288241605,0.14426509270557436,0.046225311934392395,0.23754676725819837,0.034331940916613596,-0.11187105950527267,0.12838508377365,-0.2045046609807646,0.075008178980629,0.14976262065884943,0.06687073284523934,-0.18140064808026193,0.025639770999993868,-0.01538595745816116,-0.09277638472286671,-0.28899734303027313,-0.1481873918262873,-0.06259173119166683,0.14069418482430526,0.34414436379833613,0.10709869356865498,-0.09853236661392795,-0.05262969002562781,0.13527337467097897,0.07672382284377605,0.04886464079687431,0.029761540691693043,0.14991150096487804,0.2794931072517504,0.0012003001528927161,0.019847472094375283,0.06305241199470438,-0.05776965083772012,-0.2740785020089915,0.061716333725274936,-0.09169738501699203,0.16457538913825126,0.02280347251663797,0.1871780279453339,-0.10719486047440652,0.14139885129955193,-0.20395387849641874,0.11720822894985494,-0.029655738084948837,0.11717895282138825,-0.044764202661870756,0.08530811629015433,0.06282927916895566],[0.04789437837106878,0.05533487313155399,0.2100544869365715,-0.07016231069660273,0.1754265203901075,-0.044264798012977176,0.1508686747525506,0.2924650185600651,-0.09979023047497802,-0.2695041011255492,0.02046572090384283,-0.08646119188997763,-0.06581008805843433,-0.04115794105710274,-0.06672356215191014,0.1788754674674502,0.14067399053886986,0.1448878210553635,0.289016884810535,-0.0963464365093689,-0.31209768208438843,0.2529436140693853,0.03130911473409484,-0.006960433236770185,-0.22536434551437612,-0.1689619476720806,0.08648787442299279,-0.017892821479450725,-0.2691087971070264,-0.1175600516496582,0.13114145615924888,0.15983393891918143,0.026769643350300854,0.35424962215465516,0.12834060675171252,0.22628313877675105,0.16666170599874058,0.10390478848223356,-0.16740021435190558,-0.20004494011461194,-0.09266870648130561,0.032294641185660646,0.00013512076566776744,0.04683805585054195,-0.002499737265879385,0.05972017555575151,0.12344359933618858,0.0009937115709488591,-0.035998126858061495,-0.32766171948646655,0.10902709661256785,-0.0966671094906839,-0.11364283129673383,0.10846092257312469,0.11480526991659225,0.08499572391182726,0.11912592766586211,-0.13675760677211035,-0.02864968759840202,-0.06875117391344063,0.21623073234580195,0.10797543204864751,-0.030492692798103967,0.10518192879741484],[0.046838071269520526,-0.014679627575438897,0.05836014943899038,0.10632313466879728,-0.017768975333159204,-0.15631115876619794,0.044322826111944394,-0.033007499927136766,-0.1431688999487709,-0.09602786836502464,-0.031182271361596257,0.0033956048859728172,0.07021104413708583,-0.026559656652595885,0.0562383828734894,-0.046671475053213354,0.06820747669036197,0.05038399785068185,0.07114634535902183,0.17964323960239442,-0.035354451673063426,-0.19915752694345165,-0.009734076279237348,0.10117892808364318,0.0031173879911032764,0.03976440162701169,-0.21533224246758265,-0.10426788569013107,0.06733965238916496,0.09722316635648606,-0.09380333292397987,0.04587636654945072,-0.08887582381946811,-0.1440556002921924,0.008876088090513691,0.027129050031761987,0.04954860993092224,0.09125562619084136,0.20963935005506118,0.11859371909875863,-0.04510608553307604,0.11746110197508872,-0.18343969135267507,0.012586553516393536,0.1316848055171039,0.0848952426900622,0.10353010275766907,0.2387549220420926,-0.09259280016315266,0.09934714602668972,-0.011667204177930641,0.13933333573537024,0.01470243337985052,0.09776017222515031,0.19334618851496968,0.07886443682542998,-0.02622697998149457,-0.045959624847963045,-0.08675453716626837,0.12976427947487315,0.16403949474141957,-0.030539186485213688,-0.22617098872661762,-0.07918926900053812],[0.05424852876347037,-0.11834781484160752,-0.24481191619478807,-0.05555335293815408,-0.2550236095853248,0.04068027469866948,-0.05013431027871423,0.0075334003746449375,0.1620820820281503,-0.1134919705077562,-0.2684878884760971,-0.0035453006260351776,0.058620367935050204,-0.17869292792973376,-0.04605729536556478,-0.043399651654123794,0.0034774739381703314,-0.0769369220963304,0.33293287438807695,-0.03280583188129661,0.02331550811099972,-0.06059396774610774,-0.3303882884333805,0.17261296903750883,-0.39459996431895783,0.16960231607473,-0.16517840828652974,-0.16986520484084444,-0.013612418191739471,0.2744878751535878,0.03995035217346487,-0.02390731398879328,-0.09596657583617754,0.08134039041681086,-0.04626125966282826,0.08922548122168217,-0.2454346139847986,0.06605524271755699,0.03974895098229697,-0.1700279782804687,-0.1290793436580969,-0.018422024873638542,-0.060813655456536525,0.03625327385906875,-0.17933482176337426,-0.11057052592348646,0.26425074039149354,-0.1052970983930145,-0.053263394281776934,-0.02213450376305279,-0.03481110798618741,0.1508624273544599,-0.07152149499242835,0.10686616089119869,-0.10693154429690004,0.09663481146954014,-0.026759745881485893,-0.021845235788062533,-0.011077372622756395,0.06878093440437213,-0.1491828295561536,-0.12130633243285316,0.2546532378154061,0.06331146071190755],[-0.04511020267504104,0.08026109650642493,-0.007517165767052653,-0.2814256413837785,0.02016624920038283,-0.015234309102360307,0.043641817974560904,-0.09684092131518275,-0.027556413442972497,0.14276566712385377,-0.018855567949412715,-0.05362041325727982,0.04563168175322863,-0.04927081784623202,0.13348251165955177,-0.02181316763911818,0.04542136560218961,-0.08801585426430536,-0.15597471053719797,0.08991350542535734,0.03274918219813776,0.07967977466629508,0.0920851856786431,-0.18365765561584635,0.014973177230389694,-0.25072729951700923,0.06492004977516187,-0.13570360843623752,0.05841331757726524,0.09074431412423721,-0.06743323314257822,-0.0028808783117277212,0.1527895209269607,-0.2067372124468211,0.08045418219818237,0.014797078682244324,0.11851816931277596,-0.20648639480176306,0.00044206414363910635,0.13802455337636726,0.16989553715175879,-0.09615677868813867,-0.034942023310791395,0.23017654979590693,-0.17747666070220008,-0.005718494544083725,0.02217812292814337,0.021866194253168478,-0.11678078021275232,0.12055878728251516,0.11106666333387995,0.22701735967064032,-0.09912098443540178,-0.060211755610380335,0.13707419198377094,0.2269160811858531,-0.0012467695954392851,-0.19100328481322426,-0.027010090274923144,0.12058925948236236,0.08476269142169467,0.13911824648130916,0.24061579196799146,-0.053914801618006526],[-0.11305483658581546,-0.15033847913799617,-0.015347778876856578,0.127384763170298,0.21589773200225187,0.027346387058732498,0.0018415217563430108,-0.01661069975245755,0.15329844293774672,-0.0952508422460364,-0.013116095100132816,-0.009673942807227755,-0.0033950906266833492,0.2260272232374591,-0.11149647940184614,0.30690907767508524,-0.08191296705725232,-0.10256107410587756,-0.0826087332501397,0.08109110388027493,-0.0017601657909956426,0.14015262866911743,-0.102958128838585,-0.2091520704903245,-0.04636679189326532,0.03497172251111669,-0.18371931393010243,-0.013314007658291181,0.0669476718991563,-0.10083220968707633,-0.10299757205745441,-0.1368968449315614,-0.017931646486099496,0.05704081153053478,0.34344445633572,0.14565153059747643,-0.1577132568048564,-0.19209968304964006,-0.013784922166587027,0.19649843796616903,0.08214219927403811,-0.06591532011695335,0.12520499235253194,0.17216899358064686,0.18271755228422773,-0.1333018012244451,0.054677444536041446,-0.16014700805939755,-0.10068285037465023,-0.15982545488186695,-0.03274407102826217,-0.1795013088673747,0.09686558757052795,-0.0015404976977271842,-0.10805775528058618,0.060679744222844126,0.19134329219557272,0.04317315856922624,-0.07295752980978189,-0.035481799725960154,-0.013014957777127025,-0.08769179730676968,-0.21396612517235544,-0.047312282295315346],[0.15534010875380186,-0.10340502626929317,-0.24129193395890858,-0.011097735734738079,0.13785089851798982,-0.21530356800393605,0.023754620256470776,0.05143070883288556,0.06710704637535755,0.0696369031973149,0.07601727297844443,-0.19799258995547575,0.07700732589496653,0.17218918894014973,-0.027706742063289883,0.04642746869826519,-0.1268020033720823,0.16287248362582402,-0.0772976003683107,0.2061854653062456,-0.04749281326010191,0.08472067118711134,-0.06667730326865898,0.23471910652784947,-0.24651681751305218,0.046164809691994595,-0.2599308682403949,-0.15059704074740035,0.23649918394256642,0.1135026440563656,-0.25131762178078887,-0.0007538124776870465,-0.07745861508528039,0.07122455457884677,0.2313009115642718,0.08173675278901363,0.05433157104637005,0.06350515012405211,-0.13656374248527828,0.0876418568331914,0.11513698485214804,-0.07654452688967274,-0.0803104622241232,0.1812475571114451,0.026140396265745162,-0.1421647457697062,-0.05301063523164787,-0.05718978681336478,-0.008064209089934165,-0.00908920723060954,-0.03115954868566267,0.2092420401014766,0.10403509720527192,0.1853737491985562,-0.21183155962167674,0.013892518561348202,0.14684709665729478,0.09067650182030856,-0.08491848052906238,-0.0944954913443598,0.12000235269426039,-0.02656428179000922,0.08103771861953708,0.019576815382642422],[-0.014704872028971337,0.01505996014954655,-0.10370026764054734,0.21264787571374746,0.06852248459203762,0.17491720575794323,-0.06614961455149074,-0.0675669678548311,-0.039905475329305995,-0.1076988744203291,0.08476915928346983,0.08906333835222328,-0.06414174508334373,-0.03995804077791998,0.04707527968368792,-0.09407367528716037,-0.05116602070978474,0.1950609405834661,-0.0933220385058446,-0.06460278773831162,0.3130912666380662,-0.2657964994618821,-0.1480468220347836,0.22466279734145286,-0.05119349351985676,0.062478743352228056,0.2649571427206,-0.08962961302603395,-0.07393831096722123,0.0513482999390878,-0.009477871598300975,-0.0656159319816193,-0.016665466499349756,-0.16601596380399292,0.05821546775647057,0.10431178424623838,-0.020181410294041566,-0.027976592499969928,0.0685979179638664,-0.06727957916945897,-0.03851632930974671,-0.008541711390284914,0.18400144832432513,-0.006152554166801369,-0.014215960377093521,-0.02051847150230624,-0.04797431311896267,-0.12061484287670736,-0.11488916305562767,0.10754389808875266,-0.07113812673131968,0.011543929698558148,-0.059533672306373034,-0.16598925295075204,-0.05809400974483264,0.17461746137698775,-0.05182271257331357,-0.08454666797380798,-0.053484681389278206,-0.041829464526624394,0.028563678296219464,-0.05145612865454772,-0.012199677163052858,-0.06136461151958415],[0.04468762324738,0.03890736015233483,0.026460532179350602,0.07914093848797857,-0.012406180892108482,0.15161834423374865,0.058274047778661596,0.1859794253917351,-0.009963924424659877,0.034015703277961,-0.0852726271760023,0.0019534268225704604,0.10225347717949729,-0.04568716221360078,0.18652196976521687,0.0032091203366074418,0.19789705664359586,-0.13110039297498338,-0.03460775158173447,-0.062045011236157105,0.12632895299936198,0.08026287249335984,-0.009551779376690292,-0.05697473180966041,-0.0033546620758924802,0.09057328626712514,0.10446759598169614,-0.007452163369135872,-0.05588474524993013,0.012758415774465666,0.01615894910931475,0.03156737064616871,-0.05668684503035289,0.21755902157827695,-0.07859913919029235,0.18905888053427478,0.1742079536554931,0.11838915541271561,0.234257934984402,0.06947963451449214,-0.039585748999521865,-0.0653839526384708,-0.08388460047372398,0.10466815754393007,-0.18507532036416346,-0.1777944497448389,0.19155956837191734,0.12661016194953933,0.05179136131793195,0.11541870486139652,0.09678663140965746,-0.023358698519203053,-0.18357962697795557,0.16038624106066718,0.05577444573946795,-0.17202711829525255,0.01778703408209216,-0.05859019369668116,-0.014420079009444567,-0.04099634023395977,0.06890107624112586,-0.02605188052184838,-0.14436920179426,0.08412618450717425],[0.06072507657556043,-0.17822249803554358,0.051141241937377666,0.11095329260581939,-0.01906231825113333,0.023459850271664934,-0.09554122986940926,-0.21875899777523344,0.06522883676048437,-0.010985739166467353,0.0537003313013517,-0.029347377997433133,-0.032544554827798194,0.020286896442464668,-0.007915145323166785,0.10828489406230224,-0.052986170205432254,-0.18054967461953558,0.018014125710462094,-0.16290041021756235,-0.3167468263680582,-0.1370974801923398,-0.0548235629586835,-0.09949309493428894,-0.19208362907396362,-0.028080668735717677,0.15205823218382294,0.10367720596287773,0.0010294947682043245,0.1151400015557479,-0.055049167089878795,-0.11024961219905971,0.08480748660478674,-0.1354472456475737,0.04175142416937835,-0.003208943016156206,-0.0453434200289768,-0.05725746358190481,0.14215236469641226,-0.1986705306838542,0.03362467579128393,-0.036071138898404506,-0.09267764615907348,0.004867952036673591,0.03947541404708579,-0.00749305862227549,0.030629723688972307,0.17685507576366355,-0.07511209829302193,0.05224371111220981,-0.21732469808929186,0.05711926663428242,-0.2333675523540468,0.07892024152244692,-0.059396847453198245,0.020516326006312,-0.18193555341380868,0.003002889863115759,0.10300162762439782,0.07748095105933675,-0.0021562599066948557,-0.0008090747900933812,0.1431796999794013,0.09199878996375867],[-0.07809525294925061,-0.07247873180708737,-0.0849832820773218,-0.004456144735941854,-0.14508357064052957,-0.2697964775717869,-0.027288404462790457,0.03161024894743688,0.023303157870355227,0.1356237820165096,-0.16156295075045354,-0.06414449541410737,-0.18030324385005722,0.030728712758567086,-0.013072865619490757,-0.06010301013184608,0.00518024966265334,-0.0883609489955422,-0.12775360684740986,0.19756348342107646,0.10129317872632701,-0.02302044796910855,-0.1926803691597024,-0.026786763117617726,0.07178139633678148,0.021235529032093744,0.1261428910884406,0.15335978404215564,-0.010568535908663046,-0.058510518732104076,-0.06179915242593985,-0.05168427424812201,0.11306870448692323,-0.053018556079133354,-0.21009731585839025,0.05812078404954888,-0.012366519003778956,-0.058398624870965435,-0.24543847382106943,0.1462565637791264,0.08704382260837389,-0.142110268897907,0.01897169915752611,-0.13546646945373333,-0.17007537867978356,-0.2623380581843864,0.09741677697092918,0.1099895300006658,-0.038729996226061617,-0.007480071768474678,0.21936685223652944,-0.09442445534589997,-0.14809410638877246,0.015943020148171148,0.06868742505735884,-0.03711059877189567,-0.1782606679265381,-0.09590154089563518,0.08562571586296006,0.0893440976513497,-0.20883621708600808,-0.15282579564119486,-0.1231438229798402,-0.003180852232889311],[0.27585228671735634,-0.03572770660586954,0.007763130359691998,-0.09964315419114685,0.3231643650795723,-0.0752403196490214,-0.06396854120856928,0.019527295456613306,-0.16554554163858978,0.10109555788617297,-0.0010412457814764477,-0.1053400430684924,-0.0744760241965937,-0.23675447921323564,-0.06944435546760994,-0.2843279756720554,-0.05630796517000214,-0.061946736218681735,-0.0736225475337717,-0.07285642749101173,-0.10524737951689143,0.15425398501596121,0.17990393451705222,-0.021195043877535735,0.14295909176553365,-0.03831239735055759,-0.03780407595046862,-0.10359746939938466,0.08718341636757873,0.07725794664382227,-0.16130898622202375,0.019997262547144377,-0.06462805115090187,-0.11274017298575803,-0.0032121387357725148,-0.2398549269379611,-0.05424246315006626,0.2361895015389287,0.05445916601017286,-0.14194709150782153,0.06917135522803103,0.011076943465939156,-0.04010139332026507,-0.07322091667827427,8.608327277278215e-05,-0.07404967403337609,-0.021649756779992816,0.09243774582435182,0.1019642883408102,-0.16205793542930338,-0.05854874156123239,0.20086375370590615,0.2245680222236862,0.04622096332537779,0.20119676067724326,0.1510232811435141,-0.01649857418131124,-0.24953685294511602,-0.007646373963591161,-0.16027334113882008,0.017046838166511643,0.21827455116308872,0.031088110290253206,-0.09814576680705935],[-0.14616673216765275,-0.24536913571606248,-0.23825297626065775,0.20334582300784934,0.10699473125277165,-0.016379795318869843,-0.01912098653141063,-0.006496229558290458,-0.001466378740173522,0.17401458789542054,0.04876543719212337,-0.2478048294639278,0.13258304562768464,-0.24122696521061077,-0.05077420235157147,-0.17325772539889564,0.005044849514716903,-0.15714240258903794,-0.17222361475222653,-0.1308163553724445,0.10172648510178757,-0.023215643367114232,0.0833986614467805,0.17003741599052263,0.029792989677797286,0.0712628497929824,-0.12118577011727388,-0.010570129145277342,-0.14360553165120807,0.06922750351356155,0.11327753205234171,0.1207294143332285,-0.0035289669923933543,0.11193181341237392,-0.01816646253815486,-0.0701845965710951,0.06275689539247864,0.09074483065043851,0.2754577430835561,0.09114138877616593,-0.13761706720591174,-0.12226431238405047,-0.16271348998449597,0.009671696775325332,-0.1374606032933851,0.17029103015892247,-0.03643846058992985,0.08021928874754326,0.018961751499260347,0.042977570501840076,-0.12956367003275718,-0.004186073856670446,-0.053420975113657745,-0.012660619220326356,0.015586111225649697,0.0851841828493293,-0.058194653651044335,0.10295064267697646,0.04115421197088865,0.20484571407513205,-0.4140744684114399,-0.08033495139886525,0.1573220776506164,-0.3151559055258232],[0.1855795009797663,0.010275860212074989,-0.2552787060621404,0.09069884572105034,-0.1315716963859563,-0.1141012516562659,0.1830807666365059,-0.04836226975400671,-0.11991930510558757,0.25099514006161616,0.11613437053657441,-0.04182110935152122,-0.0986852874742418,-0.02549498374263552,0.19716152308608245,-0.12281328803681332,-0.1592347740531728,0.15931875396218112,-0.03526527023378222,0.012557062812187655,0.06560981538304911,-0.04875924050571368,-0.3030101858016708,-0.026521104749482036,0.1551307683789748,0.27155599567750155,-0.014733675999977757,-0.0035837669086326725,0.1706832093569066,0.07446274649285323,0.036927064505496494,-0.24739145827344194,-0.05204379651952347,0.026844090920968657,-0.18925529474263325,-0.04575601523959816,0.21356432671878708,-0.032143745979613884,-0.17929508553853393,-0.23588767644180653,-0.0014109452422262248,-0.07221542405093997,-0.10856461347019794,0.02843869614522303,0.03560064440064018,0.021822533442828092,0.043811272543982024,-0.15362436346094677,-0.08006273789756792,-0.04077011320751963,-0.00672789565261579,0.12369668109698335,-0.09102405412658207,-0.09719632504685578,0.1859230241286182,0.01980625793858201,-0.17475513024691777,-0.038871492465516876,-0.15452365847616115,-0.1421205061788728,-0.1667828078767966,-0.09949702876048427,0.2574646193469064,0.12631008592926288],[0.1727088268116002,0.13595137869742788,-0.016860115640313086,0.05042977389992213,0.012852488164336104,-0.13350929065195502,-0.14530395328717752,0.1125437747134202,-0.1522992877782031,0.0251158696131769,0.08151278649577223,0.09409205995971673,0.046158112031294635,-0.15009091890002804,0.06754965802673928,-0.01728307503359068,-0.12219390351020805,-0.24859422612677184,0.05640096238375805,-0.1940554593535482,-0.21341603782043575,0.21848957324805365,-0.15017146541472126,-0.052497241618524634,0.008974228382369191,0.00877737590776541,-0.12741347288855281,-0.08854068610735852,0.10070668495236107,-0.034848055185840554,-0.0028933649615377165,-0.27032532924782765,-0.07171212666644497,0.10717653485514662,-0.0911503368513795,-0.11894126711143466,0.046862934400193255,0.07483226643165011,0.04171753100755454,-0.0707957174496794,0.09370317775520655,0.20362116223254023,0.14624567387475004,-0.19541662387806485,0.3661868710426833,-0.16570030294910104,-0.15323945676908143,0.03804933740075446,-0.011795024925638076,0.045168793718662364,0.16395526364107504,0.11631405802558731,-0.11168476477639352,0.00900841137715716,0.1264010252178148,0.13161398903142668,0.14055673638810076,0.10218125595581318,0.08848776457899953,-0.06418943935659367,-0.16477221657604016,0.05279932596961201,-0.05675355554236931,0.1555642632944002],[-0.10906998587878614,-0.04764860989519441,-0.05351236642930894,0.1208717663457022,0.09393063056269704,0.002852574167725198,0.03650230375440548,0.20184536579404758,-0.22033285505763534,0.09350458264931985,0.13499696647637568,0.15178427810447964,0.10031258538675134,-0.09673921087576279,-0.06738002133076475,0.08277234497351597,-0.07366225474786953,-0.024792746059201624,-0.18815617071639246,-0.14905568599276947,0.04333229533744368,-0.053250240577324595,-0.09484365179087076,-0.023475811034272515,0.03767386502870958,-0.032656114895739205,0.02157230645711325,0.01106001222017968,-0.03143778975981591,-0.0014188901989571488,-0.11090837464266985,-0.06269931537543111,-0.22963398885883984,-0.14580366367222072,-0.1483814048916312,-0.04986044919769479,0.1412903809570798,-0.0011290913037814247,0.018808243822901898,-0.11780549275190748,0.03588894562771889,0.2119720356919235,-0.010905135008349156,-0.10309174690539366,-0.14573433920982337,0.032862935188829503,-0.1176634788862145,0.08917344840388204,-0.12653962843182706,-0.2070146741654168,0.059994088556116335,-0.1617128837062523,0.07576682350136632,0.12967849196120393,-0.0741016166387861,0.026038094824635108,0.17401975967555747,-0.0581037661287321,0.1998067421031858,-0.04106967154644839,-0.11721367601739711,0.012193022731360553,0.028140870373013604,0.1417955057458165],[0.1108018246509065,0.04619047220939678,0.08202297057340432,0.022609892743541724,0.09901322624774629,-0.06483837276735295,-0.13515817730780413,0.026069633368313114,0.3361445906994296,0.10096003330273029,-0.0875019925596454,0.1742388828285105,-0.23306095976339122,-0.03148724296992594,0.049677792506718894,-0.0841546344536759,-0.07427332795117786,-0.021249874902228943,-0.06781270992448281,-0.09801844854745033,-0.13552764437010678,-0.19500712579781113,-0.12080144591501012,-0.012693851171932754,0.1257964017212104,-0.08292453317290403,-0.15146167766872598,0.20068083698954337,-0.1429071746133583,0.011824035270638302,-0.11704736008804387,-0.08986538734874978,0.04832063107491469,0.05764467801312967,0.15887647751574,0.08359519430132148,0.01925401569588832,0.07807152337667302,-0.1287803022410985,0.15131495249395824,0.06658323396077405,0.0612240206342302,0.0748134704949746,-0.18496396511916371,-0.1417414079985643,0.016535447383020492,0.01811710221228254,0.07187984569834238,0.01332215957968829,-0.023064059408210453,0.15722312789167292,0.04369628987719187,0.09333252063704309,0.14940091282956483,0.15799507967278842,0.039711159804141534,0.09072227024225338,0.03325049535662462,0.13406541490921647,0.28507802472898663,-0.13061180563184066,-0.09409181017036496,0.19796053681892078,0.023266272206908762],[-0.0537378850912529,-0.08676573661105849,0.11717869103371135,0.07004519859266523,0.25096837851778964,-0.011399495072330278,0.11269733059084545,0.20673622842435163,-0.17923954149564375,-0.13167386318375812,0.03392790406836459,-0.07157077860265228,-0.05268535658270172,-0.08261525735573735,-0.018490293157974857,-0.11300311560670098,-0.15996796684875664,0.048147170182699976,0.015602981595794202,0.12235882491133959,0.0652436248367328,0.052994155525331973,0.09411136905310935,-0.11435718070426254,-0.062306655574947196,0.0343579509479404,0.11685960708066952,0.08081936093448551,-0.026497212095326794,-0.023286024673283574,0.03123275745809937,-0.14454803900366664,0.10607017964388488,0.09653642679012799,0.11613022675327479,0.12417930100010904,0.12473587741812674,-0.23550714266103046,0.028159372283202592,-0.17873296069275507,-0.11908715029806448,-0.01660081587646731,0.14788095036388377,0.041394240181696525,0.028929364426680152,0.2232028561792557,0.03012781045651288,-0.11871528732114055,-0.1742345650691207,-0.10911632229008196,0.013987232854693589,-0.1925809380865151,0.05478013184484754,0.03861176412910292,-0.09000209468733696,0.013016251526836635,0.06456054736110049,-0.07899235972821789,0.09160046144429629,-0.08958951923172083,0.07343964450372553,0.18220484749336754,0.04025627043985857,-0.15918359597786824],[0.011089010593052884,0.010132154011952332,-0.1076514750124562,-0.1574366787063643,-0.047703306528156623,0.10854442905693364,0.10223574842079262,0.14998606379865428,-0.005606289281992204,0.24557691289404,-0.10576901178344245,0.05510173360833515,-0.03020033789245991,0.18642550221978138,0.004031520266789642,-0.12901055178173768,0.030230396979989048,-0.140249709183369,-0.10903098114973854,0.11579530189474735,-0.0025389793809318206,0.10694895442718395,-0.10920608589429218,0.16209824882212365,-0.021915187152125985,-0.24467103514803615,-0.11196380107716765,-0.174681905008263,-0.1829769210651234,0.06381186345118275,0.045707281410617126,0.07385131925879443,-0.09216057015350106,0.06646358942410524,-0.18350927040346715,-0.06036117460574551,-0.019844878553042358,-0.07128949367559959,0.012557509975204323,-0.0028425594579131936,0.05888967467472813,0.0379400094966028,0.11941018359160878,-0.060030319050358924,0.08143948128856797,0.034684755026541204,0.030386166170839477,0.016714817078405827,-0.2695598979383896,0.23968542322878042,-0.11441456056049963,-0.09955590777604895,-0.040287321523473335,-0.16375036595306797,0.21823550602451885,-0.07746257728047629,-0.08547691457857819,-0.10370975977540417,0.05462989949065351,0.17448009523428096,0.03409378422780786,-0.09677375044227125,0.16534758740562336,0.035445539082018],[-0.09030227384536682,-0.009002075451745696,0.01641731097351622,0.029634493900734624,0.0002021126366520103,0.0029895962337856837,0.23285084442093223,0.35421355731018156,0.021626822702247497,-0.11465155050695824,-0.13127882236862684,0.10164134634818225,-0.2030079699635366,-0.02272568876947924,0.049368049019696145,0.022709043303294527,-0.05058217824697135,0.22972133029119157,0.09953176990340426,-0.058855349946420124,0.09790732316311601,-0.022993596578896974,-0.06453235812707996,-0.050947811941716534,0.14781508323783468,-0.06988139354715361,-0.008913157648106379,0.12750560172720896,0.03801379361938858,0.030050996789960264,-0.08316367297374082,0.29135657469285936,0.10228698705930062,-0.29606874760942997,0.16302302247538422,-0.16075862643270555,-0.1715044377511366,-0.08724188045330594,0.15723211263909395,-0.034052343696905386,0.02632766197175173,-0.20875095394988155,0.1344372896652241,-0.03340450779125945,-0.16116120096396588,0.04060244474473995,0.061234009232789974,0.01062786204797193,0.16142784839415036,0.07295373411359979,0.18777752257052968,-0.006848431967680338,0.013694570496648406,0.10802233512003014,0.1448311367630932,-0.041637882666986877,0.23572974359132548,0.01441929008520767,0.0006046698443137138,0.05523006597203258,-0.10696429118592364,-0.2057504034859522,0.2569705886396173,0.13303238130666833],[-0.11549390532573023,0.017137128043042998,0.07794076200991217,-0.060995158093808344,0.17914036729592062,-0.0618140853864263,0.12404977034171777,-0.07880371274568274,0.06339659239723433,0.1937325625716944,0.05930353007091694,-0.061010210825741575,0.027708320001385595,0.09060698698550526,-0.05350660949268891,-0.04936563249063063,0.22025103713755934,0.17461980247670186,-0.08290774981877166,-0.1647890028142586,-0.16042772057653906,-0.1393481584124096,-0.035494555453844626,-0.00946468824876904,-0.1729696304130067,0.019324778465267096,-0.3629011715134428,0.017478778450044422,0.20097802767549972,-0.15188868599473201,-0.3599598176901321,0.020818649656645316,0.08758428417944114,-0.05105212618097814,0.02859168733785522,0.16138389641164633,0.2111710438647265,0.07475197225093909,-0.1545000765112023,0.021176988523975062,-0.1250359015023881,-0.0019447421973738425,-0.03017414051371415,-0.07136933349380782,0.19139469223562205,-0.0284586953523943,-0.18511927329586875,0.04744304204752367,0.0857635131309896,0.0063811450464623725,-0.09685765170421722,-0.05404976552361792,-0.07360181971716583,-0.06308464470504199,-0.0877229716046681,-0.027630037958360977,-0.1694752085657489,0.030846744702510507,-0.0977950140077838,0.10963669579465045,0.04765640035562928,0.18822151286814562,-0.170535434966452,0.17640063801218261],[-0.01457125056061959,0.07736310044930683,0.11121910741009107,0.12014818757715574,0.0076987440651023675,0.05682185227807119,-0.011460727545414705,0.09095489407272062,-0.11147184439338866,0.050568802154201384,0.19242461580579198,0.25080658077247237,0.13351131294436747,0.18266947961168392,0.06545093416837798,0.1317266064413256,0.24312993325703883,-0.006781732730204109,-0.19846802262346272,-0.02128898305627137,0.023247559091509672,-0.10299111136707327,-0.14973208916660616,-0.06162293451213508,-0.15375102177378228,0.11408284333620161,0.21308462293532854,0.08442251472643696,-0.17432369540287,0.02588430914712434,-0.1072853896458338,0.034967365863817455,-0.10289257549667137,0.12285613733507368,0.08779052037182473,-0.0400749931488355,0.06305839387634792,0.00789985306804884,0.21592862040618427,-0.23769644655170727,0.05161161091578248,0.15537582114325996,-0.04584881490285553,-0.0623862513229105,0.022162595278393336,-0.11496687676550668,-0.0670730585661833,-0.12802354713527708,-0.022191007138116742,-0.2614969530275877,-0.07534680261705798,0.06980718642928488,-0.04731768185822625,-0.05148714254514467,0.1123707450163306,0.19722432372235807,-0.09215360478534992,0.15061817137537906,-0.21881129398396645,-0.10572817187733077,0.06697442009921735,0.032209390288260385,0.014888691162614837,0.10810709757413879],[-0.025339982650687574,0.09531306575134679,-0.061122537620314166,-0.0784360943313001,-0.23436295574755958,0.0845449179530294,-0.10847723548188723,0.1259413941274799,0.1262107105486607,-0.027773768817199354,0.010906435893280041,0.02472706858442451,-0.02563034496985643,-0.18232481562383976,0.18071807053074296,-0.07097753366438095,0.06618372280098984,0.03641987455507951,0.03620753195405508,0.027367007932895458,0.11401036958147409,-0.1088412706336448,0.12400903319469221,0.02073279146315284,0.004903572191561282,-0.051886999176345795,-0.005675752105800955,0.07239486772262209,-0.1464938122848111,-0.21507237128197487,-0.03434645693325189,0.08776158125668666,-0.037380506879335494,0.1713979185804776,0.1620031717752137,0.17531394545892404,0.18153630033420193,0.03294382171004693,0.07086823804920751,-0.08526192186400039,-0.33568821036485946,0.0506739447181532,-0.09646710470659803,-0.025146314518403014,-0.3106760563699478,0.11219231471843004,-0.025218648949060934,-0.07384363360463812,-0.14436531043745293,-0.10157578135223258,-0.1058624575056931,-0.12137981945361896,-0.17662923491439514,-0.02622577041842297,-0.042267373387567996,0.10742249086768098,-0.2189378584731637,-0.05572731031744704,-0.11141889649787313,0.042614244811251825,-0.006547834893810931,0.10612790149922907,0.22977257163482898,0.0001333208420223372],[0.06624945462917077,-0.09370355295520386,-0.01585377561197386,0.0031071505479787825,0.26735761289284976,-0.14244505982878866,-0.01675688823946724,0.002431381450601298,-0.0942912401658391,0.044055485505595605,0.0017717083538988684,0.014941254002152288,-0.0902719653639344,0.09182359825618273,-0.11630653303672174,-0.04651827969803835,0.10591956492231248,0.17473577608711735,-0.09377882739591682,0.07785563977574758,-0.01066678155943607,0.1304984058555645,0.013932649403639339,0.2121316798646807,0.19157647291813248,-0.12165513022859735,-0.0408483438251594,-0.0938126618415525,-0.010101898951164768,-0.22715736338385895,-0.20921051170319543,0.12747523389378093,0.04259249535848914,0.09418542369805642,-0.11308511681405677,-0.1313871645088764,-0.024195632315239284,0.17285502289267152,0.009425954793140076,0.022873838770150208,0.14722203740111367,0.047459348801734615,0.02274610209303889,0.053424445774389755,-0.023835785125464984,0.1966733668111477,-0.013045121298395412,-0.09006522513287733,0.08520058248001197,0.11833421631439854,-0.05896921474746405,0.09049785251404437,0.13456714573638864,-0.4189656184315351,-0.21558441193680752,0.05006332952278734,-0.1163197170050318,0.21080398957682292,0.04050768227019768,-0.01270066238246754,0.007720641699905106,-0.04748462106207368,-0.08023589811979057,0.015229141444660707],[0.1253650741698942,-0.19338395129267075,0.030098136798543552,-0.056201693090703615,0.010760858281372408,-0.09397373885803602,0.017980166311642315,-0.13402130841636,-0.002536304125441837,-0.032537851920220275,-0.20815717319431032,0.05228365770245911,-0.35148216092258056,-0.04696069152690068,-0.18632339647352733,0.03212605217005368,-0.042006191760497975,0.1021201347927738,-0.025263340662016864,-0.026621198098530773,0.14007496826207697,-0.05810250571182945,-0.0037114062513473145,0.17828241396183522,0.0827382004992975,0.24786063167227818,0.05738277645183574,-0.0662053473967813,0.13425628173234885,0.11529221548764657,-0.03414011511841046,0.06751314974105839,-0.010302498950321955,0.06225921928770594,0.004076390215362774,-0.016238672384616158,0.21109687227834442,0.057027929232030934,-0.16631554293561482,0.026051919371631545,-0.03739537786610909,0.039127216451406745,0.029990971772980032,0.045781193499312846,-0.2123005883105416,-0.19598870902280188,0.1750738540327028,-0.003330053206630114,0.16726259104868585,0.06595072782428135,-0.06663729702841083,-0.211065556607289,0.06399347115999847,0.0646623678799083,0.21889751829664045,-0.02531470126810346,0.009516459828322317,-0.22600854374562931,-0.07585846077533058,0.03074309750798621,-0.043849552867467306,-0.10924439964229783,0.17721914300702207,0.2003350420863177],[-0.13351862479615184,0.012365540512768277,-0.05356173692623484,0.18560236747510137,0.02968179035940529,0.07466024483689787,-0.11687936635340831,0.1659372807223304,-0.03736905211490776,0.2328653737089595,0.13655695061208417,-0.0813699112029754,0.06586487837491169,0.030427666861870966,-0.027662410996909515,0.09373411830944851,-0.00318402620173517,0.0035163510651723324,-0.07894269016459016,-0.09305106350651388,0.009576180786933305,0.022334661491301564,0.13448431211665646,-0.16932127622792362,0.0140606184150064,0.19923524373149412,-0.08475444477892372,-0.13043159343038027,-0.11582244524362098,0.0989332423774423,-0.1582704084457964,0.0024374120723090705,-0.08364876089878677,-0.07193436920254127,-0.03828690931308907,-0.046819818724462246,-0.045945265805308506,-0.006745440108633197,0.033618674013155894,-0.05668877458163564,0.05882578627224925,-0.05995065150383733,-0.056761697857214265,0.005232348398366286,-0.21452873145364637,-0.10262103387006578,-0.08349868042064211,-0.12785076846909174,-0.02894607412392083,-0.09165485877960265,-0.11390117987868094,0.12700090436795747,0.2603077985160185,0.12424202731029238,0.03726361276645056,0.14049797419525137,0.03927280462470871,-0.0325861143619218,0.01393925133968426,-0.04198320912211624,-0.27560211062439033,-0.10517145076515358,-0.10362583875224525,0.06044939946337132],[-0.060128079447484065,-0.22496891369017033,-0.003572844458265535,0.03583560819326129,0.09616253587805573,0.045537422732565044,0.29882384528807177,-0.10842494705703119,0.16464622316284133,0.1151278454315821,-0.07942202278542387,-0.01601137284730781,-0.09326661018458303,-0.015488905343340872,-0.05538257199770224,-0.0556092588784656,-0.0006554105361181422,-0.1294755396199342,0.14056735873818768,0.1097644219350464,-0.08690956102179839,0.10783595338254338,-0.13142508549865145,-0.223002008620023,0.03936183163495957,0.06831803341671126,-0.09241813902862535,0.06577389087927449,0.24506058249534268,0.3765471166569305,-0.10911781937156585,0.04083138795193209,-0.15357104349969933,0.35393565928082904,-0.05447945442075523,0.10749886997216376,0.011807345661396951,-0.13213273725080274,-0.025854452358997193,-0.1692038364785183,-0.07999298326362568,-0.03351444878579599,0.028118157635065803,-0.28396618496847503,-0.008200989358903102,0.3191245276965068,-0.11896668593015332,0.04073157681634026,-0.0528942499747164,-0.3527771532244195,-0.12442709597447199,-0.08543523927769313,0.10587345722820919,-0.004384984546010347,-0.027538344811440636,0.08415306109696367,0.016142231866566534,-0.02061705650805952,0.08352729929512802,-0.17203012289886171,-0.02578016111893869,0.15666580830129748,-0.2675161977266658,-0.09883152503872059],[0.019539412246269167,0.028640832604355546,-0.04204084780642307,0.05374006027105893,-0.11081872801259555,0.12243124649684524,0.024336959667861407,0.22689809971283265,0.10582457594455767,0.06894892126288367,0.1770123739949401,-0.10040404614816456,-0.036653391982683,-0.21877376205132593,0.10881090325249311,0.20677081287650734,-0.06068592317382333,-0.15214315137392634,0.1406046185971617,-0.09216326626129111,-0.06305308480534513,0.192438223580259,-0.04484237467069561,-0.02330580560893821,0.20148148939543162,0.07386007774739135,-0.1330039831312371,0.18816231676007114,-0.21766939790686238,0.12593595454017206,0.061272773790194635,-0.06542451988225749,-0.09736228652693378,-0.13905036872809032,0.21612501402002432,0.015554128445944044,-0.0788277281813624,0.07173951876522254,0.15057639097869063,0.039856012105580825,0.08712295108999978,0.11925142800239791,0.007343873046438303,0.039573814671122774,-0.014421908878730298,-0.12404353343476869,-0.1583770669295935,0.05632750573623485,-0.08855032675800137,-0.0026320794174706503,-0.030964641773301667,0.1212855057294396,0.03499541795842088,0.038308832390487275,-0.035814475410032416,-0.017250674351021365,-0.04248782513012866,0.031200287176918463,-0.21551187678591374,-0.0024687907530944043,0.04594458845096004,0.0491577214367744,-0.13468643494607754,-0.05263834659103296],[-0.047596870730826725,-0.067496467054517,-0.15210819993455582,-0.13580403119846418,0.0011368117093405695,0.048185391648504716,0.018499134271349495,-0.1089353668977221,0.04812293361143025,-0.02484904510998086,-0.06194102844144007,-0.1156606375748103,-0.06366945429521086,0.08962200436878458,-0.022996590328799058,-0.015392419012275237,-0.1251284151303979,0.3488027110234423,-0.2831186996049794,-0.25348928298052553,-0.0656050243727222,0.024926726570985897,0.2216915764310949,0.06422243876487012,0.037602796800645884,0.11495537462112276,0.01188479989894944,-0.24438696085855757,0.03185513010342285,0.02716248455721133,0.27120720836890494,-0.09012017562363746,0.15717195515660157,-0.17002262312050723,0.19159780333692777,0.016573904458046917,0.1046233250551449,0.08797650058720592,0.08472600882509272,0.012193086034463707,-0.08199766697427481,-0.019961534204088662,-0.09567896258906651,-0.014087208397153288,-0.20110768489238484,0.021529562859080125,0.12216045270672629,0.15023840672972366,0.16422702908733522,0.019059417867323868,-0.019269088572194417,-0.03190520663272456,0.04904491909001709,0.08963835211647761,0.04226767676669052,-0.16817705125950067,0.1722566185789285,0.059685195680910255,0.12383578036197176,0.006490615123915302,-0.032624186474020815,0.2421934143466202,-0.13372910746489813,-0.21101739540117312],[0.2494745932483029,0.030049247726317212,-0.05354618062177389,-0.07312946883505358,-0.2507600493336178,0.23340886628984886,0.0882037791249149,0.063748847569716,0.10308408620394821,-0.11433313558359674,0.05729928720975112,0.1357141997110213,-0.27561545833092976,0.07449550782654266,0.09338451964660388,0.012685577984862048,-0.11069584741087013,-0.020695230880965088,-0.05727326808904542,0.045355291124412035,-0.06651160310032073,0.09555251700927928,-0.06479215102933299,-0.06498048095389135,0.14606669068813022,-0.020091929619132285,0.0664519512723063,-0.16217630066325442,0.19010967048261843,-0.18152160342008813,0.012116685483058895,-0.028068381189982686,-0.09538222306320358,-0.034298660972196214,0.15439025643877335,0.21736824938946422,-0.029580276734693555,-0.04468318460201652,-0.23474190299215228,0.21438965869250015,-0.1332591911969552,-0.1137393926175486,0.013101320962048161,0.09175699538599946,0.1904076328420147,0.27182621875788976,0.09422949873219429,-0.06001984868443977,-0.08210032389494301,-0.022312550691829625,0.100555939115717,0.11936136443897036,0.07711585758168527,-0.23680620559436485,-0.07077069907239295,0.18208605639874803,-0.06663585117007398,-0.01004200848612504,0.340849851003789,-0.00924165213552038,0.17792909084222105,0.22983889447761258,0.09477189637685955,-0.05436347725230282],[-0.2850033610159829,-0.10736710286909397,0.08041434109286293,0.07399510749534756,0.1465338383633852,-0.1382327692392194,0.024930925423136473,-0.25626363835296223,-0.11035107176697986,0.06616294736444893,-0.27278054250765205,0.10208824105925121,0.2288304485727382,-0.17951092090396642,-0.032358816824363645,0.21480906399010857,0.0625794988709837,0.04966700653868749,0.013438486942454074,-0.17147553925358108,-0.01710448541787002,0.16083328404808692,0.010871950799844422,0.09021170774545632,-0.045218219420848194,-0.10892996712507691,-0.05390222297510972,-0.13162911222735063,-0.1702885484833562,-0.002487379696689239,-0.028596999624344265,-0.11754930177913703,0.08700864939118834,-0.11644834154106423,0.05319845690427391,0.062297473370133395,0.20824486072451262,0.042756527366565454,0.09869879056087656,0.009338705225019953,-0.175898342990951,0.10696532849079261,0.20992349621798895,-0.01553506043248765,0.26172208114835444,